#pragma once
#include "dl_lib_matrix3d.h"
#include "dl_lib_matrix3dq.h"

const static fptp_t refinementLayerweight_item_array[] = {
	-0.17940411, 0.36128694, 0.24816014, -0.09352288, -0.08805693, 0.00821104, -0.08058633, 0.37024552, 
	0.04850741, -0.03166857, -0.16790338, 0.01089825, -0.28592169, 0.23996051, 0.40384266, 0.08156545, 
	0.11728318, 0.03200137, -0.36541390, -0.26536012, 0.23723668, -0.07608978, 0.03309025, 0.14277790, 
	-0.37744793, 0.89053339, -0.35708308, -0.11427593, -0.09891561, 0.01645464, -0.64578247, -0.11796498, 
	-0.03586528, -0.05582909, -0.12492499, -0.05945773, -0.06979454, -0.22186148, 0.09490742, 0.07976810, 
	0.06405305, 0.29410166, 0.34382126, 0.22830363, 0.29701263, -0.02236476, 0.03743802, -0.14290142, 
	-0.70480746, 0.21886840, 0.06062097, 0.03282244, -0.09315321, 0.27315760, -0.52305019, 0.47759175, 
	0.07545483, -0.12809040, 0.02837217, -0.06415135, 0.13780518, 0.17704338, 0.26351935, -0.10777551, 
	0.08117521, 0.02755839, 0.23752590, -0.01159846, 0.28217554, 0.30979794, -0.02958101, 0.22294283, 
	0.90195930, -0.12788139, -0.03166046, -0.23574679, 0.12730727, -0.13455750, 1.23400795, 0.26995820, 
	0.28239387, -0.13273709, -0.09606499, -0.16273654, 0.51899892, 0.07769607, 0.17729838, 0.24722657, 
	-0.28591949, 0.21759838, 0.24719238, 0.55890310, -0.31124362, -0.06894065, -0.16699263, -0.03602931, 
	-0.48294237, 0.20147724, 0.02384925, 0.22406623, -0.24842812, 0.12072924, -0.25305775, -0.34943739, 
	-0.01772279, -0.02085100, -0.15604605, 0.00943371, -0.58457381, 0.39222863, -0.13700777, -0.26312825, 
	-0.24884096, -0.06525599, -0.47232497, -0.29456344, 0.23351930, -0.05413042, 0.25271720, -0.05414914, 
	0.42955393, 0.47429731, -0.77612203, -0.23230173, 0.22273715, 0.05859124, 0.58108330, 0.05070918, 
	-0.26547650, 0.16982512, -0.00904245, -0.17464083, 0.20401579, -0.24067484, -0.31377017, 0.10562062, 
	0.30531883, 0.15915783, 0.14050354, -0.32985532, -0.38025451, -0.00914574, -0.37387377, -0.13820726, 
	-0.12951584, 0.02835917, 0.65651262, -0.00044248, -0.15188812, 0.12105180, -0.11715119, 0.19169815, 
	-0.37718397, 0.13141389, 0.13737459, -0.02052111, -0.17587104, -0.20480998, -0.01244766, 0.01343936, 
	-0.06025571, -0.23079087, -0.34060350, -0.35710227, -0.16406947, -0.09450851, 0.06555435, 0.09453582, 
	0.33729208, 0.43828109, 0.22248664, -0.05378136, 0.15224124, 0.05137740, 0.22149186, -0.05041884, 
	-0.73544645, -0.07527885, -0.21526890, -0.26347312, -0.20349276, -0.36295009, 0.00646060, -0.05435333, 
	-0.09408367, 0.25772384, 0.01471417, -0.28141868, 0.07567525, 0.08469079, 0.22220850, -0.09413403, 
	-0.39159691, 0.42675924, -0.01651099, -0.16376491, -0.21298704, 0.18482432, 0.34196776, -0.29061857, 
	0.60821676, 0.10390890, 0.14961250, 0.14262038, 0.96669286, 0.29348990, 0.27111912, 0.09868947, 
	0.19939375, 0.05434580, 1.56745172, -0.35736737, 0.65225810, -0.15695952, -0.17881410, 0.09450843, 
	-0.41759473, 0.67087352, 0.07849351, -0.00065457, -0.02021833, -0.09380262, -0.97840244, 0.39474770, 
	-0.09306902, -0.10497771, -0.05964042, 0.34220201, 0.07891954, 0.04629495, 0.38435492, 0.02471052, 
	0.09732543, -0.26453137, 0.21665058, 0.46763590, 0.30180857, -0.11031315, -0.11607198, 0.04121806, 
	0.39809287, -0.01641307, -0.32220444, 0.15396045, -0.12431711, -0.04098579, 0.21132042, 0.73835391, 
	0.09549084, -0.00645578, 0.02095211, -0.09240633, 0.50704634, 0.50591516, -0.08789606, -0.20143107, 
	0.09328194, 0.05975686, 0.64274991, 0.60768503, 0.16975938, 0.08048458, 0.05327507, 0.04355292, 
	0.58540177, -0.06509744, 0.14250098, 0.04816260, -0.04290988, -0.23646390, 0.32848501, 0.41961640, 
	0.60846233, -0.11554237, 0.20448670, 0.15465948, -0.16661349, 0.41737834, 0.18065256, -0.24023363, 
	-0.02244738, -0.02553611, 0.00350314, 0.00192149, 0.09317227, 0.32484478, 0.10673022, -0.00607672, 
	-0.07438838, 0.13325620, 0.18322828, -0.09545054, -0.14483090, 0.19618782, -0.35178164, -0.13439775, 
	-0.67713523, 0.10010719, -0.00901013, 0.15527420, 0.05170897, -0.10426859, -0.26870123, -0.05157643, 
	0.12534779, 0.48167479, 0.48612109, 0.37920940, 0.47668275, 0.27638206, -0.18136287, -0.28682595, 
	0.10011009, 0.38936195, -0.71264654, -0.07370608, 0.01824143, -0.02974545, -0.20221558, 0.33025196, 
	-0.20601553, -0.23031822, 0.16455193, 0.09210952, 0.00229214, 0.04477780, -0.21905009, -0.08394045, 
	-0.10572872, -0.08315542, 0.29351220, 0.19849887, 0.15652403, 0.00371787, -0.14598393, -0.34101495, 
	0.08575214, 0.18757108, 0.24602202, 0.22114123, -0.14415045, -0.02575073, -0.05889139, 0.03654032, 
	-0.08829334, -0.03693258, 0.08548969, -0.14863704, 0.17610960, 0.38285947, 0.03116401, 0.15457219, 
	-0.04928700, -0.20440812, 0.16362146, 0.13795683, -0.33592486, -0.21998778, 0.04191482, 0.26493546, 
	0.22185135, -0.22322908, 0.33621809, -0.05338395, -0.12548454, -0.03936575, 0.40259883, -0.21737060, 
	0.07199618, -0.02124579, 0.15857872, 0.37513369, 0.22439864, -0.17945679, -0.06316925, 0.07250266, 
	-0.11666940, -0.05339699, -0.03829163, -1.04022181, 0.14967574, 0.04758051, 0.11982673, -0.21194917, 
	0.46191758, -0.39067468, 0.44658577, 0.10661814, -0.06108446, 0.19955935, 0.66822195, -0.31786677, 
	-0.59053934, -0.21623850, -0.08113131, -0.16364251, 0.23817752, -0.10067603, -0.35567123, 0.01232960, 
	-0.33469063, 0.31378049, 0.00831252, -0.13066155, -0.16126609, 0.09222456, 0.32317591, 0.07861175, 
	-0.09679792, 1.02994585, 0.70859492, 0.03906900, 0.14594333, -0.01025531, 0.26076332, -0.31791329, 
	0.10188924, 0.22759840, -0.09194095, -0.18980336, -0.06010405, -0.69217384, 0.76440835, -0.19090204, 
	0.00796186, 0.39374959, -0.16001865, -0.56405365, 0.61764818, -0.03324713, 0.13585216, -0.30585632, 
	0.36398017, -0.01571943, -0.37094399, 0.28866041, 0.21271041, -0.02356763, 0.42349601, 0.37295890, 
	0.25900543, -0.13901418, -0.02098570, -0.03174441, 0.23499379, -0.27318585, 0.19420011, -0.18543397, 
	0.32285988, -0.29521444, 0.65632975, -0.35849354, 0.37204611, 0.13512190, -0.21914805, -0.03075033, 
	-0.10974038, 0.19570602, 0.04715135, 0.14280805, 0.04990238, 0.20886540, -0.34835091, 0.26653102, 
	-0.04438300, -0.17597584, 0.02952711, 0.02229273, 0.13312691, 0.30481544, 0.31055722, 0.35598218, 
	0.41992220, 0.12814297, 0.14445499, 0.22116341, 0.09395195, -0.07668930, -0.23970060, -0.30200610, 
	0.37070635, -0.52326608, 1.57731485, -0.11976673, 0.19062704, 0.29752743, 0.92619008, -0.13269053, 
	0.18314229, -0.22743475, -0.32871988, -0.26358891, 0.14099938, -0.09008150, 0.13698441, 0.14181137, 
	0.31223494, -0.02747387, -0.34497008, -0.49505755, -0.05217751, 0.12591231, 0.15388228, 0.26413772, 
	0.27954242, -0.27139241, 0.15499209, 0.04435607, -0.01741154, 0.08240415, -0.03869126, 0.07076883, 
	-0.04262998, -0.04277257, 0.23578581, -0.15366805, -0.01918733, -0.13005038, 0.32952285, 0.20365222, 
	0.13024946, 0.44336575, -0.03752896, 0.43284148, 0.05302609, -0.11886723, -0.26415744, -0.36915904, 
	0.34462363, 0.49498877, -0.19674902, 0.04822992, 0.10567009, -0.03504675, -0.08322178, 0.76884121, 
	-0.12912892, 0.17462833, -0.31583449, -0.05930289, 0.27687827, 0.75268960, 0.16011868, 0.23097265, 
	-0.02645687, 0.08131138, 0.36932597, 1.42419934, 0.49204484, -0.28920189, 0.16969259, -0.00335231, 
	-0.14580494, 0.25268111, -0.15097097, 0.03595302, -0.03756583, 0.06593556, -0.66895556, 0.42709416, 
	0.37976179, 0.04290971, -0.17122377, -0.21767490, -0.24536815, 0.16440971, 0.00755067, -0.29852638, 
	0.25875625, 0.19785430, -0.40582165, -0.15732923, -0.14932013, 0.21965370, -0.32077664, 0.14141527, 
	0.07149616, 0.48292950, -0.82785714, -0.01133101, 0.02004249, 0.08442650, -0.00758350, 0.47969505, 
	-0.24340753, -0.03895282, 0.18507624, 0.18764108, -0.04940931, -0.20704812, -0.22075765, -0.08325318, 
	-0.22107325, -0.02749712, 0.18549225, 0.27289456, -0.14677046, 0.19427508, -0.03057326, -0.11641018, 
	-0.57025462, -0.28160563, -0.04589782, -0.03661323, 0.06168173, -0.27198184, 0.07032979, -0.11409275, 
	-0.69987339, -0.02111209, -0.53204811, 0.35089687, 0.28717098, -0.04070476, -0.02624059, -0.09202170, 
	0.05943825, -0.17569683, 0.40424272, 0.12123188, 0.07622209, -0.02121123, 0.32626191, 0.13965484, 
	-0.58251727, -0.08889131, -0.27394736, 0.08518226, 0.01401396, -0.12259140, -0.39415601, 0.09247588, 
	-0.27059436, 0.15027194, 0.33857605, -0.13948898, -0.05378372, 0.09904864, 0.23145966, -0.17622882, 
	-0.07189755, 0.09026320, 0.36243856, 0.37008953, 0.22265333, -0.16571000, -0.10654972, -0.10684402, 
	0.49355030, 0.63027799, 0.44337642, -0.35765907, -0.21475749, -0.05493515, -0.10396263, 0.56114882, 
	-0.19868058, 0.05720580, -0.06980997, 0.19204693, -0.17357503, 0.70026594, 0.11370395, -0.17588758, 
	0.00310966, -0.12589510, -0.14004891, 0.75065458, -0.02997442, -0.00537159, -0.13050497, 0.01220544, 
	1.07439005, 0.50876433, 0.01958819, -0.08168994, 0.04173839, 0.12182599, 0.31523934, -0.13409486, 
	0.35244864, -0.05869257, 0.21360862, 0.19535068, -0.35119191, 0.41464543, 0.28197026, -0.10770914, 
	-0.20015955, -0.15861854, -0.58913195, 0.95543653, -0.11866936, 0.15017718, 0.35156241, -0.09328737, 
	0.28222290, -0.72637659, 0.95617670, -0.05459965, -0.11654033, -0.12476517, 0.37816155, -0.61883706, 
	0.32618853, 0.03686938, 0.10897613, 0.08497223, 0.13473137, -0.44408038, 0.07130577, -0.03993625, 
	-0.06103947, -0.18575104, 0.13870721, 0.27036569, 0.54699785, -0.02982827, -0.17482677, 0.25728101, 
	-0.43727347, -0.56423718, 0.12480122, -0.26246995, 0.01369723, -0.01491442, -0.31807336, -0.21704876, 
	0.23118944, 0.21136278, 0.13463958, -0.25123012, -0.38145629, 0.00367235, 0.12707072, 0.08977555, 
	-0.37217829, -0.24547687, -0.23697382, 0.08741116, -0.11063255, -0.22409342, -0.01189449, 0.40919143, 
	0.48323622, -0.24842247, -0.04165331, 0.28504384, 0.07066753, 0.01899653, -0.31834233, 0.08230839, 
	0.43374342, 0.04683747, -0.21762544, -0.15168183, 0.26672676, -0.35816273, -0.04654661, 0.28262094, 
	0.10753776, 0.20863351, 0.21927932, -0.08029521, 0.32922414, -0.07281284, 0.22565423, -0.25659037, 
	-0.01627901, 0.39284542, -0.69660741, 0.10406806, -0.00435069, 0.15510520, 0.68341386, 0.36453414, 
	-0.12096659, 0.11522082, -0.03081002, -0.20806777, 0.66432858, -0.15723084, 0.16274194, -0.12420693, 
	-0.25606042, -0.03447575, 0.48394725, 0.38905698, 0.01269779, -0.08511402, 0.36135679, -0.04962761, 
	0.17783342, 0.00521052, -0.05795421, 0.18921344, 0.05196222, -0.13568461, -0.19919005, 0.19031449, 
	-0.22029345, -0.18423270, 0.01484987, 0.35327214, 0.00778650, 0.17272046, 0.03258229, 0.13517208, 
	0.09875382, 0.08785585, 0.17806259, 0.30592087, -0.15898666, -0.02659784, 0.20997065, 0.05297650, 
	-0.38015604, 0.76970506, -0.62348902, -0.04768839, -0.08064258, -0.06045108, -0.22002424, 0.36620775, 
	-0.49719095, -0.18236208, 0.21354300, 0.14835775, 0.18918748, -0.16852903, 0.09852710, 0.17902133, 
	-0.21071035, -0.39341572, 0.29594037, 0.20480606, -0.03351168, -0.06980009, 0.12466890, 0.00709042, 
	0.00693943, -0.06976276, 0.09951530, 0.00674106, 0.04360800, 0.00370760, 0.43373755, -0.39626822, 
	0.29413435, 0.27683136, -0.05577195, -0.01457363, 0.13254321, -0.08169948, -0.50638437, -0.15877585, 
	0.19853504, 0.04936672, -0.18969209, 0.17230198, -0.10466515, -0.11813921, -0.09788734, -0.07270411, 
	0.04119091, -0.03615600, 0.74435174, -0.15404011, 0.03741361, -0.19544908, 0.36345929, -0.01478070, 
	0.20521106, -0.14911819, 0.12577546, 0.37592649, -0.37252373, -0.09966104, 0.02659983, 0.04319895, 
	-0.05771964, 0.01489777, -0.55227369, -0.10095011, -0.22944953, -0.27283654, 0.24543577, 0.08185310, 
	0.07747977, -1.01394939, 0.51608795, 0.07695957, 0.03256908, -0.05787328, 0.33240342, -0.30440128, 
	0.00846965, -0.14167643, 0.04586036, -0.13894418, -0.52092940, -0.07875551, -0.20508145, -0.07283824, 
	-0.12418614, 0.37988111, -0.84246874, -0.30470803, -0.28980109, -0.10789875, -0.24743821, -0.31507683, 
	0.26654920, -0.10831685, 0.89810103, 0.06340910, 0.40007663, 0.14540859, 0.71942341, 0.03274414, 
	0.35790497, 0.31989521, 0.25191268, -0.15505789, 0.06875312, 0.03888641, 0.25980952, -0.10782463, 
	-0.39675033, -0.09952265, -0.11068215, 0.01087029, 0.35395771, -0.11025987, 0.00746365, 0.12363287, 
	-0.42920876, -0.11262700, 0.45004353, -0.12736616, -0.03421611, -0.05805831, 0.10187504, -0.31460205, 
	0.09835972, 0.02436255, 0.04196956, 0.06122752, -0.33609527, 0.09519937, 0.48790261, 0.00087485, 
	-0.00263210, 0.10031642, -0.18856125, -0.00091192, 0.17015940, 0.06611067, -0.05528137, -0.08966716, 
	
};

const static dl_matrix3d_t refinementLayerweight = {
	.w = 24,
	.h = 40,
	.c = 1,
	.n = 1,
	.stride = 24,
	.item = ( fptp_t *)(&refinementLayerweight_item_array[0])
};

const static fptp_t refinementLayerbias_item_array[] = {
	-0.59222454, -1.74136806, -1.15482652, 1.52926052, 2.71248722, 0.71614218, 1.05239773, -0.57824045, 
	-2.98557377, -0.94328302, -1.86759996, -0.24411297, -1.94366789, -0.97117043, -0.21305782, 0.87798810, 
	0.20358612, -0.60174674, -0.69553792, -0.72260910, 2.07216096, -0.46561959, -2.48880601, -0.59612799, 
	-1.14994025, -0.94847625, -1.60065818, -0.56739444, 1.49691546, 1.72052765, 1.00991654, -1.17331684, 
	0.50121701, -0.50237143, -0.65712088, 0.31442386, 1.37953889, 1.92921484, 1.16264570, 1.24407935, 
	
};

const static dl_matrix3d_t refinementLayerbias = {
	.w = 1,
	.h = 40,
	.c = 1,
	.n = 1,
	.stride = 1,
	.item = ( fptp_t *)(&refinementLayerbias_item_array[0])
};

const static fptp_t lstmweight_ih_l0_item_array[] = {
	-0.00297205, -0.14735188, -0.19194874, -0.01530706, 0.40541059, -0.71153760, -0.01883849, -0.26443630, 
	-0.74855107, 0.54177660, 0.08626952, 0.00886082, -0.36116335, 0.21971998, 0.06567083, -0.09522448, 
	-0.05974370, -0.05274156, 0.30477011, -0.14580859, -0.73052770, -0.06058205, 0.38902578, -0.10929021, 
	0.49455592, 0.44819239, 0.14364068, 0.03563040, 0.04703622, -0.30041328, -0.11001615, 0.00075225, 
	0.21419556, 0.38838691, 0.41830528, -0.14998202, 0.09410732, 0.13117468, 0.15147825, -0.16572726, 
	0.02625213, 0.09045818, -0.05968038, 0.12850074, -0.07774818, 0.04807903, -0.23536727, 0.43562102, 
	-0.25446165, -0.13649391, -0.26504207, 0.11331254, 0.02122486, 0.27067113, -0.37857899, -0.19720784, 
	0.20364687, -0.24643905, 0.04275419, 0.06249731, 0.32800063, 0.09669454, -0.49684849, -0.08155882, 
	-0.17173444, 0.41165391, 0.32906061, -0.07409749, 0.04660586, -0.07152745, -0.08182565, -0.42736030, 
	-0.24100518, 0.07411079, 0.12404381, -0.21298391, 0.59173959, -0.00624460, -0.52231795, 0.17562439, 
	0.00085560, -0.05017774, 0.08960531, -0.02134410, -0.36129484, 0.36352870, 0.22688036, -0.42784488, 
	0.71700227, -0.10389373, 0.06064600, 0.23050199, -0.10901876, -0.16397434, 0.18209283, -0.01863922, 
	-0.86141342, 0.13544263, -0.07488239, 0.00910995, -0.19330525, 0.18708433, -0.07253961, 0.06753977, 
	-0.09475514, -0.94079089, 0.64108872, -0.08890339, -0.18837024, 0.23479056, 0.88982010, -0.15014262, 
	-0.03815993, -0.28093573, 0.00079336, 0.34014538, -0.20907897, -0.34513515, 0.39865631, 0.24856119, 
	-0.25088516, -0.04640642, -0.31239420, -0.38186416, -0.08636704, 0.13877399, 0.27667052, -0.25079703, 
	-0.01820959, -0.06576756, 0.11978546, 0.23569596, -0.17085759, 0.00185530, 0.00762100, 0.17485560, 
	-0.53014112, -0.17391756, 0.13116291, -0.03339919, -0.38944280, 0.16362263, -0.43140453, -0.11948082, 
	-0.09904831, -0.23141667, 0.16941671, -0.09565358, -0.02744291, -0.07995884, 0.24818695, 0.01606851, 
	0.01176182, -0.12362127, -0.04375062, 0.13250719, -0.02003455, 0.09644773, -0.30847409, 0.01507039, 
	-0.27281895, -0.49998268, -0.05062254, -0.03771420, -0.34745148, -0.00044927, 0.10242153, -0.56589776, 
	-0.75289065, -0.23033857, 0.17666295, 0.16826421, -0.00427256, -0.05394218, 0.35516438, -0.45818800, 
	-0.29139245, -1.04698336, -0.01943515, -0.09075525, -0.28748029, -0.21980987, 0.36318699, -0.00814146, 
	0.09139643, 0.13812464, -0.03050391, -0.17218322, -0.01795406, -0.11906944, 0.26264679, 0.08658573, 
	0.03014026, 0.19149406, 0.31046510, -0.03120673, -0.11230395, -0.35713017, -0.15687904, 0.04097038, 
	0.24101910, 0.32493711, 0.35956705, 0.17250884, 0.17610824, 0.40263739, -0.06979762, 0.51835257, 
	-0.07604488, 0.49434772, -0.29148519, -0.78381902, 0.46256444, 0.35408992, -0.51579285, -0.44334832, 
	0.31353983, 0.06544463, -0.40672275, 0.84089130, 0.51747030, 0.26776230, 0.37550181, 0.00353743, 
	0.23566513, -0.27702349, -0.25587758, 0.32496965, 0.13596556, -0.47342977, -0.12314039, -0.26514578, 
	0.13098502, -0.06579813, -0.33109272, 0.13105978, -0.05672464, 0.27527460, 0.27238774, -0.01708405, 
	-0.01250198, -0.17858347, -0.04406530, -0.38803113, 0.43593487, -0.29240870, 0.33289722, -0.06558961, 
	-0.29277262, -0.20431709, 0.04107396, -0.01507012, -0.07957759, -0.07288697, 0.14914864, -0.08185289, 
	0.12852187, 0.01130443, 0.01429222, 0.03253670, 0.09821645, -0.07159778, -0.16559203, 0.07912651, 
	-0.21896888, -0.06638820, -0.02595781, -0.42267278, -0.11718024, -0.02831286, -0.13698518, -0.00867117, 
	0.00699887, -0.00369704, -0.27786359, 0.21531983, -0.03499793, 0.11000367, 0.27192536, -0.19297773, 
	0.06095867, 0.31009120, 0.02992067, 0.38778201, 0.32334480, -0.06556707, 0.20069239, 0.06565188, 
	0.21050878, -0.19033395, 0.64314425, -0.02142441, -0.25262532, 0.24218006, 0.05269247, 0.02569058, 
	0.07910330, -0.18145365, 0.16070752, 0.16845401, 0.24469866, 0.09339968, -0.07832127, 0.20993574, 
	0.07113476, 0.01029885, -0.14418100, 0.63530004, -0.01303975, 0.01951243, -0.02608071, -0.15941451, 
	0.14730118, -0.13886289, 0.15974759, 0.00463157, -0.10547108, 0.07314686, -0.66611546, -0.06083909, 
	-0.06909627, -0.17694670, 0.10875200, 0.18354583, -0.20748174, -0.17992118, -0.41333556, -0.17470181, 
	0.24299887, 0.13889456, -0.21434295, 0.00122314, 0.21749988, -0.07982863, -0.21461771, -0.24450597, 
	0.21748859, 0.15924111, -0.11300033, -0.01564612, -0.13994898, 0.03988837, -0.08966485, -0.00285565, 
	-0.13061385, 0.19555752, 0.20711593, -0.35791677, -0.09341472, 0.06889304, -0.10464529, -0.26955485, 
	-0.19047694, 0.25045037, -0.44133177, 0.15970200, 0.21405447, 0.39689988, 0.29998991, -0.04216568, 
	0.06366417, 0.20223810, -0.32105249, -0.06633214, -0.49907920, 0.29731351, 0.06723590, 0.18279612, 
	0.06761947, -0.17758398, -0.39628869, 0.07203709, 0.42175856, -0.36919981, -0.24402264, 0.18707319, 
	0.16485147, 0.35720092, -0.66555560, -0.31469122, 0.14199889, 0.06593588, 0.26983055, -0.33638209, 
	-0.10370544, 0.44310397, -0.00477525, -0.35207748, -0.27847403, -0.29166117, 0.09853161, 0.06760044, 
	-0.35868773, 0.58264941, -0.48020729, 0.27387163, 0.37261721, -0.10810367, 0.19144017, 0.32537195, 
	0.31575871, 0.20566654, -0.18598139, -0.28209612, 0.23086594, -0.31293032, 0.08177210, 0.26781982, 
	0.18415369, 0.44411522, 0.03615144, -0.05340667, -0.94571710, 0.53915566, 0.00165708, -0.07177258, 
	-0.10923208, -0.15931301, 0.60592860, 0.63155502, 0.37895063, -0.07358100, -0.03521305, -0.09838354, 
	-0.42849314, 0.12098737, 0.29404551, 0.37538373, 0.55895180, -0.00696702, -0.13689280, -0.45083317, 
	0.14403792, -0.01839977, 0.34832054, 0.17420551, 0.40842769, 0.05187079, -0.19685137, -0.20609786, 
	-0.00764242, -0.28701758, -0.20764053, -0.09412250, -0.52272856, 0.17677502, -0.20483153, -0.20754996, 
	-0.26087376, -0.21657924, 0.47574303, 0.86942196, -0.37943813, -0.53718346, 0.36555320, -0.45438385, 
	-0.56008589, 0.22357948, 0.31717479, -0.27771035, -0.10580478, 0.01895765, 0.41190064, 0.12988710, 
	-0.19411282, 0.04848659, 0.27892348, -0.26207155, -0.02993597, -0.04945853, 0.06888905, 0.29100335, 
	-0.26599970, 0.26929212, -0.05069077, 0.04194333, -0.12092153, -0.38836077, 0.25325266, 0.10465219, 
	-0.12092561, -0.55197048, -0.10837147, 0.00822445, -0.25903910, 0.01914404, -0.20699483, -0.11635234, 
	0.17635255, 0.02116564, -0.19322820, 0.02391654, 0.05647854, -0.11653734, 0.19135946, 0.04216450, 
	0.86432362, -0.50375021, -0.22426847, -0.37869957, 0.04752864, 0.09497186, -0.02803020, -0.44111353, 
	0.01673712, 0.10192838, 0.24147162, -0.49486473, -0.14595287, 0.42118460, 0.20161749, -0.44012022, 
	-0.42915750, 0.58040464, -0.25402516, 0.00478275, 0.44372812, 0.31469774, 0.79122561, -0.21923622, 
	-0.23668121, 0.01401108, -0.43695882, 0.18391386, 0.08885676, 0.47995332, 0.41847390, -0.11049232, 
	0.11005409, -0.32160017, -0.05311307, -0.67068726, -0.19285519, -0.08106458, 0.26100078, -0.05620554, 
	-0.20689863, -0.20578890, 0.27975878, 0.02711017, -0.22103778, -0.01583448, -0.14536199, 0.14786424, 
	-0.14338323, -0.47939935, -0.12772243, -0.13550225, -0.34267560, -0.06880935, 0.08224253, 0.06563652, 
	0.47222376, -0.32292151, 0.03399865, 0.58954620, -0.32089481, 0.00004629, -0.07643747, -0.24596280, 
	-0.22069687, -0.04957192, -0.10457776, 0.30299923, -0.00478397, 0.11046677, 0.02088044, 0.24353866, 
	0.00595191, -0.02423854, -0.25179005, 0.07241966, 0.05906823, 0.24362648, -0.62769043, 0.38622206, 
	0.12624076, 0.01278273, 0.18894726, 0.02220572, 0.23247054, 0.04471887, -0.36754146, 0.16411819, 
	0.10113207, -0.56449509, -0.18091069, 0.39027712, 0.56054777, 0.22544315, 0.14531726, -0.56043559, 
	0.07808001, -0.29542014, -0.16375138, 0.01297804, 0.04452423, 0.54578751, 0.17520219, -0.04144880, 
	-0.13735539, -0.32819125, -0.07439888, 0.06477349, -0.31728581, 0.31190926, 0.03532188, 0.06690100, 
	-0.12031192, -0.32157078, -0.27228162, 0.07923783, -0.12959190, -0.31284818, -0.09645450, 0.13737962, 
	0.02870486, -0.14197187, 0.11313512, -0.24027303, 0.42507592, -0.27519932, -0.22148263, -0.12406728, 
	-0.16186737, 0.12513238, -0.40775490, -0.33903688, -0.02985510, 0.30287716, 0.20446435, 0.02562763, 
	-0.15781437, -0.05816311, -0.08665071, -0.19091190, -0.01665489, -0.23464406, 0.09645178, 0.08168815, 
	0.43605292, -0.12963960, 0.01850215, 0.22062737, -0.03682700, -0.04884259, -0.75270462, 0.39190969, 
	0.35786220, 0.42550856, 0.14848493, 0.30179295, -0.17646047, 0.09800610, -0.03550771, -0.52796257, 
	0.22073203, 0.82628268, 0.31479874, 0.21291962, 0.04985210, 0.14801544, 0.37706694, -0.03477449, 
	0.05097060, 0.02331100, 0.65325588, -0.45583516, 0.19417655, -0.40287250, -0.48679274, -0.20135330, 
	0.22328706, 0.52744889, -0.12345546, 0.02939515, 0.55386263, 0.17926517, 0.78459471, -0.40497553, 
	-0.14191948, -0.47707427, -0.24182126, 0.53848261, -0.69225299, 0.21907645, -0.32792240, -0.45961180, 
	0.43264169, -0.17028213, 0.31228974, 0.79851252, 0.48304147, -0.06371110, -0.27338213, 0.60679066, 
	-0.09794383, -0.15054271, 0.33861426, -0.11064618, -0.48824543, 0.21782458, -0.12777089, -0.06260171, 
	0.18873866, -0.08108439, -0.00964449, -0.26547548, -0.23148175, 0.19195193, -0.66377819, 0.13668591, 
	-0.18527226, -0.09605781, -0.42881182, 0.14101483, -0.00190797, -0.01304186, 0.22312741, 0.03802673, 
	-0.10886519, 0.11116745, -0.16711177, 0.28295836, 0.52978009, -0.12648994, -0.07342472, 0.08613088, 
	-0.15369184, -0.23310277, -0.21028610, -0.57832819, 0.03551895, 0.16300030, 0.09357464, 0.13457112, 
	0.37715384, 0.01292742, -0.28308973, -0.37700918, -0.26258191, -0.09840659, -0.21607625, -0.02143406, 
	-0.01150263, -0.03996137, -0.21683164, 0.02856844, -0.37251204, 0.32438058, 0.12157358, -0.01049038, 
	0.11866827, -0.20350315, -0.13948233, 0.00790594, -0.30933613, 0.36153987, -0.22855321, -0.03710223, 
	0.10047698, 0.22755100, 0.38912520, -0.10307743, 0.06666489, 0.06071001, 0.14778084, 0.39159283, 
	0.36949956, -0.19234632, 0.17726861, 0.05146988, 0.75028616, 0.05787219, -0.05646246, 0.24695116, 
	0.88557488, 0.21876796, -0.25805792, 0.14982851, 0.19809353, 0.40699545, -0.17327200, -0.09014335, 
	-0.00341013, -0.67519474, 0.51716536, 0.01967498, 0.41387770, 0.25340149, -0.13098331, -0.30485755, 
	0.10299178, -0.10670679, 0.00561411, -0.23373872, 0.15159601, 0.27151620, -0.28347224, 0.06745849, 
	-0.20593394, 0.06169135, 0.30044568, 0.23731421, 0.23180079, 0.28337577, 0.23152043, 0.04676754, 
	0.06106783, -0.32036084, -0.18848492, -0.41105109, 0.31648746, 0.25621256, -0.26524967, -0.12871523, 
	0.21524636, -0.15914935, -0.41125426, -0.09283995, 0.23039202, -0.15380985, -0.49783871, 0.37987229, 
	0.23935086, -0.26982388, -0.16092175, 0.18300112, -0.08226284, 0.03995409, 0.46355692, -0.13202545, 
	0.24266440, -0.86170459, -0.32264814, 0.35622275, -0.24150318, 0.44063374, 0.09718683, 0.01550222, 
	0.12457650, -0.25691035, 0.06552323, 0.41895521, 0.29086387, -0.21828310, -0.48128498, -0.53475678, 
	-0.61914641, 0.35279730, -0.24186054, 0.04889398, 0.24641328, 0.45220700, 0.12832096, -0.40436420, 
	-0.08777663, -0.53421330, -0.18124956, -0.04735538, -0.52706313, 0.36097944, -0.02877161, 0.92014140, 
	0.35802522, -0.31799656, -0.12560816, 0.30386105, -0.05540754, 0.26482964, -0.04632789, -0.31137532, 
	-0.88001764, 0.08934707, -0.36163977, -0.03430775, -0.24053556, 0.52953446, 0.26800135, -0.11014722, 
	0.11477752, 0.19057652, 0.05926321, 0.52521199, 0.29385808, 0.19755358, 0.14762512, 0.06315796, 
	-0.51720798, -0.06816243, 0.15785500, -0.49100062, -0.43819290, 0.34630519, 0.02217803, -0.47286311, 
	-0.17651504, -0.17529282, 0.24856542, 0.20666896, 0.07629437, 0.16727500, 0.04720485, 0.47890165, 
	-0.09279525, -0.23856542, -0.09752852, 0.33790946, -0.06105208, -0.27018854, 0.23018295, 0.09955319, 
	0.48193946, -0.53754145, 0.21641198, -0.21542996, -0.10674062, 0.24531926, -0.44119993, -0.06408419, 
	-0.02604248, 0.10746235, 0.21873453, -0.46003121, 0.38978526, -0.12962765, 0.44576707, 0.20868228, 
	-0.62767661, -0.45608854, 0.31117120, 0.12284952, -0.39062169, -0.03218788, 0.38332272, 0.06331315, 
	0.40619126, -0.49344346, -0.17736690, 0.02994386, 0.36194068, -0.36727050, -0.26933649, 0.33971950, 
	-0.19603372, -0.32011658, -0.49353331, -0.00419755, 0.67067564, -0.35122427, -0.03742527, 0.07155275, 
	0.22259441, -0.23924401, -0.07139298, -0.06797087, -0.03875620, 0.10192277, -0.51592469, -0.09388001, 
	0.16823831, -0.32164884, 0.26368487, -0.42871863, -0.40834597, -0.02877309, 0.14990591, -0.06624460, 
	0.30345473, 0.14698002, -0.39623204, 0.48084080, -0.06707346, -0.15682369, -0.50932634, 0.59510034, 
	-0.45356420, 0.20936935, 0.34738725, 0.11467932, 0.34353969, -0.17761301, -0.21975484, -0.18344268, 
	0.06693931, 0.09498996, -0.13631067, 0.12524003, 0.57274389, 0.20235913, -0.16173451, -0.23022009, 
	-0.52511317, 0.09155688, 0.24808085, -0.16761854, 0.11513471, -0.26620170, 0.38829985, 0.14082508, 
	0.15038005, 0.25923589, -0.07730860, -0.65491641, -0.07182042, 0.09845533, 0.28885835, -0.21678454, 
	-0.44743049, -0.10303053, -0.18726909, 0.07563368, 0.34528545, -0.29509380, 0.03423624, -0.15439455, 
	-0.49503809, 0.03469261, -0.58434659, 0.30198663, -0.47279879, 0.28272733, 0.07360044, 0.30868930, 
	-0.21194842, -0.48096645, 0.20690535, 0.23532729, 0.06304796, -0.06130012, 0.21614763, 0.10801949, 
	-0.55898660, -0.07688640, -0.08383132, 0.18960068, 0.07255989, -0.20030859, -0.44786528, 0.48898879, 
	0.00431660, -0.25102675, 0.41749096, 0.45470858, -0.19453210, -0.04901140, -0.27662358, 0.12196720, 
	0.34386575, -0.10066120, 0.36545822, -0.07748932, -0.13026722, -0.23098892, 0.35985807, -0.48503187, 
	0.99344963, -0.43331718, 0.37532470, 0.12358459, 0.87351072, -0.02930062, 0.25642985, -0.00615339, 
	0.08394431, -0.27359504, -0.35974351, -0.39039835, 0.23712596, -0.01049380, -0.14241774, -0.08351503, 
	0.39811429, 0.41235682, -0.02681643, -0.13591152, 0.22614740, -0.20756967, 0.42406020, -0.56766409, 
	-0.11897571, -0.00748319, -0.01280089, 0.08168107, 0.00323194, 0.09570310, 0.08259424, -0.12168150, 
	-0.36213440, -0.00982718, -0.47579569, -0.22865818, 0.16195393, -0.12362751, -0.04199104, -0.40514326, 
	-0.31700838, -0.18147388, -0.23432249, -0.05907263, 0.13844161, -0.12050153, -0.06117268, 0.16537105, 
	-0.07411107, -0.03884173, -0.22960559, 0.20737135, -0.35231882, 0.12810759, 0.35546866, -0.24818121, 
	-0.29261836, -0.15885846, -0.15362531, 0.13038750, -0.17407960, 0.55430943, 0.21814358, 0.27508646, 
	-0.15626715, -0.00688271, -0.26005864, -0.49939591, 0.36934114, 0.19947764, 0.81497562, -0.08604837, 
	-0.24016435, -0.18220772, -0.29637188, -0.50030667, -0.34993184, -0.13300733, 0.00282776, -0.05696596, 
	-0.44324854, -0.03352489, 0.01797557, -0.14913990, -0.05170364, -0.15745568, -0.22105347, 0.00879072, 
	-0.39569530, -0.22733063, 0.09340545, 0.12835200, -0.06857993, 0.05697826, 0.94213855, -0.09905884, 
	0.23662412, -0.74311161, 0.17351404, 0.25846508, -0.02306425, -0.06906970, -0.23178293, -0.06709976, 
	-0.04234771, 0.33969072, -0.28144926, 0.11916666, -0.03647017, 0.19916148, 0.35924548, 0.06993128, 
	-0.00137892, -0.26371059, -0.32251209, -0.24345097, 0.12407573, 0.09732912, -0.32165030, 0.46819082, 
	-0.59395868, 0.08762358, -0.36618179, 0.14162554, 0.10026857, 0.11298424, 0.31098288, -0.20219538, 
	-0.18912385, -0.11322229, -0.59113586, 0.00189817, 0.15767778, -0.03744359, 0.14665225, 0.63962984, 
	0.32689589, -0.47988278, 0.23052904, -0.11204418, -0.31535289, -0.28070357, -0.20299855, 0.12559836, 
	0.00838370, -0.07313443, -0.22573821, 0.04560049, 0.11491435, 0.68274993, 0.19745405, -0.08400650, 
	-0.16253853, -0.16153075, 0.12298170, -0.23584497, 0.13318877, 0.11395781, -0.02838702, 0.03027915, 
	0.01776086, -0.06128555, -0.15278044, -0.12538461, -0.07338612, -0.02540574, -0.14408730, -0.05183380, 
	0.13655038, -0.02833891, -0.03811186, 0.07190058, 0.00078050, -0.22432703, 0.23479293, 0.12486967, 
	0.14831337, 0.00389789, 0.27942750, 0.07064550, -0.21992320, -0.01333709, -0.12208306, -0.11286231, 
	0.16277322, -0.29833397, 0.13518433, 0.18180209, 0.22891584, -0.61006373, -0.13207641, -0.04585559, 
	0.08245722, 0.32771346, -0.30962545, -0.14051367, -0.34602910, 0.18353848, 0.26139233, 0.02361509, 
	0.24201730, -0.03382766, 0.10586137, 0.39781621, 0.26604900, 0.08089898, 0.15600201, -0.31121036, 
	0.03909012, -0.24303640, 0.04870553, -0.25429526, 0.10717818, 0.13582392, 0.02143158, -0.03023444, 
	-0.11533217, 0.25581253, 0.09423578, -0.22378089, 0.61219537, 0.33767802, 0.57177234, -0.17125326, 
	0.06007598, -0.26695994, 0.09881419, -0.56502664, -0.07757805, -0.22084841, 0.16329150, -0.38556284, 
	0.02326308, 0.03571294, 0.21253049, 0.42367670, 0.15080228, -0.75822139, 0.08146631, 0.05865974, 
	-0.01864138, -0.53892398, -0.27877682, -0.45364124, -0.20698902, -0.45426035, 0.02134177, 0.21273062, 
	-0.02189479, 0.15517078, -0.27245936, -0.26164803, -0.02512907, 0.24608687, -0.01749502, 0.09923179, 
	-0.48399407, 0.37436113, -0.29243550, 0.05259546, 0.01590853, -0.58929205, -0.00186872, -0.01347671, 
	0.01742835, 0.38835421, 0.17075431, -0.29437372, 0.38279739, -0.15921043, 0.63671374, -0.24269934, 
	-0.17010786, 0.20628153, 0.29763025, -0.26336944, -0.03735828, 0.03318205, 0.38365006, 0.02210479, 
	-0.54130805, -0.05796891, 0.05168254, 0.45227969, -0.16843654, -0.00520889, 0.35593566, -0.03781772, 
	-0.05273165, -0.53383356, -0.55084413, 0.27492148, 0.36259139, -0.12300373, -0.03684123, 0.51747298, 
	0.59807962, -0.32376623, 0.42696360, -0.11129908, -0.69936049, -0.49669808, -0.16723076, 0.07146513, 
	-0.32357633, -0.47653067, 0.13752809, -0.03003144, -0.34546143, 0.25247520, 0.11232156, -0.40397710, 
	-0.15158419, -0.34908786, 0.06409129, 0.32260415, -0.02740934, -0.41041648, 0.23653990, 0.30131024, 
	-0.30696538, -0.43808907, 0.26312521, -0.15420707, -0.02399418, -0.52362728, 0.03263533, -0.18596412, 
	0.18339786, 0.05826404, -0.64428818, -0.51568502, -0.09275062, -0.00913468, -0.06532049, 0.40920147, 
	0.15210719, -0.01248790, 0.30925921, -0.37254274, -0.36508039, -0.85128272, 0.12746266, 0.13609333, 
	0.02953928, -0.21057647, 0.09220041, 0.13161041, -0.08586455, -0.33181393, -0.36327842, -0.04635520, 
	0.21650384, 0.67095613, -0.32308543, 0.48678720, -0.31394550, 0.89273638, -0.42775410, 0.11091560, 
	0.21675457, -0.49149206, 0.36073336, 0.19218646, 0.00342831, -0.12842470, -0.64557564, -0.02467419, 
	0.37702632, -0.13632113, -0.09300038, 0.50026172, 0.57892078, 0.19204322, -0.07383180, -0.86710584, 
	-0.34587914, 0.23098488, 0.28605038, -0.32403025, 0.62751901, 0.41231200, -0.09337942, -0.17440692, 
	-0.25605977, -0.03600131, -0.34725600, 0.19550943, -0.00891824, 0.09884455, 0.25773522, -0.08064461, 
	-0.50476462, -0.16182813, -0.25301188, -0.11561690, 0.00877758, -0.00012198, 0.14753282, 0.35057253, 
	-0.10856203, -0.29374418, -0.41793028, -0.55767524, -0.46465206, -0.34921265, -0.03559319, -0.25034109, 
	0.19974364, 0.10768053, -0.34766233, -0.06105429, -0.06475581, 0.10120521, 0.27678823, 0.04783716, 
	-0.01243942, -0.10266551, 0.60302776, -0.36600327, -0.22556324, -0.24110007, 0.01434159, 0.10775885, 
	-0.14883851, -0.22959912, -0.49541315, -0.18940815, 0.05206240, 0.07115784, 0.25569746, -0.28856382, 
	-0.54245472, 0.03000898, -0.48868981, -0.27003509, -0.24389826, 0.11372064, 0.17187983, 0.34047589, 
	-0.87162554, 0.12894517, 0.07251566, 0.28223285, -0.03076950, 0.21062422, 0.13097420, -0.33672425, 
	-0.16316883, -0.14077406, -0.12980521, -0.15526263, -0.04904788, -0.30039683, 0.09459754, 0.28637460, 
	-0.21765910, -0.23659380, 0.34068745, 0.01578170, -0.14975767, 0.14518429, -0.15299344, 0.12124132, 
	-0.45576510, 0.00365363, -0.60428995, -0.30007625, 0.20276801, 0.16154939, 0.28220421, -0.30653661, 
	-0.09037050, -0.36520162, 0.01983169, -0.98444396, 0.60437554, 0.13672823, -0.38420334, 0.28078029, 
	0.15071155, -0.16508383, -0.36544722, -0.16257964, -0.47227719, -0.05352375, -0.07805821, -0.32321152, 
	0.16973066, 0.10144015, 0.13605344, -0.29378864, -0.43503791, 0.00480627, 0.02152713, 0.37510294, 
	0.40727448, -0.22060175, -0.08468843, 0.86590540, -0.20427017, 0.26583904, -0.00789522, -0.16123155, 
	0.03418674, -0.06358681, -0.19577143, 0.13079731, -0.27357197, -0.09132108, -0.30272967, 0.04012894, 
	-0.38987052, 0.26958314, -0.01699123, 0.40753749, -0.62589854, 0.22219160, 0.22914845, -0.24136592, 
	-0.44412589, 0.31129947, 0.35036370, -0.12686908, -0.29027432, 0.26808491, -0.01464754, 0.03300606, 
	-0.15346657, 0.17979719, 0.83042842, -0.49960303, -0.39253417, 0.05933689, 0.07562377, -0.12205256, 
	-0.40852839, 0.27550110, 0.19970730, -0.13196966, 0.18458977, 0.41959545, 0.20754972, -0.00006432, 
	-0.12374926, -0.43738347, 0.05088854, 0.18872955, 0.04036054, -0.00674369, 0.02458833, 0.21515884, 
	-0.49889600, 0.03779108, -0.25776675, 0.50132477, -0.54184008, 0.15979284, -0.15910274, 0.29859239, 
	0.18108633, 0.14530899, 0.36982033, 0.34300604, 0.62495506, 0.17879015, -0.95689213, -0.07139286, 
	0.00258167, -0.59694850, -0.20782827, -0.13196877, 0.40503398, -0.06225722, -0.41226760, -0.02867479, 
	-0.16500776, -0.00959994, 0.09181490, -0.09312136, 0.13948120, 0.35347393, 0.04679168, -0.08330157, 
	-0.26170215, -0.39225018, -0.07630125, -0.52041757, 0.19483706, -0.12776034, 0.58066756, -0.30262685, 
	-0.47099110, -0.29561415, -0.86955893, -0.26610079, -0.04594801, -0.29007965, 0.12514681, 0.35137951, 
	0.11142091, -0.29922569, -0.52555704, -0.23307256, 0.14469680, -0.16613972, -0.54030669, -0.33918041, 
	0.08793321, -0.14672130, -0.23030511, -0.26162553, 0.05116656, 0.08113196, 0.45256469, -0.22082762, 
	-0.15081313, -0.03725133, 0.20873590, 0.07448537, 0.02264248, 0.10630710, 0.31772465, 0.22986241, 
	0.09669200, -0.16686270, -0.28224340, 0.17205136, -0.05579159, 0.09701765, 0.08108591, 0.29823658, 
	-0.44462571, -0.32347095, -0.53811395, 0.01491619, -0.36820740, -0.17236051, -0.18111773, 0.26742825, 
	0.33955109, 0.09527879, -0.27743515, -0.26430872, 0.47885755, 0.06407679, -0.47417057, -0.23561642, 
	-0.30780923, 0.19986223, -0.07075039, -0.23008545, -0.06090702, 0.03738496, 0.25828782, -0.09117851, 
	-0.36460334, 0.07025256, -0.15794992, -0.09347092, 0.42033231, 0.45507964, -0.10322814, 0.22503757, 
	0.03348405, 0.04392203, -0.06489054, 0.66583431, -0.03573664, 0.05804367, -0.19772890, -0.02071490, 
	0.15850832, 0.02773874, 0.16449389, 0.03596451, 0.15730613, -0.41466227, 0.00465528, 0.10579205, 
	0.17068057, 0.14740832, -0.33054113, -0.18753670, -0.18998384, -0.25082958, 0.47782803, 0.14136723, 
	0.17631663, 0.10325836, -0.53471297, -0.12437087, 0.04664439, 0.00853493, -0.09279298, 0.45714912, 
	0.44733697, 0.01812977, -0.21665375, 0.06415520, -0.09382345, -0.27038920, 0.26335537, 0.10519561, 
	0.15443280, 0.02615067, -0.29870677, 0.21802549, 0.31216323, -0.16494630, -0.13280064, 0.16779767, 
	0.35161737, 0.36878461, 0.38040119, 0.38533261, -0.29242668, 0.60385531, -0.14573593, 0.56211418, 
	0.07004978, 0.30577978, 0.21310760, -0.35555345, -0.10115162, -0.16113588, -0.09621110, -0.43304506, 
	0.00664727, 0.03825137, 0.19966501, 0.70623052, 0.59519637, 0.42584369, -0.23170638, -0.64279276, 
	0.31778848, -0.04947874, 0.16934596, 0.14853443, 0.60698104, 0.29278496, 0.10303929, 0.05897475, 
	0.28084350, 0.05554458, 0.37383467, -0.58475810, -0.49446756, 0.34867254, 0.17587042, 0.30023488, 
	0.30331680, -0.27318931, -0.43246609, 0.29468173, -0.00718233, 0.08680626, -0.49694207, 0.40942973, 
	-0.01883302, 0.44520321, 0.03403148, 0.48832309, 1.17053092, 0.22803269, -0.76017588, -0.43461588, 
	-0.24644992, -0.74628586, -0.27794302, -0.00838227, 0.99916410, -0.28368163, -0.26343882, -0.07518136, 
	-0.11207196, 0.16079932, -0.06906027, 0.14460391, 0.54475957, -0.43253055, 0.16811106, 0.31284949, 
	0.00523579, -0.10274386, -0.45581982, 0.26386812, 0.25968423, 0.10873493, -0.10943843, -0.10793086, 
	0.32637623, -0.02531086, -0.16359451, -0.23801060, 0.05016568, -0.13593194, -0.01405608, 0.24681877, 
	-0.18829507, 0.12303537, -0.20930706, -0.19148293, -0.56571686, -0.28560004, 0.12762064, -0.16570713, 
	-0.06787700, 0.18049189, -0.47943205, 0.14558768, -0.15796909, 0.19568151, -0.10200647, 0.04932171, 
	0.15956075, 0.01304015, -0.05445789, 0.14268830, -0.15603474, 0.03716772, 0.04782236, -0.15547366, 
	-0.14391917, -0.42600986, -0.31277198, 0.59466118, -0.17340249, 0.22338271, 0.14922103, -0.21168834, 
	-0.13967633, -0.30063498, -0.33915594, 0.10416152, 0.03253453, -0.43811208, -0.07993019, 0.22797722, 
	0.02011301, 0.06406064, -0.00823449, -0.58863813, 0.14994259, 0.14808244, -0.23963177, 0.08421142, 
	-0.05542151, -0.16967541, -0.50883186, -0.09244310, -0.16221988, 0.87062573, 0.40124103, 0.13071625, 
	-0.36816353, -0.16476934, -0.62924743, 0.17134881, 0.02528168, 0.18373585, 0.40546632, 0.31013989, 
	0.26835898, 0.20923007, -0.04021510, 0.01757622, -0.04212495, 0.08559190, -0.12438091, -0.03292544, 
	-0.17447625, 0.34237599, -0.10849538, 0.13451380, -0.72636807, 0.37424585, -0.31957585, -0.00826273, 
	-0.49013475, 0.11208929, 0.18886556, -0.02319205, 0.24785025, -0.19297956, -0.40264797, -0.11032316, 
	-0.04102390, 0.13709298, 0.13917577, 0.39848095, 0.43086562, 0.04897031, 0.24281920, -0.37346581, 
	-0.01928716, -0.09083887, 0.36690348, -0.18270688, 0.38850388, -0.12718555, -0.36833000, -0.03172309, 
	-0.15465592, 0.38820347, 0.14964759, 0.16192225, 0.16102220, 0.32445347, 0.36055127, 0.47905779, 
	-0.30317649, -0.32746980, -0.41750813, -0.31992143, 0.22973844, 0.42354572, -0.25581962, 0.14858209, 
	0.32392731, -0.05769695, -0.46819293, 0.39783165, 0.02889216, 0.40288886, -0.08841957, -0.40479195, 
	0.25922471, -0.74132198, -0.04296685, -0.07627581, 0.29891822, -0.64680308, 0.29027131, 0.04470823, 
	0.64531457, -0.60577118, 0.59017438, -0.55851936, -0.03563495, 0.08667719, -0.10298722, 0.06439669, 
	-0.31640151, 0.01489396, 0.05437494, 0.15841889, 0.17753711, 0.63873905, 0.33459949, 0.11626321, 
	-0.60277462, -0.41072223, -0.19025981, -0.37809375, -0.18169093, 0.32229930, -0.02389537, -0.11446720, 
	0.01203253, -0.36635172, -0.09997477, -0.05071371, -0.01876021, -0.18259619, -0.40636876, 0.10640649, 
	0.26676869, -0.37004685, -0.26724660, 0.02982321, -0.03438257, -0.38604227, 0.37490389, -0.17246440, 
	0.11687292, -0.50896925, 0.61393422, -0.29010150, -0.18097346, 0.00974684, -0.46470052, 0.03848345, 
	0.25586331, -0.07579023, -0.13013215, 0.20091599, -0.02693513, 0.23175603, 0.04514268, 0.57088667, 
	-0.01220244, 0.04175162, -0.20894735, -0.24456531, -0.65987319, 0.21078429, 0.05342909, -0.14106359, 
	0.23763689, 0.07024553, -0.07680498, 0.05385757, 0.70805156, 0.08727561, -0.16886456, -0.27084374, 
	-0.17127374, -0.13126253, 0.18898119, 0.19818699, 0.36352786, -0.01341007, 0.27570495, -0.60660040, 
	0.17694327, -0.10459463, 0.18623109, 0.02411025, 0.49109346, 0.34410194, 0.20220073, -0.17265551, 
	-0.04186453, -0.15006259, -0.11810556, 0.04613242, 0.37300709, -0.23153049, 0.18634781, 0.14667001, 
	-0.25165477, -0.16267417, 0.08207265, 0.10003260, -0.27393115, 0.01335015, -0.12333002, -0.08375894, 
	0.30803892, 0.19931208, -0.08326593, -0.32984141, 0.28059253, 0.00930677, -0.40101010, -0.01093682, 
	-0.09449698, 0.01613583, 0.09507057, 0.14762394, 0.33459300, 0.15699393, 0.17410426, -0.32315657, 
	0.15882570, -0.11490545, -0.35627764, 0.20278955, 0.35347870, 0.37450799, 0.17956316, 0.14473990, 
	-0.03746485, 0.04515851, -0.18209264, -0.16473846, 0.06881491, 0.39908347, 0.15436035, 0.25631624, 
	-0.84307665, -0.38118351, 0.06836427, 0.11609325, -0.16269009, -0.00717404, -0.35026169, -0.36694381, 
	-0.26163697, -0.03206290, -0.21113653, -0.31004050, 0.03625038, -0.02549908, -0.30595893, 0.25043783, 
	-0.30554718, -0.12162518, 0.23335928, 0.36423650, 0.21411155, -0.38758144, 0.43632695, -0.31175295, 
	-0.19279006, -0.38793498, -0.06070258, 0.16026610, 0.17016029, 0.13451815, -0.49349433, 0.31396443, 
	-0.14287259, -0.08207061, 0.18080840, 0.37148601, 0.15129161, 0.06423477, -0.33410624, -0.13206835, 
	-0.11116771, 0.07062978, 0.17209521, 0.34156951, -0.33218423, -0.09850833, 0.08799121, 0.18237083, 
	-0.10316884, 0.09024818, 0.50551713, 0.02169209, 0.19304784, -0.44461298, 0.00074482, 0.26928532, 
	0.14842936, 0.22680148, -0.80728287, -0.36109418, -0.05642888, 0.13309334, -0.54409134, 0.63153350, 
	0.10012671, 0.02130446, -0.07382778, -0.12236755, -0.25060001, -0.23902906, -0.06263406, 0.02631256, 
	-0.27329949, -0.29064286, -0.22466673, -0.41660538, 0.10300332, 0.05078282, 0.54797697, -0.21810190, 
	0.00036540, -0.22535446, -0.67372942, -0.19920413, 0.10851834, -0.06781925, -0.10216691, 1.09352028, 
	-0.16048828, 0.03453533, -0.38677222, -0.20012563, 0.05415308, -0.14145735, -0.59278142, -0.52354956, 
	-0.07724895, 0.01163692, -0.29922456, -0.25197995, -0.00199709, 0.29571623, 0.16654882, 0.08237582, 
	-0.19016530, -0.07367402, -0.01532456, 0.26228186, 0.14651062, 0.01727848, -0.00786890, 0.28055355, 
	0.31353581, 0.03977244, -0.21326032, 0.16761267, 0.33355415, -0.23045520, 0.41403317, 0.01768407, 
	0.09646179, 0.24398361, -0.18800232, -0.00254858, -0.31731915, 0.22270924, 0.09161163, 0.27297199, 
	-0.08333441, -0.47261855, -0.47095236, -0.32650572, 0.16633572, -0.10317205, -0.29831401, -0.18017617, 
	-0.30353236, 0.31162813, 0.05610412, 0.90557802, 0.45663238, 0.47724316, 0.60823739, -0.82003665, 
	-0.14920795, -0.05820521, 0.46020216, 0.04693489, 0.30117014, 0.03061272, -0.54236180, 0.01187277, 
	0.18323803, 0.06637888, 0.26107532, 0.31610352, -0.15587620, 0.07413941, 0.09540221, 0.05332876, 
	0.45231825, -0.01310300, -0.01558280, 0.36085641, -0.51558852, -0.09061598, -0.14953169, 0.15840285, 
	-0.72968173, 0.21817578, 0.08439447, -0.17041188, 0.48284665, -0.22002742, -0.00797420, 0.07557332, 
	-0.22452505, -0.39764318, -0.32599702, 0.37773767, 0.67990500, 0.30036137, 0.68370974, -0.18260257, 
	0.26963514, -0.44167015, 0.22882311, -0.21508533, -0.09308100, -0.61182153, 0.17770703, 0.29416165, 
	0.08946930, -0.27297071, 0.02628198, -0.09082486, 0.19093880, -0.54765391, -0.01642138, -0.01951193, 
	0.07713934, 0.00150621, 0.03049497, 0.27693450, -0.34690574, -0.28149500, 0.14756945, 0.11315797, 
	0.50909936, -0.17692733, -0.14280462, -0.09720384, 0.41360098, -0.13904372, -0.02267402, -0.26095232, 
	-0.34299487, 0.28442004, -0.08173160, 0.00799840, 0.24322097, 0.20813535, -0.02670233, -0.24789132, 
	-0.18703726, 0.43361527, -0.25291288, 0.10034699, 0.71798986, -0.04756268, -0.12965150, -0.01711171, 
	0.09152348, 0.09435831, 0.23007801, 0.19166520, 0.21229607, -0.42322788, -0.44769120, 0.53070772, 
	-0.52067137, 0.36231893, -0.32805166, 0.22420429, -0.11357156, 0.36713144, -0.14212306, 0.00181305, 
	0.62062711, -0.09634115, 0.13327676, 0.45848155, 0.23852308, 0.32685667, -0.17039149, 0.10144261, 
	0.06194905, -0.15840641, -0.04121121, -0.14321509, 0.21285923, -0.27238747, -0.34878916, -0.28172335, 
	-0.53605962, 0.23614618, 0.20548873, -0.61504197, 0.24931027, 0.71225286, 0.02343321, 0.10192040, 
	0.22581610, 0.02373183, -0.10446133, 0.13224013, 0.21808295, -0.16062598, 0.22829227, -0.00655405, 
	0.17297767, -0.10459232, -0.22866611, -0.06016629, -0.02067602, -0.09605881, -0.03796208, 0.27151603, 
	-0.00746652, 0.21659593, -0.16538061, 0.10112411, 0.57920641, 0.01761024, 0.11508049, -0.03377377, 
	-0.36692023, -0.16329610, -0.24457136, 0.34370250, 0.52762562, 0.15073878, -0.01335796, 0.08934411, 
	0.13363804, -0.18681769, -0.24684390, 0.14810672, 0.30540580, 0.17025010, 0.01123088, 0.17959127, 
	0.13650717, 0.00224389, -0.23162630, 0.34160098, -0.17947954, 0.33228871, -0.32056814, 0.36499152, 
	-0.47183102, 0.03159397, 0.30114165, 0.45012444, -0.57451773, 0.50551987, -0.23572084, -0.40454653, 
	-0.27670062, 0.05040663, 0.59387153, 0.00085552, -0.03643296, 0.00494231, 0.17898701, -0.33837667, 
	0.08465083, 0.56990248, 0.47155491, 0.19107784, 0.46346563, -0.59270912, -0.34834546, -0.33779091, 
	0.45464495, 0.22828993, 0.61888784, -0.06794880, 0.17408866, -0.24680062, -0.28217387, -0.20916237, 
	0.17836072, 0.22921054, 0.16694200, -0.42607519, 0.03317410, -0.20376335, 0.05473864, 0.58585638, 
	-0.27438548, 0.18704319, -0.05334902, 0.13252208, -0.28987762, 0.07223288, -0.37499312, -0.00287694, 
	0.00954883, 0.32042730, 0.23278143, -0.07343480, 0.79406303, -0.22394121, -0.23559779, -0.26711661, 
	-0.32035470, 0.16492042, 0.13211337, 0.00147144, 0.61666048, 0.18965954, 0.11172685, -0.03141786, 
	0.11449811, -0.03410466, 0.19484343, -0.03718629, 0.32138070, -0.15457252, -0.06650867, 0.19142997, 
	-0.07350206, -0.46207353, -0.29193026, 0.33486563, -0.13671122, 0.05063275, -0.07846168, -0.55361867, 
	-0.05805172, 0.16200414, -0.02903001, 0.48605826, -0.12979667, -0.16154921, 0.05712808, 0.14394465, 
	-0.56392878, -0.14169708, 0.03050453, -0.13242109, -0.15064456, -0.17110570, 0.27091768, 0.03106901, 
	0.07117859, 0.04289960, -0.33910698, -0.30897892, -0.32672119, 0.25064009, -0.08075485, 0.33739668, 
	-0.71945161, 0.23249108, -0.20051630, 0.15856110, -0.15834735, -0.26532564, 0.18710685, 0.35461178, 
	0.02759343, -0.01426541, -0.44531325, 0.14179467, 0.22582710, -0.07186458, 0.15307929, 0.08367368, 
	0.22550568, -0.18221471, -0.28861013, -0.19024667, -0.48510465, -0.04982620, -0.04736106, 0.32167196, 
	-0.01265423, -0.03350073, -0.20969851, -0.77977413, 0.22014929, -0.41550314, -0.56476009, -0.21824411, 
	-0.45921957, 0.30099580, -0.12723848, 0.21106797, -0.08622847, 0.35460696, 0.64188933, -0.45828685, 
	0.10482024, -0.36383227, 0.12237450, 0.23303552, 0.21691123, 0.28966832, -0.34969133, 0.09573064, 
	-0.23236546, 0.08239299, -0.76620227, 0.28028634, 0.48123124, 0.02136274, 0.15680827, -0.26319534, 
	0.06145801, 0.09958208, 0.12840271, -0.34268966, -0.05662159, 0.22717547, 0.07170443, 0.15706420, 
	-0.25987169, 0.01218549, 0.12759313, -0.25055733, -0.23394352, 0.02204086, -0.19321235, 0.17591529, 
	-0.25207007, -0.02294632, -0.05619013, 0.53080803, -0.42448971, 0.45901814, 0.18128932, 0.05163918, 
	0.21766917, -0.76740658, 0.07439986, 0.42591345, -0.21063212, 0.51444125, -0.26490816, 0.05987052, 
	-0.01562557, 0.10357784, -0.26186293, 0.20938331, 0.70052737, -0.65704852, 0.26267478, 0.02680189, 
	-0.13285001, -0.01829721, 0.21726850, -0.09326572, -0.29593894, 0.22464517, 0.18356231, 0.14820838, 
	0.31711817, 0.07021598, 0.00118399, -0.31517440, 0.37840047, 0.06519061, -0.19349292, 0.25922832, 
	-0.30553490, -0.36049959, -0.26158926, 0.06584264, 0.13026072, 0.46010149, 0.02847520, -0.13387239, 
	0.38144618, -0.38314378, -0.07947588, -0.10624480, -0.05004973, 0.61234850, -0.10529254, -0.07311147, 
	-0.28693932, -0.47441953, -0.39498675, 0.26741976, -0.37653252, 0.73666054, 0.14526401, 0.17004873, 
	-0.48382300, -0.63460159, 0.13894215, 0.35257170, -0.25691301, -0.12459058, -0.04421420, -0.09035935, 
	-0.64331305, 0.21803240, 0.38752133, -0.15120022, 0.11361290, 0.15619586, 0.06682986, -0.13656054, 
	-0.24682342, -0.12234067, 0.06059458, -0.10235459, 0.12920266, -0.17503954, 0.09277899, 0.33540344, 
	0.22689730, -0.20634906, -0.22072090, 0.41533148, -0.33642596, -0.13917883, 0.42418441, -0.01226503, 
	-0.17255215, -0.42778185, -0.13841087, -0.36952052, 0.15237898, -0.31694973, -0.10191330, 0.31724674, 
	-0.00455467, -0.27589941, -0.48474339, -0.05544653, -0.12486193, -0.14719664, -0.26356959, 0.33935687, 
	0.73039436, 0.07975539, 0.27847677, 0.21662152, 1.02071488, -0.01260519, -0.74131328, -0.05260092, 
	-0.31071392, 0.10118316, -0.16153608, -0.41163066, 0.14364353, 0.19065422, -0.11830855, -0.12780821, 
	-0.22798412, 0.14658217, -0.90334630, 0.52894348, 0.45145258, 0.36333477, 0.15838356, -0.07810313, 
	0.12358495, -0.16749798, 0.06438670, -0.53418970, 0.33941782, -0.28049967, 0.14411598, -0.29423359, 
	-0.30311614, 0.00058745, -0.52978665, -0.16313376, 0.26014391, -0.27347669, -0.12515242, 0.32967401, 
	0.22300069, -0.06211404, -0.47248006, -0.16385034, -0.15860108, 0.04039872, -0.69593692, 0.02766952, 
	-0.19406734, 0.26830265, -0.10586948, -0.18229324, -0.21339121, 0.25316578, -0.15450707, -0.13350724, 
	-0.94940138, 0.33137351, -0.72436649, 0.15170665, 0.25155520, 0.44573662, -0.22037920, 0.23964895, 
	-0.05634762, -0.28536841, -0.11441218, -0.04526886, 0.03222342, 0.11687209, 0.07665144, -0.11640773, 
	0.10194411, -0.15238298, -0.12218974, -0.01435887, 0.00567887, -0.18215737, -0.03761486, 0.35090435, 
	0.29166523, 0.06751174, 0.15552798, -0.12965177, 0.16196176, -0.11513637, 0.15839350, 0.05332442, 
	-0.14964460, 0.03904861, -0.49849927, -0.14161527, 0.08663648, 0.27624500, 0.06000174, 0.04051531, 
	0.23593336, 0.03133797, -0.27433255, 0.17347872, -0.05904063, -0.12427198, 0.44945803, -0.12579325, 
	-0.19157819, -0.21803804, -0.32165211, -0.17675093, -0.28410169, 0.50544941, 0.16985266, -0.11851721, 
	0.17898782, -0.21552889, -0.58201706, -0.12104226, -0.04769168, -0.26778185, -0.04201141, 0.75780618, 
	-0.31746876, 0.02457160, 0.04485419, -0.15979403, -0.13324557, -0.49877548, -0.36828762, -0.56734991, 
	0.11519827, 0.42707223, -0.22249237, -0.40905684, -0.50112820, 0.17329279, 0.12357678, 0.26644954, 
	-0.31307486, 0.04968238, 0.32938415, 0.09231263, 0.04719909, -0.33060598, 0.05684624, 0.45389074, 
	-0.09035274, -0.27517435, -0.26211321, -0.16088390, 0.43577886, -0.51954806, 0.10965203, -0.20214450, 
	-0.94831729, -0.16304886, -0.25419313, -0.15891600, -0.29270777, -0.16342135, 0.26852301, -0.10481206, 
	0.44453180, -0.42598137, -0.22682637, -0.56827807, 0.01261876, -0.29323524, -0.39679867, -0.09071328, 
	-0.09949287, 0.28200218, -0.33697337, -0.40089840, -0.31062141, 0.08185143, 0.22759552, -0.03988968, 
	-0.18376406, 0.26912713, -0.05053753, -0.15067941, 0.04652064, 0.45286864, -0.11026990, -0.15110685, 
	-0.29565594, 0.11711776, 0.03979574, -0.36045206, 0.77348107, 0.17724021, 0.54006678, -0.18184765, 
	-0.12354154, 0.01308041, -0.41469947, -0.86143690, 0.18594550, 0.06020011, -0.17122680, 0.07216565, 
	-0.12635708, -0.20473874, -0.50045294, 0.03804623, -0.29001233, 0.13479635, -0.27353713, 0.51331735, 
	0.20801884, -0.36826369, -0.13737473, 0.40343925, 0.07744817, -0.10767198, -0.01721432, -0.40674251, 
	0.15050048, -0.35944736, -0.38765183, 0.48789999, -0.15318778, 0.45439318, 0.10952151, 0.17956157, 
	0.01737213, -0.11081301, 0.01229689, -0.00208899, -0.03084414, 0.04168998, 0.04470747, 0.11172348, 
	-0.02561500, -0.23812652, 0.16888650, 0.07630131, -0.27553621, 0.05946683, -0.27744940, -0.20690484, 
	0.43093652, -0.09632425, -0.03365505, -0.32040271, 0.40372580, -0.03030077, -0.61884117, -0.01897487, 
	-0.30519229, 0.18261546, 0.24788338, 0.32057682, 0.26149628, 0.15215099, 0.16117716, -0.73214370, 
	0.22666328, -0.03264183, -0.24363449, 0.37840834, 0.44195741, 0.19515592, -0.12896000, 0.12989342, 
	0.12148814, 0.01175897, -0.06759402, 0.93082678, -0.35806349, 0.44804341, -0.47948635, 0.17669319, 
	0.28384730, -0.42428601, -0.26469454, 0.10176802, -0.16724783, -0.44873151, -0.12499963, -0.06949161, 
	0.14740086, 0.46358532, -0.11966471, -0.00570057, 0.51951587, 0.14593039, 0.55751503, 0.03955774, 
	-0.13401863, -0.39152765, -0.31292787, -0.61518067, -0.08322261, 0.06999920, 0.35625324, 0.40906340, 
	-0.07357968, -0.29971400, -0.61409014, -0.23133342, -0.08888993, -0.13520265, 0.72694695, 0.07774889, 
	0.55726057, -0.06295167, 0.09729534, -0.26776740, 0.20075032, -0.15954430, -0.17591140, 0.29280967, 
	0.26020798, 0.00268121, -0.38727939, 0.24280073, -0.18945496, -0.05389451, -0.18819608, 0.34142676, 
	0.48612145, 0.56410700, -0.00655437, 0.08606788, 0.40072605, 0.12223604, -0.48587993, 0.03586867, 
	-0.32763296, -0.02137723, 0.41319740, -0.13187218, 0.04455229, -0.08194403, -0.13557865, -0.16514423, 
	-0.23218957, 0.29959321, -0.44768777, 0.12052578, 1.14122689, 0.39874971, 0.28174248, 0.16413805, 
	0.08272793, 0.11480182, 0.07419939, 0.59623051, -0.38028115, -0.08138858, -0.24213199, -0.34688032, 
	0.16463454, 0.17430420, 0.00505973, -0.28412944, 0.45545921, -0.53564364, -0.13678417, -0.05847420, 
	0.30839184, -0.01801834, -0.63975745, 0.00340775, -0.25879258, 0.38867646, 0.42408407, -0.03143859, 
	0.20187926, 0.11106898, -0.26125720, -0.26554567, -0.22601131, 0.50646198, 0.09940063, 0.40925807, 
	-0.60930681, 0.51217014, -0.72983211, -0.03425130, 0.08960700, -0.13798389, 0.67784643, 0.33243820, 
	-0.60457766, -0.02368926, -0.29815564, 0.45490810, 0.21070617, 0.40171042, -0.27617621, -0.16677743, 
	0.00314731, 0.21085587, -0.31973925, 0.02425372, 0.49020588, 0.70206994, -0.68616939, 0.23102631, 
	-0.74622744, 0.40566450, 0.61353225, 0.20007469, -0.47462532, 0.30075639, -0.27206287, -0.05423329, 
	0.66946000, -0.50027710, 0.03714583, 0.35916573, 0.37863418, 0.11636759, -0.57259637, -0.13305998, 
	0.07780198, -0.67716998, 0.06296850, 0.20959599, -0.43030480, 0.33578780, 0.61722320, 0.16534267, 
	-0.02539616, -0.11505625, -0.04453885, -0.36323482, 0.46962318, -0.02631345, 0.28092641, 0.77717125, 
	-0.34839800, -0.33753893, -0.17647909, 0.10187967, -0.95617026, 0.02560461, -0.08538876, 0.10875437, 
	0.22507337, 0.69842362, 0.34126592, -0.10016900, 1.27883315, -0.11540534, -0.53915018, 0.07811440, 
	-0.71268439, -0.46809682, -0.02737842, 0.05011386, 0.62132972, 0.20910420, 0.00826909, -0.07624953, 
	0.06582647, -0.54229271, -0.53099650, 0.18705240, 0.24732980, 0.13066897, -0.06093406, -0.04982469, 
	0.18830000, 0.21687099, 0.08551258, -0.79270595, 0.71550375, -0.31810331, 0.18263058, 0.23883303, 
	-0.02566694, 0.10108288, 0.19553207, -0.03457009, 0.02262794, 0.25548038, -0.26415694, -0.28550053, 
	-0.09479499, 0.58549672, 0.11596586, 0.03112266, 0.07130902, -0.13986538, -0.18286301, 0.02320532, 
	-0.34259564, 0.27236363, 0.62905532, 0.47651806, 0.74090451, -0.21941645, -0.18146698, -0.42588237, 
	0.58616787, -0.02521443, -0.13434447, 0.20269980, 0.41598672, 0.15963772, -0.08725026, -0.07561862, 
	0.13978815, 0.24671245, 0.55670184, -0.59952533, 0.12066896, -0.19873758, 0.35832742, -0.02510550, 
	0.33798614, -0.15446442, 0.43410218, 0.09604673, 0.16901664, -0.34387690, 0.26434949, -0.14389323, 
	0.15567514, -0.21237862, -0.28150415, 0.03195850, 0.05133118, -0.21028502, 0.06686783, 0.06466743, 
	0.03846498, -0.17235418, -0.15146077, 0.02466004, 0.21567294, -0.28182545, -0.11545109, 0.15737140, 
	0.55634624, 0.07100917, 0.16476279, -0.09987412, -0.12355843, -0.66644162, -0.46638489, -0.05650408, 
	-0.02701071, -0.36436954, -0.05474497, -0.21590036, -0.01109032, -0.04576717, 0.15945451, -0.00693665, 
	-0.31326693, -0.15393555, -0.25430954, -0.24287561, -0.32916883, -0.40775487, 0.13378519, -0.23255302, 
	0.25989175, 0.10626926, -0.04716809, -0.18899740, 0.28672856, -0.06044849, -0.03338106, -0.14573835, 
	-0.25838801, 0.15914248, 0.18113905, -0.65211314, -0.21540090, -0.09939825, 0.38765293, 0.04793681, 
	0.09284459, 0.04028064, -0.31404588, 0.24679267, 0.13890812, 0.07426721, 0.55737931, 0.09493720, 
	0.17603759, 0.09750344, 0.08097076, 0.14961052, -0.01905834, -0.00456856, -0.08018659, 0.34121177, 
	0.23760696, 0.25913525, 0.01891974, -0.17229444, 0.24596334, 0.22848386, 0.11282985, -0.51714385, 
	0.70938706, 0.06259969, -0.03710664, 0.02945690, -0.09597661, -0.32159388, 0.43947738, 0.07293022, 
	0.13243859, 0.11526211, -0.11839154, 0.12124701, -0.19764976, -0.25212178, 0.06512498, -0.20476837, 
	-0.04115569, 0.23593824, 0.27148893, -0.06680402, -0.04612997, -0.18695621, 0.20145237, -0.40304056, 
	0.35317835, 0.06200867, 0.29607826, -0.48990870, -0.17087409, -0.09943676, -0.12013121, 0.28379148, 
	0.11578630, 0.07773957, 0.23431915, 0.13965115, -0.12386842, -0.23658803, -0.14231904, -0.39976344, 
	0.04174231, 0.55178237, 0.16515118, -0.24669600, 0.11672131, -0.10485348, -0.14309645, 0.60604715, 
	-0.14425005, 0.05659699, 0.34610724, -0.17859735, -0.29957053, -0.10211132, -0.09150498, -0.33136976, 
	-0.32945189, 0.25836715, -0.53307420, 0.32028705, 0.30994782, -0.09600249, -0.06679162, -0.05577745, 
	-0.13679402, 0.17956458, -0.24652830, 0.29660800, 0.07975212, 0.02963223, -0.01761733, -0.26840872, 
	0.37986892, 0.05918100, 0.02052500, -0.30048648, -0.00679002, 0.16249150, 0.23499610, -0.08863906, 
	-0.21624911, -0.16000827, 0.01112283, -0.15810296, -0.68010944, 0.26890388, -0.15433332, 0.00406808, 
	0.15262167, -0.22653148, 0.30223030, 0.07176057, -0.39034870, 0.38402426, 0.30415708, -0.09815028, 
	0.04753478, -0.19977634, 0.37674004, 0.01603035, -0.11061640, 0.07698698, -0.20138551, 0.05966013, 
	-0.02886907, -0.27050439, -0.01228561, -0.09641281, 0.06735600, -0.03515270, 0.19212548, -0.05815580, 
	-0.22055663, -0.09278357, -0.16844608, -0.03489656, 0.01807637, -0.21140356, -0.00051277, 0.16801845, 
	-0.02703858, 0.06194163, 0.11113558, -0.11160833, 0.27301866, 0.13223833, -0.04441775, 0.00470575, 
	-0.26606023, -0.06191833, -0.01051909, -0.25186801, -0.15182421, 0.26950520, 0.13359471, 0.11742431, 
	0.00736031, -0.06082987, -0.39337698, 0.26601464, -0.02930764, 0.03493378, 0.07229289, -0.06049863, 
	0.06844348, 0.10238136, 0.11763741, -0.48641694, -0.24041204, 0.15743047, 0.04743004, 0.07072806, 
	0.52477127, -0.13041069, -0.10540409, 0.12040225, 0.29950207, -0.27496329, -0.12240122, 0.33370656, 
	0.08024906, 0.42358452, -0.14587790, -0.00438398, 0.17161225, -0.21524814, -0.07157197, -0.30965039, 
	0.05283141, -0.04054676, -0.19654299, -0.28890204, 0.13542786, -0.32289806, -0.38163415, 0.26118737, 
	0.20719314, 0.07899921, 0.02385368, 0.02005980, -0.00759560, -0.39875683, 0.22242872, 0.10613607, 
	-0.00718133, -0.30899441, -0.31610662, 0.67639774, -0.29288140, -0.01313332, -0.16716552, 0.07585439, 
	-0.00764330, -0.14115851, 0.04082697, 0.15316996, -0.18195491, -0.14113289, 0.13685685, 0.06687424, 
	0.21620476, 0.13004911, -0.10297124, -0.21371156, 0.12555946, 0.00666561, 0.26930779, -0.21202981, 
	-0.11083164, 0.03850459, -0.14626992, -0.04540247, 0.19544521, 0.35810792, 0.02188844, 0.16476138, 
	0.00526445, 0.31904313, -0.19497037, 0.05167634, 0.12960929, 0.15753634, 0.47135511, -0.05834386, 
	0.06205001, -0.00592472, -0.00431691, -0.20991847, -0.53924525, 0.44452164, -0.06761372, 0.02686263, 
	0.06162866, 0.10857435, -0.68731785, -0.14260918, 0.08049502, -0.35863915, -0.36634395, -0.07620878, 
	-0.15139054, 0.02332310, -0.76784188, -0.03591050, 0.15954520, -0.11043815, 0.15634738, -0.18905120, 
	0.05610875, 0.39545718, -0.12964216, -0.11730807, 0.01247645, -0.30547541, 0.39583284, -0.26461241, 
	-0.48165056, 0.38909703, -0.10987638, 0.25561762, 0.49317393, -0.20557377, 0.32029879, 0.32613671, 
	0.14050987, 0.09979051, 0.11755947, -0.15546006, 0.38120449, -0.31085551, 0.04171853, 0.10145399, 
	-0.05765615, 0.11371006, 0.35362095, 0.17321678, -0.64959568, 0.40302104, 0.04981516, -0.10675673, 
	-0.07097115, 0.20963585, 0.36615464, 0.31471321, 0.22944729, 0.17536098, -0.23802783, -0.07059173, 
	-0.21092074, 0.03484314, 0.58574039, 0.32017371, 0.32458562, -0.19832209, -0.09588895, -0.34195095, 
	0.35867724, -0.04261399, 0.30654803, -0.07785363, 0.32039014, 0.11194637, -0.31314737, -0.15873882, 
	0.12244580, 0.26550344, -0.19279574, -0.12021847, -0.33143321, 0.09574158, 0.15391007, -0.01755116, 
	0.07152443, -0.15098208, -0.37072596, 0.11304792, -0.08466666, -0.48932168, 0.11549193, -0.00770610, 
	-0.08920284, 0.02887129, -0.76995885, -0.13387331, 0.13927190, -0.18605110, 0.23326765, -0.24962431, 
	-0.21731573, -0.01977695, -0.15542412, -0.04081009, 0.26716399, -0.24171861, 0.44204178, 0.18885079, 
	-0.09854064, 0.04898467, 0.16608746, 0.17588580, 0.25453457, -0.65203422, -0.21041390, 0.23925763, 
	0.09091985, 0.08244491, 0.33235848, -0.21824510, -0.11564504, 0.52707362, 0.28656429, 0.39994460, 
	-0.17991745, -0.40440124, -0.27659121, 0.03180657, -0.21644889, 0.16312893, -0.24319847, 0.14072460, 
	-0.15704711, -0.08102287, 0.25924355, 0.25943571, 0.58969116, -0.23869711, -0.57711035, -0.00693940, 
	-0.09062951, -0.30583984, -0.29213947, 0.06472559, 0.21535912, -0.50775081, -0.05141361, -0.09520729, 
	0.03946834, -0.25298849, 0.33578035, -0.15100987, -0.11291603, -0.22761418, -0.41134676, -0.02942754, 
	-0.26445225, -0.08360659, -0.21558858, -0.33699009, 0.25276801, 0.18681750, 0.30011725, -0.01635046, 
	-0.20351776, -0.08100013, 0.04885264, 0.03950872, -0.15991704, -0.03539911, -0.03636863, 0.21890229, 
	-0.21292941, -0.12929067, 0.17926836, -0.15988028, -0.00720865, -0.13320012, -0.19367111, -0.18057013, 
	-0.05509920, -0.19204289, 0.03402837, -0.17227703, 0.45947647, 0.16028839, 0.21042725, -0.07025095, 
	0.36784825, -0.29319024, 0.15530311, 0.20815085, 0.00234639, -0.13216466, -0.06850933, 0.03032628, 
	-0.01629115, 0.10898826, -0.01014611, 0.21205255, -0.20608871, 0.21150711, 0.00319085, 0.17458905, 
	-0.13861503, -0.20473112, -0.20447083, -0.20816076, 0.11163865, 0.05173587, -0.38593253, 0.05469236, 
	0.15265623, -0.04573631, 0.23492779, 0.05206432, 0.41925636, 0.12568974, -0.26585859, 0.29079291, 
	0.15407018, -0.41191515, -0.32527778, -0.04014374, -0.05316059, 0.02295748, 0.04627688, -0.15654318, 
	-0.02024174, -0.37858504, -0.15823534, -0.30101681, -0.30530381, 0.17751260, 0.11650248, 0.18375413, 
	0.14308152, 0.10034484, 0.12596861, -0.18024465, 0.15822078, -0.28348830, 0.13013257, -0.04919457, 
	0.84844494, 0.44877455, 0.08406753, -0.19239441, 0.27002230, -0.10764474, 0.06680336, 0.16882141, 
	0.13177659, -0.02214435, -0.43041429, 0.20165871, 0.01350559, -0.11470121, 0.26838058, -0.04097854, 
	-0.02097110, 0.33065683, 0.01384963, 0.28273883, -0.16551004, 0.01548601, -0.18113022, -0.23723158, 
	0.06883483, 0.16493368, 0.03235877, 0.11255305, 0.29535827, -0.13996400, 0.04956935, -0.05766576, 
	-0.24526243, 0.25062928, -0.10952648, 0.08875796, -0.08306635, 0.59536165, -0.06832278, 0.07200397, 
	0.20243090, -0.29473317, -0.42872870, -0.49689153, 0.77008665, -0.07129367, -0.29074049, 0.35735801, 
	0.23334272, -0.44348234, -0.63531548, -0.22668201, 0.07420579, -0.11063232, -0.39443901, -0.00243586, 
	0.08996473, 0.17538232, -0.38114432, -0.06188264, -0.33315817, -0.07597672, 0.07777334, -0.11354525, 
	-0.28021064, -0.12792030, -0.16876622, 0.15203786, -0.13550259, -0.07128146, -0.70111799, 0.25172153, 
	0.33632931, 0.25346735, 0.34694648, 0.19138812, 0.30502713, -0.10731735, -0.01314752, 0.27626470, 
	0.36926201, 0.33578265, 0.02909932, -0.08208168, 0.33107045, 0.16541968, -0.19111115, -0.19860223, 
	0.34874818, 0.07747576, -0.21364446, -0.34416512, 0.26608121, -0.44616073, 0.14754538, 0.36832681, 
	0.02078440, 0.30639672, -0.31696239, 0.92180401, -0.02442872, 0.05661787, 0.22809407, -0.44946107, 
	0.11334915, -0.23464034, -0.23758246, 0.18156610, -0.03905816, -0.14858884, -0.03877940, -0.05020155, 
	-0.08499949, -0.04266140, 0.06412284, 0.10891490, 0.51491809, -0.39395341, -0.05111726, -0.20305862, 
	-0.21352458, 0.21274312, -0.09485830, -0.19362602, 0.16216856, 0.03419361, -0.06374929, -0.19064662, 
	0.27259773, -0.03297355, -0.15019481, -0.43656254, -0.05508182, -0.18671797, -0.16909915, 0.22318596, 
	0.03270906, 0.33404338, -0.22630435, 0.13443764, -0.27817810, 0.47544408, 0.07438370, -0.44115287, 
	-0.00138502, -0.06279791, -0.40192464, 0.02432076, -0.01096006, 0.30823302, 0.10766894, -0.05888943, 
	0.32419676, 0.04389905, 0.21719646, -0.01285055, 0.18089436, -0.14611654, -0.20405477, 0.42474627, 
	0.19959258, -0.10869062, -0.21840714, 0.06076377, -0.05501469, -0.13549897, -0.48061919, 0.25464338, 
	0.52480710, 0.28404102, -0.10327117, -0.24722232, 0.49149406, -0.13398196, -0.23020495, -0.06776834, 
	-0.01940019, 0.09931475, -0.00822940, -0.04488337, 0.42263266, 0.08258974, 0.07514819, -0.30815205, 
	0.32324016, 0.02029336, -0.04867415, 0.05384608, 0.42079389, 0.23154846, 0.10852567, 0.22587429, 
	-0.26847658, -0.14504218, 0.11803138, 0.17182523, 0.27436173, -0.13885260, -0.07193183, -0.04024070, 
	-0.29958904, -0.10795110, 0.04553664, 0.02070650, 0.20150006, 0.23121969, -0.08345401, 0.06406310, 
	0.15245588, -0.26505733, -0.02688608, -0.19047064, -0.31610408, 0.07664016, -0.14662541, 0.19598958, 
	0.39244691, -0.33478773, 0.00760510, -0.17472519, 0.04296827, -0.02508439, 0.01559022, -0.03318147, 
	0.22757125, -0.18244249, -0.03994039, -0.12034835, -0.40508392, 0.29852936, 0.05944075, 0.03273751, 
	0.16023058, 0.27592307, -0.07024716, -0.40855706, -0.16547036, 0.08567505, 0.21037349, 0.33746597, 
	0.44825077, -0.27170148, 0.24862054, 0.24092035, -0.13348086, -0.29991540, 0.13707498, 0.01360573, 
	0.08113366, 0.52644825, 0.10663392, -0.17945549, 0.39956594, -0.28029680, 0.20589638, -0.26022843, 
	-0.36876971, 0.37270331, 0.17609443, -0.02492768, 0.23796828, -0.26979381, -0.00312011, 0.23338230, 
	0.48583713, -0.01470472, -0.06061699, 0.25463405, 0.16797763, -0.42093477, -0.23371221, -0.06029510, 
	-0.06099718, 0.24398877, -0.27937430, 0.27795044, 0.09023487, 0.31009948, 0.35833603, 0.20947386, 
	-0.40075636, -0.26489177, -0.17834187, -0.22023140, -0.01692316, 0.06252869, -0.21200866, 0.05319469, 
	-0.45238915, 0.42545575, 0.05862682, -0.01882677, 0.09783021, 0.09363933, 0.03206355, 0.11135693, 
	-0.15580770, -0.07971443, -0.10658728, 0.36000735, -0.01941700, 0.07783215, 0.23833705, 0.10988655, 
	0.23104817, -0.74482358, 0.09957735, 0.09010866, -0.28188375, 0.04446781, -0.28206667, 0.23273586, 
	0.09554298, -0.08692775, -0.16404831, 0.03712779, 0.02717574, 0.18858056, -0.40225786, 0.01094444, 
	0.29232281, 0.35391229, -0.10437313, -0.26442805, 0.66277510, 0.36978000, -0.28525162, 0.21641175, 
	0.04048192, 0.01761646, -0.12266330, 0.02179751, -0.51000351, 0.19101909, 0.02592251, -0.22716223, 
	0.27374238, 0.08716509, 0.47152409, 0.20439354, 0.26422870, -0.08888122, -0.06315545, -0.58363855, 
	-0.11977755, 0.16620390, -0.11005675, 0.55332273, 0.20109026, 0.42373708, 0.22795251, -0.05655894, 
	-0.13891912, 0.16085902, 0.10116980, 0.09171805, 0.54633433, -0.09016762, -0.04633687, 0.11625621, 
	0.46882829, 0.23147550, 0.21179143, -0.61098439, 0.15675843, 0.33962223, 0.10397535, -0.14609927, 
	0.22433747, 0.12004071, 0.23448245, 0.22185084, -0.00917193, 0.04691788, 0.14558834, 0.11223682, 
	0.14271373, -0.17216952, 0.02618728, 0.10089355, -0.04050945, 0.06926238, -0.20775098, -0.09210579, 
	0.60366112, -0.19535385, 0.00612726, -0.02869793, -0.15707192, 0.18282248, 0.31377253, -0.20941673, 
	-0.10779282, -0.01425186, -0.07600054, -0.07768162, -0.11162873, -0.23339701, 0.27364239, -0.35219669, 
	-0.00047651, -0.11614444, 0.05508186, 0.19457887, 0.22032005, -0.37347883, 0.24886563, 0.17885408, 
	-0.18546805, -0.22561595, -0.31983167, -0.15420768, -0.25698647, 0.10936794, -0.04097452, -0.03919816, 
	-0.06809650, -0.29731324, -0.19869703, 0.00667520, -0.16699398, 0.19735639, 0.15494625, 0.19960296, 
	-0.16026454, -0.11658682, 0.06223994, 0.07390874, -0.21267620, -0.02024052, -0.07588160, 0.43959686, 
	-0.05566171, -0.28801781, 0.35919952, -0.17638588, 0.15512031, -0.35931650, 0.27403140, 0.01392664, 
	-0.43371156, -0.28474703, 0.03667721, -0.12085454, -0.08297222, -0.18348987, 0.38598552, -0.05120704, 
	0.26328850, -0.30451921, 0.09143905, 0.10464673, 0.39959413, 0.03521649, -0.14257911, -0.08168640, 
	-0.11029852, -0.24416712, -0.17941342, -0.55524969, -0.21849994, 0.14335017, 0.27139387, 0.20411681, 
	0.02903995, -0.00656464, 0.04056302, -0.34677100, -0.05766883, -0.06189238, 0.08471788, -0.06853237, 
	-0.18226083, -0.08777294, 0.13122857, -0.33895344, 0.05916664, 0.01881140, 0.13444349, 0.28145742, 
	-0.09931377, 0.10451133, -0.14377153, -0.28739902, 0.11972073, 0.23014089, -0.41178903, 0.21419592, 
	0.13385510, -0.01731151, 0.46886101, 0.06796162, 0.33927956, -0.29197904, -0.13460012, -0.13487847, 
	0.30195114, 0.07116961, 0.03788561, -0.05311168, 0.53758258, -0.04558380, -0.08368503, -0.14039007, 
	0.33846551, -0.09510498, 0.17527367, 0.13225292, 0.03783974, -0.15292187, 0.10210541, -0.10781316, 
	-0.02347192, -0.07091077, 0.00261118, 0.53796101, -0.30245236, 0.11639787, -0.47373447, -0.19163305, 
	0.49242675, 0.40040788, 0.29802492, 0.01149846, -0.26035970, 0.33290291, 0.07850181, -0.27793366, 
	-0.23649205, 0.07247360, 0.61852926, 0.50703824, -0.01474486, 0.43994063, 0.44039667, -0.03301584, 
	-0.03289874, -0.28822929, 0.33152366, 0.06589939, -0.15981536, 0.12983632, -0.11310762, 0.05053094, 
	0.05612788, 0.10293598, 0.10486937, -0.18136412, 0.10587552, 0.01222888, 0.59619921, -0.17381346, 
	0.24735944, 0.07543448, 0.19056433, -0.40048113, -0.17362189, 0.04851093, -0.25928599, 0.07010759, 
	-0.20466487, 0.21740298, 0.20753860, 0.09305243, -0.23452304, -0.04195380, 0.24207179, -0.67344803, 
	-0.16369919, 0.00110691, 0.56799060, 0.12153380, -0.05654006, -0.11590841, 0.05726773, 0.30731994, 
	-0.14736179, 0.57728148, 0.32229087, -0.22243619, -0.29664561, -0.20334809, -0.27273956, -0.13485250, 
	-0.05778918, 0.23350945, -0.06864298, -0.00494540, 0.07520548, -0.13334033, -0.22743639, -0.22476301, 
	-0.01157674, -0.29963791, -0.00386911, 0.06984677, 0.06793194, 0.16036585, 0.19284764, -0.32205892, 
	-0.18067220, -0.17013110, -0.02979393, -0.22043285, 0.06324036, -0.25539503, -0.13195357, 0.02274358, 
	-0.28479260, -0.13173878, -0.11471695, -0.21300411, 0.28364593, -0.01852029, -0.13528389, -0.13857222, 
	0.06860109, -0.07959004, -0.19593984, 0.04644232, 0.26919064, 0.23930602, 0.25171697, 0.09092156, 
	0.28483686, -0.31673643, -0.14271866, 0.08598328, -0.19682658, 0.05898556, 0.29650354, 0.15056658, 
	-0.09575889, 0.07103198, 0.00209260, 0.10755759, -0.03584334, 0.43589702, 0.23343506, -0.04813614, 
	-0.18942650, -0.37566131, -0.02570874, 0.21740809, -0.13524053, 0.17342202, -0.15790896, 0.19878550, 
	-0.69868767, -0.04926043, 0.06280119, -0.04273257, -0.08664795, 0.00532580, -0.22372738, 0.27705827, 
	0.14874122, -0.11238286, -0.00126633, 0.39568973, -0.06107878, -0.17290133, 0.06682854, 0.13928801, 
	0.03208501, -0.14047746, 0.29176801, -0.06690547, -0.05760925, -0.25251910, -0.42414877, 0.10466135, 
	0.02168187, 0.04472519, 0.04782728, 0.20087527, 0.04778915, 0.27434832, 0.08397549, -0.00964956, 
	-0.06606115, 0.34520420, 0.10380229, -0.12306157, 0.02457910, 0.23091389, -0.11363855, 0.03038450, 
	-0.12659656, 0.11256696, 0.40739125, 0.14307280, -0.27072170, 0.05736488, 0.19972578, -0.04864496, 
	0.04103652, -0.01737908, 0.07447593, 0.13017456, -0.06637644, 0.00048199, -0.26232395, -0.12187598, 
	0.23331018, -0.15814839, 0.23678117, 0.17191054, -0.10343836, 0.12982944, 0.09520364, -0.06704751, 
	-0.09384736, 0.17090926, 0.00211825, -0.12607910, -0.21640494, 0.40100864, 0.06227243, 0.39524621, 
	-0.05185787, -0.11155140, -0.08589922, 0.17605837, 0.07205076, 0.40271816, -0.55823976, 0.22641481, 
	0.26766297, -0.37719500, -0.18526091, 0.07214846, 0.51028550, 0.06789347, -0.77439648, -0.02228693, 
	0.00851865, 0.14421926, -0.05117328, 0.61667991, 0.27667287, -0.25719374, -0.03583232, -1.02728140, 
	-0.20454812, -0.08431978, 0.06065855, 0.19848321, 0.36035940, 0.14083505, -0.63503712, 0.15450773, 
	-0.18335140, -0.33912870, -0.59548312, -0.33668911, 0.17610554, 0.16193263, 0.23356031, -0.01898805, 
	-0.36121663, -0.05331659, -0.55118638, -0.40621296, -0.34353566, 0.15496720, -0.10300744, 0.08856607, 
	-0.17707813, 0.21464063, 0.00800283, -0.26177835, -0.22708382, -0.06571219, -0.27024701, -0.23059055, 
	-0.05504758, -0.06616444, 0.17232633, -0.14449923, 0.33814505, -0.01501951, 0.17489289, -0.03317663, 
	0.11671282, -0.03776579, -0.06386239, 0.64664751, 0.24963656, 0.20680025, 0.44449651, -0.10019730, 
	0.29698992, 0.07813115, 0.18713982, 0.44320378, -0.55130118, 0.45363650, -0.06541603, 0.07582909, 
	0.41646206, 0.32306439, -0.15942661, -0.02712840, -0.47522461, 0.05908450, -0.16003087, -0.19510974, 
	-0.11674159, -0.31548047, -0.00866845, -0.04975690, 0.52132988, -0.25785100, -0.05149539, -0.27788275, 
	-0.27482256, 0.45587459, 0.05465571, 0.25657511, -0.02090844, 0.13392389, 0.34777427, -0.86222535, 
	-0.28161421, 0.02917852, 0.17845948, -0.08947086, 0.57558465, -0.00695397, -0.43275106, -0.03523429, 
	0.03804515, -0.02082135, -0.19629639, -0.04194169, 0.32902580, -0.59666544, -0.09325541, -0.13222606, 
	0.20237312, 0.03826797, -0.00538109, -0.02050050, -0.00791879, -0.31981841, 0.18709448, 0.19320369, 
	0.59733766, 0.03057382, -0.56085515, -0.26737291, 0.16547628, -0.14931694, 0.18245909, -0.18807726, 
	-0.37481314, 0.50681442, -0.17749180, -0.03674185, 0.01777702, 0.41004977, 0.13937670, 0.14217648, 
	-0.16334146, 0.27917904, -0.50705659, 0.26418120, 0.27014592, 0.28909808, 0.13230249, 0.15579747, 
	0.02145481, -0.19153275, 0.12313642, 0.20056312, 0.21317814, -0.26174182, -0.31910899, -0.39240119, 
	0.33102474, 0.44662461, 0.12653235, 0.19332838, -0.15130243, -0.16279386, 0.30824402, -0.10762624, 
	-0.23819534, 0.40869761, 0.48620945, -0.01722931, -0.31436127, -0.10087410, 0.31256279, 0.18144284, 
	0.09430157, 0.14606465, 0.08030764, -0.20079583, -0.33425277, 0.16683723, -0.39275628, 0.09476766, 
	-0.11902492, 0.26947379, -0.20925765, -0.26560465, 0.06479743, -0.11397658, 0.67165464, 0.04421571, 
	-0.18362065, -0.18776989, -0.31080896, -0.02090333, 0.14324714, 0.30591872, 0.18665153, 0.08336321, 
	-0.29128963, -0.19346486, -0.04444439, -0.56150019, -0.46682918, -0.15486541, 0.19697718, -0.20572188, 
	-0.18764941, 0.05406240, -0.18417765, -0.16337289, -0.27496928, -0.09945025, 0.18869455, -0.05988790, 
	-0.16287267, -0.17014296, 0.30784884, -0.10233191, -0.35430425, -0.28040534, 0.36615092, 0.02543769, 
	0.40990204, -0.17388582, -0.00054699, 0.61519390, 0.08318810, 0.15206549, 0.20056364, -0.25607505, 
	-0.01334766, 0.00281720, 0.19410963, 0.24189517, -0.14334229, 0.28933153, -0.24732049, -0.00913642, 
	0.01983570, 0.09100864, 0.03452495, 0.08724742, 0.64719129, -0.09315894, -0.07197665, 0.06425104, 
	-0.09506625, 0.30281591, 0.12355514, 0.13635196, -0.19745065, 0.11725981, -0.04259676, 0.86167413, 
	0.26915798, -0.54812795, -0.14724794, -0.15536003, -0.56244278, 0.00347810, -0.24732201, 0.14011554, 
	-0.40331894, -0.22902980, -0.31372294, -0.22436146, -0.44279230, 0.28958768, 0.22113588, 0.15322530, 
	0.05094143, -0.17624223, -0.00690995, 0.10933940, 0.06782136, 0.28381371, 0.04648815, 0.18758188, 
	-0.33906820, -0.08427893, 0.01461744, 0.35744584, -0.38625851, -0.03580534, -0.03632660, 0.41286364, 
	-0.08161031, 0.14035782, 0.18460906, -0.10909569, 0.33140555, -0.31637168, -0.24540715, 0.02509600, 
	0.06199241, -0.09706508, -0.31620041, 0.24554807, 0.04080805, -0.12642704, -0.10713371, -0.13848488, 
	-0.02266188, -0.23008333, -0.14861213, -0.00808133, 0.06271128, 0.00312593, 0.25298932, 0.12698808, 
	-0.07367218, -0.31535777, -0.25617495, 0.06558383, -0.03607279, 0.25491291, -0.06420317, -0.13522911, 
	-0.41938514, -0.07513703, -0.36956331, -0.18378514, -0.18649346, -0.05231744, -0.13894635, 0.18338798, 
	-0.19137128, -0.10706052, 0.11279564, -0.27035549, 0.16349041, -0.23032404, -0.65918195, -0.07068069, 
	-0.13151422, 0.01860076, -0.28090289, -0.23074086, -0.23720381, 0.25593466, 0.07442027, -0.09973739, 
	-0.03447921, -0.03341750, -0.35029915, 0.15588482, 0.00407790, 0.27012083, -0.02108721, 0.18470584, 
	-0.16980864, -0.48337898, -0.09810459, -0.13987295, -0.08444337, -0.09933381, 0.02922598, -0.03134197, 
	-0.55201030, -0.33379617, -0.08227547, 0.07379770, -0.10760193, -0.17039011, -0.04462840, -0.23634991, 
	0.17548463, -0.13234428, -0.19473654, -0.02567876, 0.55656642, 0.08708178, -0.04365980, -0.06264987, 
	-0.36970907, -0.05348128, 0.32537481, -0.12873356, 0.15009934, -0.21985565, 0.25864211, 0.12872137, 
	0.07783800, 0.00210568, -0.53442824, 0.14263883, 0.15952069, 0.20807025, 0.28644851, 0.05266748, 
	-0.18404651, 0.23096755, -0.32912433, 0.05364000, 0.16997680, 0.30206859, -0.09182233, -0.02599487, 
	-0.11499951, -0.27715090, 0.14976101, -0.19885497, 0.29175282, 0.07869750, -0.06878424, -0.23320353, 
	-0.21379168, -0.01376251, -0.29913905, -0.14548808, -0.44436416, -0.01634018, 0.18915899, -0.14686455, 
	0.09753910, 0.06578002, 0.00798172, -0.08707833, -0.14330095, -0.36201668, -0.09858476, 0.08086352, 
	0.16640158, 0.07004852, -0.02760808, 0.09760322, -0.04200992, -0.05099810, -0.21455148, 0.17380403, 
	0.01204407, -0.28120562, -0.40561152, 0.10427029, 0.14296031, -0.09815814, 0.02118435, 0.28083476, 
	0.42126232, -0.25336066, 0.20931949, 0.44736198, -0.32229501, 0.00400714, -0.07307768, 0.30556619, 
	0.11753567, 0.31150669, 0.56389987, -0.09045918, 0.36296752, 0.08398503, -0.13679668, 0.04277119, 
	-0.20358707, 0.09919240, 0.64289796, 0.38406870, 0.60841924, 0.43367544, -0.12231175, 0.06290351, 
	0.14443059, -0.05233267, -0.27259907, 0.43831423, 0.34380451, 0.43979374, 0.16012929, 0.06925418, 
	0.04039624, -0.08245362, -0.03110862, 0.15199788, -0.10157836, 0.44499105, -0.06131046, 0.38687566, 
	-0.25829077, 0.00865730, -0.05481473, 0.20183021, -0.16674201, -0.08211132, -0.22334300, 0.12253027, 
	-0.02219756, 0.04856907, 0.01866290, -0.02525973, 0.29236451, -0.12179928, -0.07664912, -0.09033041, 
	-0.07146569, -0.08625697, -0.13623001, 0.15070660, 0.51919109, -0.19121605, 0.01279951, -0.29463354, 
	0.02265081, 0.16791549, -0.26805675, -0.02348276, 0.30440858, -0.16551001, -0.07963059, -0.12083857, 
	-0.03570165, -0.22107080, -0.07770491, -0.10606849, 0.19187745, 0.03199724, 0.06600759, -0.11801995, 
	0.10944264, -0.12113092, -0.29380134, -0.20154501, -0.29122245, -0.09491674, -0.07805733, 0.33911818, 
	-0.10149118, -0.01805128, 0.00054984, -0.25356641, -0.09488861, -0.12681714, -0.26412085, -0.22439215, 
	0.02631467, 0.01354520, -0.27266797, -0.09413101, -0.13045737, 0.22960731, 0.24281083, 0.07334667, 
	0.06313170, -0.17827731, -0.14735839, 0.12382177, 0.07398665, -0.04385478, 0.15059610, 0.09287018, 
	-0.26527718, -0.30317897, -0.16887899, 0.13881940, 0.19265926, -0.03149856, 0.50888377, -0.18773788, 
	0.06064898, -0.09680852, 0.02963438, 0.21361080, 0.01713026, -0.05900301, 0.05686042, 0.42987216, 
	0.20880102, -0.23055172, -0.16121075, -0.16801503, 0.07242250, 0.02995344, -0.33004808, -0.11453484, 
	0.00380886, -0.28792864, -0.18103579, 0.20027202, 0.09437012, 0.22940564, 0.00934460, -0.18447095, 
	-0.02725707, -0.09784211, -0.06554717, 0.18648364, 0.21919794, 0.09775949, 0.34333950, 0.18237197, 
	0.02320267, 0.06448263, 0.30474985, 0.24120338, 0.09406738, -0.13539465, -0.00687709, 0.04028776, 
	-0.04552002, 0.06572259, -0.02490869, 0.22557847, -0.43248433, 0.18849379, -0.16954139, 0.07995926, 
	-0.12738444, -0.08614308, 0.12465265, -0.95705599, -0.02393421, -0.07499770, -0.23262717, -0.15726629, 
	0.00043423, 0.09735791, -0.15501848, -0.10583879, 0.22706756, 0.01636525, 0.20842628, -0.33452222, 
	0.00940084, -0.07273747, 0.20620678, -0.17805858, 0.21164937, -0.22232866, 0.21491832, -0.24235217, 
	0.00826311, -0.17993039, -0.07168949, 0.10263526, -0.16056770, 0.43273491, 0.21579631, 0.03980085, 
	-0.20168483, -0.05620169, -0.32140499, -0.48586890, -0.13044932, -0.00304040, 0.13052289, 0.12755971, 
	0.13600184, -0.40881604, -0.24708734, -0.06779365, 0.10620246, -0.00165584, -0.03591546, -0.13927059, 
	-0.01852454, -0.12553701, -0.13716303, -0.12340983, -0.10431135, -0.25680119, 0.16987163, -0.05631791, 
	0.00477581, 0.03227599, 0.47579250, -0.20130120, 0.16673836, -0.00730954, -0.07993212, 0.02884801, 
	0.04312591, -0.05085212, 0.06797369, -0.06078877, 0.06635248, 0.19967744, -0.02734161, -0.11588649, 
	0.10139757, 0.06818847, -0.03456828, -0.07414158, -0.07863294, 0.05290748, 0.02547431, 0.03219933, 
	-0.07749917, -0.16912729, 0.09891256, -0.01071745, 0.04344112, -0.15614016, -0.09770070, 0.20457770, 
	0.04434509, -0.08528641, 0.00967684, -0.06779256, 0.03853646, -0.09060775, -0.03476105, -0.10279905, 
	0.09220701, -0.10130769, 0.10902733, 0.04790954, -0.03794442, -0.03204692, -0.00089351, -0.03439444, 
	0.08622709, 0.25892809, 0.19110140, -0.04405123, 0.09609563, 0.29108122, 0.01826789, 0.39127812, 
	-0.41943839, 0.01889812, -0.36837915, -0.08405506, 0.22635952, -0.09493683, -0.44450694, -0.09812096, 
	0.25227201, 0.34422112, -0.34878817, -0.07423055, 0.39915952, -0.19706550, -0.23558111, 0.14525941, 
	0.16455658, -0.15085150, -0.26132527, 0.10116530, 0.59601164, -0.11044618, -0.00231312, -0.92152435, 
	0.37197977, -0.08020582, 0.12496977, 0.41401333, 0.23613353, -0.04104686, 0.36507294, 0.09939501, 
	0.06604157, -0.32534972, 0.04848294, 0.05544217, 0.14337654, -0.31173271, 0.18674083, -0.06932310, 
	-0.49875656, 0.16733538, 0.03565369, 0.07120731, -0.50545132, -0.19997104, 0.17303663, -0.10228442, 
	0.17143884, -0.00090706, -0.10391022, -0.30895233, 0.13363297, -0.37802246, -0.14953533, -0.01330953, 
	-0.21197325, 0.09300864, -0.07755543, 0.15861227, 0.33997077, 0.24215813, 0.18400097, -0.32344756, 
	0.10166296, -0.02212625, 0.11032895, -0.02887282, 0.26284790, 0.02898310, 0.42557627, 0.15731859, 
	-0.07271933, 0.25424704, -0.07495355, -0.45056048, -0.02381951, 0.21478209, 0.27147695, 0.27665100, 
	-0.03971827, -0.34492567, -0.10527635, -0.11818608, -0.05901462, -0.07909246, 0.01387921, -0.09451600, 
	0.23952147, 0.05362791, -0.18169373, -0.00186212, 0.30506232, 0.08910239, -0.57763386, 0.07107849, 
	-0.35105383, -0.03647862, -0.01605109, -0.11211362, -0.10597925, -0.01954982, 0.03626833, -0.32541132, 
	-0.04630072, -0.16467148, -0.16325074, 0.17451338, 0.45304793, 0.10229129, -0.67490739, -0.00285088, 
	-0.13966452, 0.03619111, -0.10767250, 0.34845105, -0.03277674, 0.41462553, -0.48163337, -0.06116234, 
	0.19045134, 0.15053868, -0.01029434, -0.08881693, -0.14220411, 0.11327583, -0.18683684, 0.07400394, 
	0.05401000, -0.32973897, 0.41318893, 0.26433212, 0.17928873, -0.03021777, 0.07132828, -0.00129985, 
	0.27191600, 0.24490434, -0.55630791, -0.49486649, 0.06833669, -0.05000081, -0.35459816, 0.09339359, 
	0.05319924, 0.11259872, 0.11820569, -0.14232957, -0.14149441, 0.03445358, -0.07049328, -0.09420726, 
	-0.11741392, -0.33683616, -0.23775029, 0.28527108, -0.14450154, 0.05409485, 0.36558756, -0.21603535, 
	-0.00008157, -0.34325239, -0.15928742, -0.06864507, 0.10615902, -0.29558402, 0.15957035, 0.14287448, 
	-0.06441607, 0.06003698, 0.21414600, -0.05165708, 0.03031179, 0.24666524, -0.37340620, -0.13650280, 
	-0.22173831, -0.24269620, -0.13437112, 0.05724973, 0.00797691, 0.30953521, 0.20191289, 0.00310774, 
	-0.28268680, -0.07817135, -0.22166702, 0.26118886, -0.05615493, 0.25286317, 0.43261042, 0.24603057, 
	0.16466306, -0.56222343, -0.20699115, 0.16643688, 0.17547345, 0.10326257, 0.31360096, 0.06218055, 
	-0.78583443, 0.08965032, 0.16621836, 0.19464231, 0.01483426, 0.06661957, 0.20578864, -0.24666518, 
	-0.06088833, -0.35855511, -0.19905703, 0.27042878, 0.26141694, 0.05251995, 0.43201357, 0.01748334, 
	0.09110677, -0.20110765, -0.24098638, 0.67029130, 0.47254050, -0.11851916, -0.00079292, -0.27872112, 
	0.13639563, 0.17531247, -0.15435846, 0.08077340, 0.22653295, -0.11090700, 0.16932181, -0.15097350, 
	0.06922741, 0.19228043, -0.13629842, 0.09652710, 0.11426379, -0.05879812, 0.01519956, -0.06666753, 
	0.00159921, -0.16319665, -0.07484357, 0.48736355, -0.32597783, -0.28274843, 0.23520146, 0.14117223, 
	-0.19974045, 0.62325251, -0.16914141, -0.21241374, -0.06936082, -0.09204543, -0.01047670, -0.15034318, 
	-0.09018578, -0.07785951, -0.21556357, -0.16247566, 0.38899752, 0.01646337, 0.09280517, 0.16882491, 
	0.33914444, 0.06419852, 0.00945234, -0.01110967, 0.16150720, -0.18998751, 0.14519131, 0.21240476, 
	0.03897334, -0.08056208, 0.30589724, -0.17861238, 0.04275434, -0.17265889, -0.00472053, -0.23872286, 
	0.09317433, -0.01116785, 0.02836842, 0.02288697, -0.08985557, -0.11600370, -0.00758610, -0.04779794, 
	0.07041752, -0.17345992, 0.01424452, -0.06510718, -0.06938729, 0.09515097, -0.19200894, -0.17352770, 
	-0.02755531, 0.02103212, 0.09297577, -0.03503162, 0.11682227, 0.13526575, 0.06688284, -0.15579362, 
	0.02663475, 0.03253790, 0.05738412, -0.12265692, -0.07411356, -0.17547591, 0.01005588, 0.03321835, 
	0.14839676, -0.08396978, -0.07102329, 0.18005483, 0.04048541, 0.24609546, -0.02399345, 0.24689013, 
	0.02055260, 0.12433995, -0.06737360, 0.06990834, -0.21525097, 0.00291392, -0.21237913, 0.34148079, 
	0.39498565, 0.16348784, 0.19162020, -0.00133743, 0.16253741, 0.04252674, 0.02135200, -0.05308742, 
	0.13829949, 0.00092174, -0.16528234, -0.10010850, 0.21792851, 0.13086241, -0.11023234, -0.23065068, 
	0.12560067, -0.02120916, -0.04814667, -0.04607031, 0.23671357, 0.22905277, 0.32564992, -0.05299729, 
	0.03625056, 0.07508952, -0.03216236, 0.00988765, 0.50350738, -0.32581121, 0.19151358, 0.17596374, 
	0.04133670, -0.17609212, -0.02113582, 0.12653778, -0.22401606, -0.00124554, 0.03457991, 0.43100467, 
	0.42926988, 0.22974807, -0.60341400, -0.32290199, 0.04436013, -0.67595065, -0.17348671, 0.00245792, 
	0.20804161, -0.28457126, -0.18369146, 0.13226542, 0.85033566, -0.07674675, 0.08979582, -0.14567132, 
	0.44346324, -0.06967168, 0.04696016, -0.30184343, 0.01441395, -0.14176957, 0.40174514, 0.11800296, 
	-0.06372473, 0.06111376, -0.09446225, 0.21603623, 0.05579834, 0.19255693, -0.10286942, 0.05377559, 
	-0.01052205, -0.05832896, 0.07445676, 0.03483389, -0.04839913, 0.23100953, -0.05476264, -0.26129323, 
	0.13315962, -0.06044566, 0.23387386, 0.01483330, -0.18374243, 0.02960815, 0.08354183, -0.18985784, 
	0.14985943, 0.10917448, 0.18549465, -0.10795449, 0.30005425, -0.25627756, -0.07236237, -0.18350758, 
	0.10793394, 0.03123449, 0.25438091, 0.14235364, 0.11008458, -0.06337362, -0.21911950, 0.04267672, 
	0.00374862, 0.08904890, -0.14190531, -0.01900766, -0.14000420, 0.64274144, 0.02038994, 0.39554453, 
	-0.06810075, -0.06986056, -0.10563143, -0.03442169, 0.04661021, -0.01095625, 0.13757908, 0.10893648, 
	0.24002118, 0.48818237, 0.10541695, -0.02349480, 0.02198025, 0.17394949, -0.17849347, -0.15899923, 
	0.13507678, 0.09648684, 0.15435667, 0.05775159, -0.01118426, -0.19155242, -0.21483949, -0.21369161, 
	0.13314083, 0.17210850, 0.07034043, -0.04857339, -0.09508121, -0.06737056, -0.12396008, 0.15608832, 
	-0.01015478, -0.19603929, -0.20172229, 0.45009699, -0.15285444, -0.09892029, -0.19534886, -0.60038513, 
	-0.11510985, -0.14020957, -0.01040079, 0.48453227, -0.61007953, -0.11787942, 0.35700673, 0.11810827, 
	-0.54820842, -0.50925851, 0.17324136, 0.12438229, -0.33710480, 0.26439580, 0.18549773, 0.06717689, 
	0.06105842, -0.50292516, -0.11426102, -0.28701803, 0.02925491, 0.16086437, 0.05352197, 0.49605435, 
	-0.31917351, 0.01788039, 0.18655112, -0.24496917, -0.39614871, 0.24924406, -0.17616813, 0.07357570, 
	0.32802755, -0.09300960, -0.14691876, 0.17007919, -0.10287493, 0.06471039, 0.16655429, 0.01794428, 
	-0.41560787, 0.01602433, -0.08322822, -0.19628619, -0.12149655, -0.08881459, -0.01266456, 0.11845454, 
	-0.34970024, 0.12157564, -0.27500623, -0.04953078, 0.30346826, 0.05323672, -0.10315131, 0.02271257, 
	-0.03238099, 0.07608908, -0.27031976, 0.11890464, 0.07470721, 0.13236691, 0.23231225, -0.62653899, 
	-0.13749067, -0.02072192, -0.10965167, 0.02780907, 0.15174142, 0.14107320, 0.01404375, 0.22073627, 
	-0.04182022, -0.03160464, -0.08297455, 0.11046620, 0.55114728, 0.07531234, 0.00810367, -0.29230654, 
	0.04996880, -0.06722216, 0.15069728, -0.37696561, -0.09927321, 0.02763521, 0.04654414, -0.08135807, 
	-0.28727326, -0.10649476, -0.02783891, -0.20846936, -0.03986194, -0.26771751, 0.26288897, 0.26749006, 
	-0.07521579, 0.05316065, -0.16249727, 0.15728857, -0.37733638, 0.08615578, 0.18425894, -0.12897630, 
	0.35353073, -0.31991518, -0.19949195, 0.32708824, -0.28218222, 0.07239042, -0.01897674, -0.05410015, 
	-0.11953837, -0.28274348, -0.00465623, 0.24713176, 0.44474146, -0.18971568, 0.02289724, -0.05644466, 
	-0.37607503, 0.11484040, 0.02331412, -0.32445109, -0.02469167, 0.00768323, 0.06467061, -0.01708073, 
	0.26833859, -0.00234066, 0.15495285, 0.03706390, 0.24864292, 0.00710183, 0.01531969, -0.04050168, 
	0.06347834, -0.22036646, -0.44449243, 0.01980818, 0.33719155, 0.01471441, -0.03925821, -0.04904895, 
	-0.01526903, 0.01914727, -0.13277906, 0.00167906, 0.06051318, 0.22958229, 0.25803077, -0.19472168, 
	-0.10145081, 0.10467082, -0.12415417, 0.28630561, 0.08036666, 0.46536273, -0.06313327, -0.11139344, 
	-0.00035161, -0.04058740, -0.11963436, 0.04624273, -0.11836526, -0.19659914, -0.06293120, -0.32767189, 
	-0.45609120, 0.10104706, -0.01558138, -0.16647504, 0.15212287, -0.14142032, -0.02223522, 0.13616930, 
	-0.05739181, -0.21761119, -0.27462196, 0.04074821, 0.11328429, 0.21310125, -0.01011442, 0.06663996, 
	-0.05925181, -0.13787611, -0.18709452, 0.24291481, -0.04248415, -0.08174850, 0.14707983, 0.18278274, 
	-0.18781374, -0.13521786, -0.10927580, -0.46767420, 0.04776493, 0.22600923, 0.24989189, -0.09177367, 
	-0.20589335, -0.25342673, -0.20418599, -0.44404906, 0.09060045, -0.11905994, 0.16898526, 0.31077009, 
	0.52740335, -0.08497787, -0.05451090, -0.02886062, 0.29245278, -0.21551876, -0.43760937, -0.00024581, 
	-0.02410819, 0.15245910, -0.28126433, -0.11522464, -0.07159653, -0.02118825, -0.09116262, -0.01342085, 
	-0.02720418, 0.10662867, -0.03505518, 0.11147818, 0.13394612, 0.27763897, -0.12173583, -0.19037245, 
	0.19222416, 0.13931540, -0.17298019, -0.10612653, 0.03045861, -0.02848493, 0.19637559, -0.25752735, 
	-0.04445400, -0.00278470, 0.01060056, 0.09915639, 0.00024542, -0.08108222, 0.02643188, 0.34415919, 
	-0.05788368, -0.51379299, -0.34132817, -0.27359569, -0.03923098, -0.11148594, -0.27322969, 0.09817549, 
	-0.19153008, 0.27424401, -0.16592631, 0.11029825, -0.21616144, 0.09202898, 0.00476815, -0.19755824, 
	-0.50107038, 0.20966057, -0.18093698, -0.14489557, 0.22637422, 0.03836932, -0.49366903, -0.04057848, 
	0.00626790, -0.25034770, -0.05871021, -0.28730568, 0.07567380, 0.28860712, 0.09015450, 0.09308389, 
	-0.11641606, -0.23979752, -0.09670356, -0.03768707, 0.01986221, -0.12772903, -0.02628557, 0.05185073, 
	-0.00039191, -0.09151509, -0.23097199, -0.28013903, -0.02126699, -0.20255615, 0.01789822, -0.03499922, 
	-0.03680589, 0.20775209, -0.03922421, -0.00265944, -0.07387515, 0.13094763, 0.09519151, 0.08928965, 
	0.10747291, -0.19967830, -0.34571815, 0.11029120, -0.21233191, -0.12000705, 0.18645316, -0.00206653, 
	0.00460543, 0.06736865, -0.01663682, -0.35630053, -0.37195230, 0.34638986, -0.00169018, -0.13938488, 
	-0.16283958, 0.07375266, -0.40236709, 0.17032324, 0.41407794, -0.13910788, -0.20588984, -0.00618360, 
	-0.54398578, 0.16864666, -0.20883018, 0.21561673, -0.32310238, 0.04314554, -0.03367392, -0.03744342, 
	0.18400680, -0.28699934, -0.09174354, -0.15151022, 0.13748552, -0.33087870, 0.00574088, -0.05467155, 
	-0.39082572, 0.29297099, -0.02842584, -0.04777620, 0.25120142, -0.18949294, 0.23551673, -0.00887067, 
	-0.10406817, -0.10495541, -0.09582182, -0.08673374, 0.45025301, 0.09961727, 0.03374106, -0.06791137, 
	-0.13082455, 0.11056743, -0.27179435, -0.37833899, -0.04691227, 0.07763803, 0.09313063, -0.02506198, 
	0.59598053, 0.10488309, -0.13697724, -0.17603339, 0.05252020, -0.06105840, -0.13133785, -0.13295870, 
	0.11311684, 0.14789654, -0.17774202, -0.11796772, -0.08314210, -0.05122344, -0.07253981, -0.15809876, 
	-0.02599864, 0.22324665, -0.02625336, 0.21892709, 0.14874953, 0.35078439, 0.08205231, -0.08933786, 
	-0.33765984, -0.37962463, -0.21431480, 0.10228144, 0.24770057, 0.23777400, 0.14508988, -0.19333203, 
	-0.18482812, -0.18417412, -0.53307396, 0.11110523, 0.15344892, 0.20785630, -0.32434535, 0.70749718, 
	-0.13959239, 0.38842887, -0.32310468, -0.08836059, -0.33372793, 0.29088897, 0.15406720, -0.37090668, 
	0.18435644, -0.27211595, 0.17826328, 0.20381966, 0.86846060, -0.00400949, -0.05881707, 0.05959820, 
	0.24580157, -0.13161336, -0.06068560, 0.26959014, 0.12686814, 0.30612785, 0.72778088, 0.09589428, 
	0.01991201, -0.01075805, 0.01029461, -0.09425814, 0.14237195, 0.25901431, 0.13982853, -0.02315379, 
	0.01410750, -0.09903168, -0.13260733, -0.28538829, -0.26678935, 0.17860445, -0.15438288, -0.39835492, 
	-0.03297543, -0.18387754, -0.04932265, -0.01300149, 0.22188483, 0.23812333, -0.06095047, -0.10327922, 
	-0.06282692, -0.05859091, 0.37671912, 0.10995116, 0.30950785, -0.16505739, 0.08007091, -0.48023611, 
	0.08585951, -0.02317141, -0.15343088, 0.05690530, 0.46691141, 0.34840894, 0.22331540, -0.12269621, 
	-0.05986780, 0.09328187, -0.30884632, 0.44395655, -0.26607466, -0.03773356, -0.20443611, -0.05603645, 
	-0.13217624, -0.13860695, -0.04437413, 0.15936041, -0.12660621, 0.13009706, -0.30150166, 0.15758134, 
	-0.35415688, -0.02547023, 0.17778170, 0.22493975, 0.22737740, 0.10967291, 0.00864931, -0.17161565, 
	-0.10578480, 0.14802571, -0.10306420, -0.03247922, 0.09545208, 0.00095184, -0.17620735, 0.29749733, 
	-0.37955222, 0.15192619, -0.21324837, 0.12137312, 0.02833348, 0.03637408, -0.32045951, 0.09674682, 
	0.14051074, 0.14038847, 0.26320860, -0.01894313, 0.19810911, -0.06414524, -0.15598784, 0.10284770, 
	0.36932907, 0.09142013, 0.05075295, 0.00923322, 0.27244282, -0.18252267, 0.02149846, -0.31467018, 
	0.19330058, 0.35343331, -0.46023750, -0.03677075, 0.39496955, 0.62565041, -0.04176583, 0.07760852, 
	-0.33789754, -0.03030638, 0.03133442, 0.02609169, 0.35096210, 0.07282055, 0.13409071, -0.63519758, 
	-0.25879005, -0.05944303, -0.36939928, -0.00375828, 0.30858284, 0.10179754, 0.01702194, 0.20833719, 
	-0.00835109, -0.00365789, -0.31186807, 0.33990359, 0.14076240, 0.00983106, -0.20491932, -0.24133706, 
	-0.22257061, -0.10868417, -0.04186200, 0.11688957, 0.09202775, -0.36259556, 0.23792404, -0.07844111, 
	-0.00014558, 0.46831191, 0.06559883, 0.07187575, -0.00604196, 0.49906078, 0.33717152, -0.07183064, 
	0.01327932, -0.19767441, -0.36474431, -0.08616211, -0.05911598, 0.14232063, -0.10677174, 0.40872136, 
	-0.22326367, 0.17746590, -0.12600687, -0.03921927, -0.09395366, 0.30781531, 0.17819297, -0.00351458, 
	-0.07087465, 0.17037074, 0.05669889, -0.00106463, 0.26428205, 0.01238022, -0.07611071, -0.06188345, 
	0.04357220, 0.21479258, -0.22582975, -0.20394152, -0.07113446, 0.00909320, -0.04190855, -0.01909326, 
	-0.11464601, -0.01505656, 0.35441625, -0.22806191, 0.12015643, -0.16587283, -0.03618249, 0.12499178, 
	0.13164102, 0.15710762, -0.11300407, -0.01519268, 0.24673730, -0.04977345, 0.03755426, -0.25394282, 
	0.21159922, 0.08612112, 0.05272013, 0.14491378, -0.10061427, -0.15686779, 0.27972722, -0.13005267, 
	0.09596907, 0.01588643, 0.13383836, -0.08053190, 0.20764326, -0.00376033, 0.02511842, 0.24679925, 
	-0.64521885, -0.04293891, -0.53338188, -0.19631879, 0.05403770, 0.08262039, -0.17981064, -0.18602730, 
	-0.06673186, 0.11886451, 0.06820345, -0.13442078, 0.23866975, -0.17282629, -0.22564757, -0.09570679, 
	-0.06571689, -0.05489665, 0.00999317, -0.13457265, -0.03329825, 0.11065940, 0.17702919, -0.22477469, 
	-0.00813494, 0.05029428, 0.10800373, -0.00542745, 0.26624435, 0.07136260, 0.50476009, 0.00252655, 
	
};

const static dl_matrix3d_t lstmweight_ih_l0 = {
	.w = 40,
	.h = 160,
	.c = 1,
	.n = 1,
	.stride = 40,
	.item = ( fptp_t *)(&lstmweight_ih_l0_item_array[0])
};

const static fptp_t lstmweight_hh_l0_item_array[] = {
	0.71146768, 1.54671860, 1.46913016, 0.18804845, 1.47274792, 2.16533947, 1.38093328, 0.44535735, 
	-2.28433609, 0.88387424, -0.20641761, 0.74940622, -1.08558166, -2.28666782, -0.80315238, 1.28119373, 
	-0.05124907, 0.01814523, -1.85016513, -0.68025959, -0.08805131, 0.59882468, -0.93575358, -0.22071056, 
	-0.85655552, 1.48651671, -0.15250956, -0.95317954, 0.16216490, -0.36761007, 1.93695891, 0.24554563, 
	-2.04009008, -0.40205845, 0.54931992, -1.69218373, 1.49695647, -1.18441093, 0.16086912, 0.69774127, 
	0.32635516, -0.14700992, 0.39017233, -0.98495620, -0.45751449, 1.46442699, 0.32800499, -0.36406046, 
	0.09519288, 0.16704802, 0.62662607, 0.28193888, -0.40474048, -0.16015896, 0.63334924, -0.66542858, 
	-0.33758545, -0.42007580, 1.06719279, 0.70014411, -0.10051838, -2.90537000, -0.02030397, -1.17975831, 
	-1.16567504, 0.77434129, -0.15454008, -1.10726690, -0.00303956, -0.47765031, 0.17142498, -0.29530400, 
	-0.06774049, -0.65824640, 0.53165799, 0.11692049, -0.08690818, 0.97639418, 1.57706916, -0.89126354, 
	0.03619551, -0.66533947, 0.30358300, -0.43739796, -2.09566164, 0.70447141, 0.24915303, -0.86684746, 
	-0.20161580, 0.21607721, -0.25144485, 0.16150533, -0.39553908, 0.40853590, 0.66865450, -0.64969325, 
	-0.29046175, -0.15173452, 0.16855212, 0.88806772, -0.03140682, -1.14613497, 0.75351775, -0.53878349, 
	-0.66159868, 0.65733141, 0.32118475, -0.65680587, 0.26616085, -0.08715224, -0.77173519, 0.00253004, 
	-0.03628907, -0.92706120, -0.15948182, 0.29192632, 0.29802436, 0.33852968, -0.68404204, -0.95102376, 
	0.06780742, 0.05607772, 0.43667039, -0.21551454, -0.05546266, 0.18894634, 0.03620006, -0.07367656, 
	-0.26270837, -0.12454378, -0.94994986, -0.26802811, -0.05371363, 0.19471306, 1.03555024, -0.35419363, 
	-0.10397579, -0.45068407, 0.03260495, 0.47747448, 0.33289558, 0.02859433, -1.19948804, -0.41520712, 
	-0.34955341, 0.49240869, 0.23113415, -0.45543748, -0.22734480, 0.14176278, -0.02810787, 0.20173924, 
	0.09186906, -0.32923290, 0.27664471, -0.27614906, 0.15398435, -0.04126592, -0.15562184, 0.64469045, 
	-1.63411021, -0.36250964, -0.12496219, -2.15854096, 1.15257871, -0.72809237, 0.52246469, -0.70027500, 
	1.05466855, 1.29530203, -1.22128236, 1.44475353, -1.11813593, -0.79788136, 2.21893048, -0.64556515, 
	0.30085784, -0.98091877, 1.52287018, -0.05495874, 2.84960175, 1.35921001, 0.25762951, -0.82664824, 
	-0.26386544, 2.12603068, 2.58373284, -0.87983340, -1.00701487, -0.46602911, 1.64129364, 0.52428871, 
	-0.45752943, -1.16676331, -0.28333449, -0.04062281, -0.72293890, -0.39658397, 1.91855049, -0.18936831, 
	-0.17348963, -1.22897172, 2.20932651, -0.77373201, 1.32984054, -2.37667608, -0.19322388, -2.32408166, 
	0.05882666, 0.81125206, 1.62505209, 2.09374785, -0.83245665, 0.11085108, 1.38791728, -3.14005566, 
	2.41937113, -3.05202031, 1.10224450, 0.01270533, -0.18479653, -1.30217338, -4.24959135, 0.97085851, 
	-0.70252997, -1.33664405, 0.31186450, -0.53982377, -0.12398863, 0.58090442, 1.13965225, -0.89288181, 
	-1.04578316, -1.30837393, 1.49203253, 0.55902278, 2.21038389, 2.46825314, -0.24022691, -0.92907012, 
	0.44201159, -0.56501961, 0.41014755, -0.19263574, 0.52618498, 1.11807251, 0.02399824, -0.38400745, 
	0.34079325, 0.26558468, -0.19684419, 0.52933484, -0.11830455, 0.00965790, 0.05771461, -0.17834350, 
	-0.14572684, 0.06782486, 0.23953001, -0.08065250, 1.02008998, 0.15461826, 0.21923792, -0.17199738, 
	-0.12639892, -0.15540139, -0.35375223, -0.39364246, -0.12769186, 0.07368395, -0.01967610, -0.39320973, 
	-0.19942689, -0.35972568, 0.06210805, 0.75211340, 0.68667901, 0.24738123, 0.18558577, -0.13328350, 
	-0.95166445, -0.41902098, -0.15311532, -0.41157678, -0.38023075, 0.42640355, -0.01457012, 0.43120822, 
	0.43716210, -0.45081457, 0.31432670, 0.29648635, -0.38572341, 0.14848197, 0.20771590, -0.43733242, 
	0.89754128, 0.09943224, 0.36186561, 0.01505672, 0.36234868, 2.50853944, -0.15237854, -0.64665371, 
	-0.71616238, 2.06809235, 0.08934895, -1.40188706, -0.00093449, 0.38586760, 0.20891291, -0.27049607, 
	-0.32282424, -0.18913901, 0.43686420, 0.54509270, 1.53855729, -0.39124247, -0.47418919, -0.00138036, 
	-1.51772380, -0.44686154, 0.12636012, 0.02508365, 0.44698754, -0.47012365, 0.19966769, -0.46872920, 
	-0.04319807, 0.11595082, -0.53134322, 0.71724659, 0.08242708, 0.27878496, -0.42904928, -0.01175277, 
	0.27727711, 0.01618553, 0.10681372, -0.23812115, -0.55727506, 1.40353131, -1.34194410, -0.42201436, 
	-0.43394455, 0.18468645, -0.44714350, -0.18875289, -0.30836254, 0.06618325, -0.00091213, -0.66407257, 
	-0.19373289, -0.10566241, 0.20879082, 1.05705249, 0.02524896, 0.15329398, 0.25785628, -1.38198376, 
	-1.52787197, -0.62997669, -0.63597304, 0.39292273, -0.28126231, 1.22300267, 0.13592617, 0.07177608, 
