#pragma once
#include "dl_lib_matrix3d.h"
#include "dl_lib_matrix3dq.h"

const static fptp_t refinementLayerweight_item_array[] = {
	-0.05676905, 0.03433348, 0.07861877, 0.06801197, 0.08879206, -0.07926469, -0.05204837, -0.21474268, 
	0.03275636, 0.15525043, -0.02978861, -0.06281988, 0.19620615, 0.08931378, -0.03559948, -0.11421925, 
	0.15902579, -0.01157154, 0.16939405, -0.23063420, 0.39091063, -0.15216775, -0.15065430, -0.03698032, 
	0.08946120, -0.40633899, -0.09293765, 0.02287549, 0.08777156, 0.21528217, -0.16736393, -0.57137084, 
	-0.07032859, 0.11900779, 0.15193357, -0.08680886, -0.09312789, -0.03831147, 0.34577388, 0.02155329, 
	-0.07170834, -0.07461385, -0.32281658, 0.36740202, 0.30225244, -0.09709641, 0.02736544, 0.10450662, 
	0.40418589, 0.14113553, 0.53044218, 0.09154470, 0.05344560, -0.01098770, -0.10989457, 0.03583555, 
	0.28536236, 0.04936697, 0.00040044, 0.03670385, -0.90738380, -0.09925398, -0.09200247, 0.03688622, 
	0.07575180, -0.34897551, -0.36676538, 0.16558339, 0.14355022, 0.11365791, -0.34303203, 0.02835364, 
	0.46660700, -0.36344784, 0.44085953, 0.23900305, -0.17876162, 0.06731377, 0.14166342, -0.33466825, 
	0.14980827, 0.05979525, 0.15833905, 0.02611630, -0.18712316, -0.32461521, -0.06992713, -0.10889472, 
	0.06302778, -0.01855412, -0.20159748, 0.18808265, -0.31331629, -0.05628266, -0.20384413, 0.12525886, 
	-0.39632916, -0.04898084, -0.30813748, -0.02518609, 0.01530332, -0.15745674, -0.21528369, -0.30846673, 
	-0.07171958, 0.04405177, 0.16594239, 0.17926884, 0.04533611, 0.51954144, -0.07547230, -0.04987315, 
	-0.05586375, 0.08139474, 0.17725947, 0.38287452, 0.31135276, -0.08572245, -0.19081759, -0.10441656, 
	0.39845505, 0.05681553, 0.49017969, 0.09016056, 0.10254058, 0.21203613, -0.50855756, -0.15590720, 
	0.23879753, -0.05980270, 0.08893374, 0.08752499, 0.62319374, -0.43642256, -0.07978181, -0.05719860, 
	0.23466253, -0.28961328, -0.31585467, -0.48288047, -0.05500439, -0.06579578, -0.20747860, -0.10554113, 
	0.29416087, 0.15290184, 0.60129362, 0.00023069, -0.13947518, -0.09895206, 0.43352714, -0.37697262, 
	-0.12574841, -0.21732058, 0.09223171, 0.02316928, -1.00754607, -0.52196866, -0.20833242, 0.16933855, 
	-0.03241635, 0.14181265, 0.37595111, -0.11870565, 0.32876036, -0.06414688, -0.01727449, -0.35891753, 
	-0.25847226, -0.05427309, 0.28414765, 0.05222514, -0.12100235, 0.26919478, -0.51129740, -0.07528018, 
	-0.28494722, -0.31166324, -0.09166536, -0.22927096, -0.39930192, 0.12126223, 0.08027715, 0.09952397, 
	-0.00439300, -0.03113608, -0.37788105, 0.05604843, 0.17609605, 0.15388504, -0.22191499, -0.12299304, 
	-0.42666826, 0.02259856, -0.22018483, -0.15615506, 0.21782288, 0.12125761, 0.56236386, -0.23852891, 
	-0.38813856, 0.11147383, -0.19838521, 0.04466992, 0.25208396, 0.06878098, 0.00516804, -0.14516257, 
	-0.01147970, 0.19249104, -0.35087702, 0.10862408, -0.62678951, 0.11630090, 0.11574405, 0.00736328, 
	0.05574412, -0.07146869, -0.39412454, 0.16354068, -0.28098652, 0.00865079, 0.73360056, -0.02932740, 
	-0.00399836, -0.20318037, 0.33800235, -0.18760774, 0.35845983, -0.32748681, 0.01638577, 0.04911231, 
	-0.10707967, 0.03721163, 0.53022504, -0.25756350, 0.01035032, 0.01275168, 0.17677659, -0.18276910, 
	0.18070526, -0.20555924, -0.35493335, 0.22977281, 0.12473273, -0.14177115, -0.17561601, -0.24652751, 
	-0.19859789, -0.00719088, -0.17586640, 0.09098451, 0.44996852, -0.25147048, 0.73588049, -0.02827489, 
	0.12045430, 0.18036371, -0.05749221, -0.36882702, 0.05084394, -0.02993928, -0.00412270, 0.00113378, 
	-0.27355984, -0.17733335, -0.13819639, 0.12892297, 0.03509885, -0.05758435, -0.68609798, 0.25310069, 
	-0.80110478, 0.05805428, -0.08746171, -0.05475641, -0.85765058, 0.12931909, -0.26450598, 0.01539245, 
	0.19016649, -0.01384082, 0.07654031, -0.05478532, -0.29577768, 0.03788772, -0.09937972, 0.00897504, 
	-0.32463846, -0.07465389, 0.15144318, 0.01062237, -0.15203594, 0.00764100, -0.47989336, -0.02616032, 
	0.16317515, 0.03235449, 0.12402799, 0.15449399, -0.01606064, 0.01256148, 0.09187225, -0.14332417, 
	-0.18901235, -0.01258914, 0.41318488, 0.20709929, 0.88134670, -0.03869553, -0.05863113, 0.10754593, 
	0.28169271, -0.02667617, -0.08791751, 0.09655284, -0.12848431, -0.13172370, 0.22231103, 0.86725456, 
	-0.08849496, -0.09455057, 0.26800820, 0.16768087, 0.30656940, -0.29730603, 0.31696093, 0.24933799, 
	0.19208956, 0.11574574, -0.13225371, -0.16252217, -0.04656139, -0.07579498, 0.19628547, -0.24406192, 
	-0.31243420, -0.04924528, 0.08062514, -0.09966475, -0.21498244, 0.06932927, -0.04026083, 0.43098292, 
	-0.13458650, 0.00754608, -0.12877332, 0.04271350, -0.31252122, 0.30454171, 0.26624426, -0.11038911, 
	0.28755668, 0.12253271, 0.26563692, 0.15414159, 0.31143856, 0.11372633, -0.01122108, -0.10337465, 
	
};

const static dl_matrix3d_t refinementLayerweight = {
	.w = 18,
	.h = 20,
	.c = 1,
	.n = 1,
	.stride = 18,
	.item = ( fptp_t *)(&refinementLayerweight_item_array[0])
};

const static fptp_t refinementLayerbias_item_array[] = {
	-0.11794565, 0.43579441, -1.38048124, 0.22773419, 0.98760939, 0.10140441, -0.92854548, 1.76501155, 
	1.80190265, 0.91383433, 0.65331042, 0.69051915, -0.29417196, 0.87712550, 0.92023408, -1.02290106, 
	-0.01476183, 2.09185934, -0.17311767, -0.16300464, 
};

const static dl_matrix3d_t refinementLayerbias = {
	.w = 1,
	.h = 20,
	.c = 1,
	.n = 1,
	.stride = 1,
	.item = ( fptp_t *)(&refinementLayerbias_item_array[0])
};

const static fptp_t lstmweight_ih_l0_item_array[] = {
	0.05281322, 0.35017082, 0.56495929, -0.16301906, 0.57604760, -0.14884076, -0.01839656, -0.36870191, 
	0.38291335, 0.29523116, 0.12376247, 0.47041121, 0.00679957, 0.05345365, -0.06802075, 0.00559113, 
	0.20921287, -0.01363700, 0.13577066, 0.02129191, -0.21298045, 0.03163725, 0.03912850, 0.27654284, 
	-0.06368249, 0.06208103, -0.07636828, -0.52523357, -0.47891095, -0.08628250, 0.01460362, 0.32819381, 
	-0.36176991, 0.00168731, 0.56592685, 0.26062199, 0.43796206, -0.19906905, -0.46452987, -0.07264161, 
	-0.40981489, -0.27615720, -0.03164574, -0.40453553, 0.02134920, 0.04685184, -0.74781680, 0.09733801, 
	0.16116510, 0.30927214, -0.48667040, 0.16415407, 0.37872359, 0.01664431, -0.27603915, 0.32795775, 
	0.44666594, -0.15321027, 0.08131823, 0.23964128, -0.14577453, 0.50495315, -0.08099622, -0.35577068, 
	0.11869281, 0.37433875, -0.39505744, -0.06812067, 0.23427509, -0.31874168, 0.13582423, -0.28826192, 
	-0.14169584, 0.16024989, 0.36389604, 0.03960187, 0.50483572, 0.17087013, -0.19832398, -0.06041631, 
	0.01668956, 0.21326806, -0.19342525, -0.18363281, -0.06166648, 0.24820188, -0.28696415, 0.22687866, 
	0.05291812, 0.08272614, -0.16890769, 0.16129003, 0.18426436, -0.03738108, -0.07155763, 0.33396187, 
	-0.07071351, -0.13272262, -0.23217413, 0.30516967, -0.08979280, -0.03315065, 0.04691277, 0.07516019, 
	0.09206793, -0.32787564, 0.03603650, -0.38331380, 0.00393931, -0.15655254, -0.15120731, 0.05323180, 
	-0.02955280, 0.35930824, -0.39596245, 0.35236132, 0.05602287, -0.46844807, 0.10184108, -0.33986795, 
	0.12185409, -0.12784395, 0.13235059, -0.10969294, 0.22576746, -0.72394717, -0.08225688, -0.49976650, 
	-0.48506221, -0.06594421, 0.15721598, 0.13741282, -0.11654177, 0.30866757, -0.14638531, -0.08140984, 
	0.07709648, -0.04966915, -0.01818217, 0.11747733, 0.24312504, 0.22893853, 0.15667047, -0.07603514, 
	-0.11112177, -0.03590059, -0.06602821, -0.04687371, 0.01259295, -0.22843461, 0.10790549, -0.04681026, 
	-0.35572755, 0.24238384, -0.04698969, 0.13478728, -0.21004567, -0.07430410, -0.06210118, 0.18797395, 
	-0.08411103, 0.02077961, 0.48623857, 0.11715718, 0.26247752, -0.34621450, -0.20363797, -0.11467376, 
	-0.20807818, -0.00537257, -0.27891788, -0.18625854, 0.01648386, 0.12980019, 0.06486982, -0.00675576, 
	0.28629622, -0.20706567, 0.03615679, -0.01114033, 0.25291148, 0.09254406, 0.38922757, -0.18578306, 
	0.20699738, -0.30050740, 0.06247189, 0.09192076, -0.15830792, -0.06291847, -0.27911302, -0.55053264, 
	0.18103483, 0.28670585, -0.23574020, 0.04034847, -0.39302248, 0.00648917, 0.04846010, 0.12782180, 
	-0.05711516, -0.29326761, -0.29204419, 0.07101509, -0.04553718, -0.19839713, 0.03944484, -0.03930920, 
	0.49491426, -0.21385324, 0.00248943, -0.06988309, -0.15942146, 0.53620809, 0.26401040, -0.16852430, 
	-0.14889282, 0.09739033, 0.12787730, -0.67952442, -0.48201653, 0.35085380, 0.02548658, -0.32100493, 
	0.09836596, 0.13379729, -0.14914829, 0.24052857, 0.30432475, -0.07156329, -0.05873124, 0.38675445, 
	0.02492563, -0.44469079, 0.39700350, -0.00408909, 0.11985672, 0.03181580, -0.06855188, 0.18757913, 
	0.08609279, 0.34853831, 0.10772108, 0.05718845, 0.08691367, 0.09181729, -0.21836860, 0.38319492, 
	0.81584239, 0.18915781, 0.07567157, 0.06873185, 0.41998115, 0.15468982, 0.22854280, 0.05438846, 
	0.08401272, 0.16040407, 0.34033361, 0.25481534, 0.14303339, 0.26571956, -0.08403646, 0.32157484, 
	0.19875695, 0.19988178, -0.16810924, 0.47636756, -0.26634577, -0.04602300, -0.04650552, -0.09933608, 
	0.14025193, -0.18904725, 0.24599116, 0.00505409, -0.09983727, 0.07397600, -0.42148504, 0.48343480, 
	-0.00523723, 0.19715263, -0.12897021, 0.41778827, 0.31029874, 0.12192745, -0.58438545, 0.13366860, 
	-0.04904911, 0.28255069, 0.15436497, -0.08814440, 0.08130736, -0.31904724, 0.34517789, 0.06706167, 
	0.10144027, -0.21031643, -0.44418103, 0.23502405, -0.15628028, 0.28755614, 0.51716828, 0.06991899, 
	0.01192139, -0.08851348, 0.29763904, -0.24807958, 0.21049160, -0.28578305, 0.02931922, 0.16688581, 
	-0.31431195, -0.06360780, 0.07384177, 0.02870423, 0.18221241, 0.12865745, -0.06138442, 0.12115389, 
	0.35432360, 0.37105340, 0.23363560, 0.17685440, 0.56063926, -0.04751663, -0.05083251, -0.15727630, 
	0.29215950, 0.04059025, 0.06532029, 0.19574526, 0.12276878, 0.37367392, -0.09628693, 0.20983131, 
	0.09724027, -0.33403376, 0.29450297, 0.05834402, -0.00099054, -0.03271773, 0.07071567, 0.29371080, 
	-0.01854948, -0.00011357, 0.04587837, 0.17511366, -0.29900017, 0.29170233, 0.20867072, -0.22372888, 
	0.04791056, -0.10691974, -0.34643918, 0.25344658, -0.06039516, -0.27285990, 0.19987836, 0.18207723, 
	-0.08968734, -0.14852537, -0.01582272, 0.31216943, -0.36462584, 0.12915269, 0.22993997, 0.22584893, 
	0.41354203, 0.12589310, -0.02586119, -0.17832848, 0.25979382, 0.02009002, -0.58560187, 0.49775267, 
	-0.03493023, -0.30425817, -0.13464606, 0.34344724, -0.12803814, -0.22058797, -0.14807276, -0.25139120, 
	-0.22379193, 0.13224232, 0.03573332, 0.27052236, -0.11169367, -0.24687240, 0.07272986, -0.38507110, 
	0.02360291, -0.53811389, 0.13162795, -0.04318126, -0.21638246, 0.30800271, 0.13277587, 0.19160935, 
	0.10683770, 0.13928516, 0.30203304, 0.48962477, -0.12708110, -0.06442450, 0.00165960, 0.18547249, 
	0.04013195, -0.36046317, -0.22185463, -0.11676061, 0.07374242, -0.06167252, 0.00154806, -0.24493128, 
	-0.31943935, 0.10003275, -0.02983704, 0.03996630, -0.10660087, 0.08984347, -0.32182160, 0.05489058, 
	-0.12131244, -0.05244010, -0.27522641, 0.04493789, -0.30403599, 0.43327793, 0.02081771, 0.17664379, 
	0.23879616, 0.10818791, -0.23316824, -0.16941918, 0.09111524, 0.11361375, -0.45029324, 0.11086658, 
	-0.04155452, 0.11221281, 0.07649404, -0.41991642, -0.09841389, 0.21716551, -0.05883097, 0.30781910, 
	0.55177730, -0.36629602, 0.29312804, -0.05051202, 0.06740423, 0.04924821, 0.27326009, -0.16494215, 
	0.18513788, 0.60773385, 0.32698086, 0.09881049, -0.19020593, 0.43125847, -0.14247149, -0.06121853, 
	0.05648368, 0.20964779, -0.17252459, 0.08599678, 0.59207845, 0.46501055, -0.06779937, 0.03635865, 
	0.12124623, 0.01419837, 0.21589035, -0.28938749, 0.14764608, 0.12976666, -0.19723661, -0.16933718, 
	-0.11195731, 0.04336737, -0.05867983, -0.29528576, 0.06750575, -0.05553604, -0.03227722, 0.16328108, 
	0.51543635, 0.29377165, -0.12101938, 0.05195189, 0.22419731, 0.06510773, 0.15384020, -0.47744569, 
	0.05010775, 0.09383795, 0.41929805, -0.11278000, 0.17977884, 0.42799491, -0.42816275, -0.16857240, 
	0.10005514, 0.15165660, -0.12023938, 0.54941344, 0.56190574, 0.12583013, 0.11519817, -0.02049246, 
	0.14090924, -0.30631083, 0.31580848, -0.12173942, -0.38552210, 0.13769835, 0.19697733, -0.19069447, 
	0.30978623, -0.04635474, 0.02878354, -0.45037439, -0.39247712, -0.22171307, -0.01165242, -0.07012326, 
	0.03354479, -0.36412632, 0.29483703, -0.54614317, -0.24872820, 0.19269118, -0.22045362, 0.25779974, 
	0.11198226, 0.26204291, -0.02387876, 0.18295468, -0.00078641, 0.00568230, 0.25375882, 0.16111331, 
	-0.12836583, -0.13894825, -0.10539420, -0.12822524, -0.08121032, 0.13478285, -0.34456882, 0.21210322, 
	-0.29016432, 0.32350662, 0.08060610, 0.08386131, 0.09749123, -0.08823491, -0.12422396, -0.13328524, 
	-0.20352052, -0.09236950, 0.29539704, 0.36680886, -0.09082806, -0.02042959, 0.03461607, -0.34998468, 
	0.30112880, 0.33768225, 0.29577839, 0.10702322, -0.20131682, -0.02925682, -0.04912740, -0.24378945, 
	0.29609987, 0.27166852, 0.15167484, 0.18165329, 0.01754520, -0.04351290, -0.08012726, -0.35598466, 
	0.10693334, 0.28327742, -0.10519796, 0.31765833, 0.43588519, 0.00751329, 0.34711620, -0.22939016, 
	-0.08884516, -0.13581184, 0.15561268, -0.07565423, -0.12588377, 0.53446478, 0.30138114, 0.06042636, 
	0.04790077, 0.18845722, -0.34026414, -0.00304199, 0.03446038, 0.28047365, -0.27460477, 0.02027428, 
	0.08285808, 0.50106436, 0.30091143, 0.06799945, 0.00054047, -0.02910769, -0.12867166, 0.24826606, 
	0.27812511, -0.00664802, -0.28723854, -0.32855472, 0.03779089, -0.14284286, -0.26718712, 0.22248957, 
	-0.12720399, 0.23050953, 0.04365934, 0.10432068, 0.41388300, 0.17097981, 0.33745888, -0.09758551, 
	0.32327369, -0.22645599, -0.10875028, 0.19433416, -0.11353452, 0.02699694, 0.32995346, 0.06117415, 
	0.10042390, 0.13878198, -0.25502652, 0.26412922, -0.06422835, -0.25341165, -0.14125726, 0.00893951, 
	-0.56991637, -0.11783358, -0.06721518, -0.18175907, -0.57776803, 0.07764260, 0.20373768, -0.20740236, 
	0.13712876, -0.19250046, 0.24612416, -0.42872608, 0.08713236, 0.04758874, -0.02417906, -0.06422655, 
	0.20460583, -0.03807017, -0.19293575, 0.15862669, 0.55099481, 0.15745029, -0.00754834, 0.00955276, 
	-0.06347835, 0.18961692, 0.53888762, -0.29439497, 0.09148927, 0.25453177, 0.09164228, 0.12460104, 
	0.07215922, 0.27888033, -0.14643915, -0.22973713, 0.26474968, -0.04769536, -0.15911363, 0.17622991, 
	0.35474059, 0.30313441, 0.04831286, -0.13654830, -0.10298073, 0.19819871, 0.21343982, -0.65942961, 
	0.20254670, 0.31621832, 0.28391853, -0.21757415, -0.01085638, 0.08844028, -0.25328916, 0.46693170, 
	0.15474227, -0.14937925, -0.27775750, -0.04761073, 0.41909343, 0.20255969, -0.08110464, 0.18594012, 
	-0.02652479, 0.15498285, 0.02508906, 0.11020245, 0.19731382, -0.31086934, -0.15705329, -0.39865348, 
	0.10699219, 0.14656132, -0.55196762, -0.06011997, -0.12050693, 0.11641958, -0.10260385, 0.31542751, 
	-0.32374540, -0.16286813, -0.08869800, 0.08761100, 0.12442516, 0.00312716, 0.04257477, -0.16363452, 
	-0.44298866, 0.33812881, -0.38552362, -0.16214629, -0.24417005, 0.02595579, 0.13974473, -0.02700962, 
	0.00700425, -0.12872069, 0.08773753, 0.35166222, 0.34690228, 0.00386737, -0.10521433, -0.18920051, 
	0.22402665, -0.23091425, 0.29793891, -0.51252323, -0.12019998, 0.05769342, 0.30609903, 0.09553705, 
	-0.03841313, -0.17023881, -0.11679822, -0.13884637, 0.09886018, -0.00666675, 0.14071152, 0.17296615, 
	0.31084687, 0.21695967, -0.06404859, 0.03995953, 0.06041174, 0.25858569, 0.18496761, -0.47651824, 
	-0.18610457, 0.29224718, -0.19353007, 0.05669934, -0.13390155, -0.09554321, 0.17787832, -0.24124381, 
	0.20275201, 0.16385135, -0.25271842, 0.04359944, 0.15596814, 0.03294535, 0.32189891, 0.05347439, 
	0.37088886, -0.24230963, -0.02022265, 0.13315915, -0.16706990, -0.02458307, 0.34354952, 0.10664906, 
	-0.13660449, 0.08389471, 0.02400422, 0.31624746, 0.51458901, -0.44113424, -0.24000441, -0.05518853, 
	0.41689557, 0.26700264, -0.07213625, 0.34639925, 0.02396116, 0.28227109, 0.37320766, -0.03153464, 
	0.01880934, 0.21921104, 0.09383195, -0.02492965, 0.08828578, -0.00629001, 0.00539280, -0.47450253, 
	0.02189959, 0.12967050, -0.06105500, 0.22956994, 0.17909475, 0.02769847, -0.14231092, -0.06675699, 
	0.19673590, -0.18371211, -0.34096497, 0.28657365, 0.23136766, -0.09979762, 0.39791164, 0.25748572, 
	-0.18215832, -0.02457728, 0.00098084, 0.18754476, 0.43230560, 0.01340175, 0.00832578, 0.15279263, 
	0.51750070, -0.21295947, -0.24705896, 0.43601844, 0.19676824, 0.15914744, 0.25673172, 0.05547204, 
	0.21122079, -0.48247743, 0.26842725, -0.17554107, 0.12956010, 0.25769839, -0.06833535, 0.08014812, 
	0.05642009, -0.00339319, -0.33724475, -0.02313527, 0.18846238, -0.20789140, 0.09181567, 0.05092501, 
	-0.00574655, 0.40891945, 0.00678138, 0.17440166, -0.13704674, -0.02902960, -0.29456332, 0.01371117, 
	-0.09170703, 0.59583157, -0.10409945, -0.07339358, 0.14084546, 0.25253317, 0.12637109, 0.12531613, 
	0.39883298, -0.38730949, -0.14756878, 0.22273536, 0.03248882, 0.24328208, 0.33560544, 0.01716599, 
	-0.29035363, -0.04398342, -0.21059239, 0.44638357, -0.22107901, -0.15295573, -0.23318294, 0.00393749, 
	0.09958949, 0.27299407, 0.31452829, 0.20384003, -0.15730856, 0.03992808, -0.28761294, 0.11608972, 
	0.45376253, -0.40008050, -0.23023631, -0.10523005, -0.03295747, 0.22279803, 0.39016363, 0.41618186, 
	-0.12919739, -0.17283110, 0.03559447, 0.06652024, -0.04980388, 0.14724119, 0.09170362, 0.33346584, 
	-0.01171080, 0.18430719, -0.16245784, -0.33375874, 0.48198625, -0.31727511, -0.25333840, 0.08780586, 
	-0.06829252, 0.17062013, 0.03779823, 0.06225713, 0.22097494, 0.24824226, 0.01514977, 0.06708045, 
	0.09785180, -0.07902279, -0.04248489, -0.13737054, 0.02180580, -0.05951333, 0.02398819, -0.10522131, 
	-0.29469016, 0.20991999, 0.30458552, 0.05443758, -0.06250452, 0.04966089, -0.06418639, 0.09488025, 
	0.00179621, -0.03953510, 0.09339730, -0.28784007, -0.11101862, 0.06036212, 0.21735728, 0.08168387, 
	-0.10132868, -0.16195419, 0.31722447, -0.32396162, 0.26228154, -0.13238509, -0.16401339, -0.04016873, 
	-0.18608770, 0.12965436, -0.28170508, 0.04395624, 0.23207055, 0.28055918, -0.04388120, 0.14829969, 
	0.15484890, 0.40311068, 0.05243882, 0.12551749, 0.22619943, -0.25004876, 0.16388504, -0.09989231, 
	-0.15408808, 0.00822661, -0.27001521, 0.38462979, -0.16032059, -0.15525565, -0.43588549, 0.06421132, 
	0.18069582, 0.00839232, 0.04360360, 0.02084959, -0.13581218, 0.16769864, 0.26438445, -0.15453927, 
	-0.43845162, -0.31527299, -0.11236478, -0.11587688, 0.23689444, -0.21142885, -0.46953118, -0.19787055, 
	-0.14813721, -0.05433194, -0.10280871, -0.03392962, 0.23824063, -0.05180483, -0.02428860, 0.16385680, 
	0.18568881, -0.17528336, 0.08583128, -0.03003242, -0.39997131, -0.03069581, -0.09420534, -0.07609299, 
	-0.21787705, 0.27019000, -0.23110181, 0.08400487, 0.01292376, 0.00746226, 0.10873228, -0.07002845, 
	0.15485002, 0.17732263, 0.06372236, 0.25912610, 0.17634262, 0.28047547, -0.21663103, 0.20780574, 
	0.32727486, 0.16825521, 0.14150487, -0.12718882, 0.21196099, 0.17550771, 0.21250248, -0.03701257, 
	-0.14010543, 0.26608387, 0.13477392, 0.09389129, -0.08430204, -0.02427287, -0.02451960, -0.02157832, 
	0.41464028, 0.45493245, 0.20593195, -0.28206208, -0.05499003, -0.40298274, 0.13540256, 0.19906168, 
	0.08747871, -0.17115700, -0.10314374, 0.31828898, 0.19172162, 0.22959264, -0.11010290, 0.08869460, 
	-0.01284948, 0.00769908, -0.11742347, 0.01395023, 0.42271498, -0.05496799, -0.12308973, -0.34100848, 
	-0.00148637, 0.39262733, 0.43041825, 0.42727232, 0.09637620, 0.16142824, -0.04659177, -0.04728956, 
	0.09516420, 0.12012442, 0.02170896, -0.16220045, 0.21603601, -0.35556805, 0.00003942, -0.11068211, 
	0.18732929, 0.16932480, 0.01283878, 0.48095137, -0.23990707, -0.15021625, 0.03044474, -0.30939957, 
	0.30900693, -0.06029625, -0.00216000, -0.15652698, -0.36795139, 0.14164422, 0.17203346, -0.14586844, 
	0.32003143, 0.12735005, -0.28378195, 0.24565354, 0.16092986, -0.05907727, -0.49935281, 0.14123620, 
	-0.04868648, -0.18170111, 0.09585021, -0.21068588, -0.08453462, 0.42347130, 0.28045854, 0.16896084, 
	-0.11272471, -0.17906226, 0.51396590, -0.10006169, -0.04163036, 0.10972312, 0.03464166, 0.04122046, 
	0.04999556, -0.05179259, 0.04650758, -0.30894589, 0.12867174, -0.13537401, -0.29246986, 0.03855257, 
	-0.05147301, 0.13514891, 0.00426298, 0.17435904, -0.17500453, -0.15124150, 0.14760761, -0.19402084, 
	0.21728194, 0.07220396, 0.43621075, -0.38086450, -0.02526200, -0.01345502, -0.05221672, -0.38473383, 
	0.07623408, 0.00431111, 0.05340254, 0.04014666, -0.06585442, -0.00427188, -0.20395704, 0.08789631, 
	-0.16955446, 0.07186040, -0.36607805, 0.20945342, -0.01529598, 0.39047271, 0.08503494, 0.28229269, 
	0.28312579, -0.07362930, 0.00322970, -0.34373096, 0.05358765, 0.19540155, -0.24953845, 0.07261771, 
	-0.08072781, 0.21784006, -0.28379831, 0.18632698, -0.06166504, -0.16808587, 0.07791030, -0.21830359, 
	0.09486809, 0.11666317, 0.53641218, 0.25618237, -0.05709194, 0.06012672, 0.31267565, 0.11235957, 
	-0.20707130, -0.25453255, -0.17793605, 0.09611642, 0.13965163, 0.07541843, 0.03141937, 0.02130510, 
	-0.21359560, -0.04253283, 0.10764524, 0.19321480, -0.06050465, 0.08028804, -0.24536595, 0.05535171, 
	0.05472582, -0.26575491, 0.03924321, 0.09637959, -0.10116044, 0.16498572, 0.16428769, 0.17293467, 
	0.12465490, 0.09226583, -0.01966696, -0.07764399, -0.13634332, 0.11349510, -0.25934395, 0.03082111, 
	0.00633873, 0.05538595, 0.02131360, -0.06395304, 0.36995086, 0.01430871, -0.12449332, 0.02274439, 
	0.08518425, -0.03048026, -0.16910043, 0.16817629, 0.20835024, -0.04421505, 0.27728835, -0.26259363, 
	0.37243697, -0.11497252, 0.05390915, 0.32411572, -0.15317276, 0.14191464, -0.12222590, 0.03378668, 
	0.16444528, -0.01425039, -0.07056723, 0.20815252, 0.33193949, 0.32705104, -0.01158987, 0.03984470, 
	-0.09978215, 0.23989236, 0.17590375, -0.01949373, 0.08104336, 0.18688451, -0.09734894, 0.15600239, 
	-0.33099747, 0.06610461, -0.22391972, -0.22543500, 0.02793477, -0.09319334, 0.12759292, 0.14134666, 
	-0.05423063, 0.12574586, -0.11600983, 0.24054162, 0.08637008, 0.16575049, 0.11634193, -0.09591930, 
	-0.10338389, 0.09275194, 0.07290643, -0.07545703, 0.28181368, 0.36538509, 0.42451361, -0.09930073, 
	0.19998799, 0.04869397, 0.01569259, 0.10196177, 0.72126114, 0.12683628, 0.48634833, -0.03480778, 
	0.15337583, -0.41256607, 0.08305279, -0.22423047, -0.58469450, 0.06653953, 0.28680342, -0.26490045, 
	0.25487936, -0.02303800, 0.25408888, -0.18275721, -0.18101245, 0.01918037, -0.14026289, -0.27365944, 
	-0.17442453, -0.12027796, -0.02918938, -0.21640794, -0.24821375, -0.02846211, -0.00987093, -0.03333573, 
	0.25669450, 0.23470129, -0.21729185, 0.11609758, 0.19739906, 0.00961845, -0.25086236, -0.00500330, 
	0.04489651, -0.01907873, -0.13788036, -0.10892588, -0.26271790, -0.04095103, -0.26025954, 0.26534456, 
	-0.17530257, 0.29188472, -0.01196259, -0.21665344, 0.11404118, 0.00403112, -0.17307058, -0.00340768, 
	0.04547399, -0.13166651, 0.06219823, 0.30103344, -0.03748403, 0.05545480, -0.21560918, 0.06835879, 
	0.29528832, 0.15998828, 0.00178365, 0.38014320, -0.12129422, 0.20644307, 0.07426981, -0.20224027, 
	0.13522968, 0.17809248, -0.01049763, -0.02878271, -0.04605632, -0.05759057, -0.02318133, 0.13013582, 
	0.03179764, 0.06902369, 0.10784993, 0.00604496, 0.09159086, 0.08155309, 0.23398992, 0.00040115, 
	-0.28239161, -0.07311583, -0.06447440, 0.01587397, -0.09161236, 0.35570693, 0.00067026, 0.28937423, 
	-0.20175964, 0.02145299, -0.14521144, -0.06480820, 0.18582460, 0.25785714, -0.25026760, 0.25577474, 
	0.33687970, 0.29708070, 0.31162813, 0.06296649, -0.24930884, 0.05213575, -0.06550165, 0.10291009, 
	0.15619834, 0.06834602, -0.21619640, -0.30314395, -0.24527824, -0.04679640, -0.21948914, -0.00599638, 
	-0.18902458, 0.23632257, -0.01033651, 0.01034840, 0.30329356, 0.16285087, 0.23941533, -0.04162623, 
	0.17486291, 0.06799719, 0.11709429, 0.07888190, -0.19965456, -0.08556739, 0.04620310, -0.04409878, 
	0.22374627, 0.10215665, -0.27074000, -0.11898623, 0.17240053, -0.00338919, -0.07512383, 0.11748491, 
	-0.16659199, -0.14585829, -0.08464929, 0.15741995, -0.18836284, 0.03646784, 0.26337415, -0.19313277, 
	0.03314381, -0.18191925, -0.03573977, -0.30138958, 0.15056069, 0.17532669, -0.03855620, -0.05699855, 
	0.13588336, -0.14958419, -0.19976975, 0.24591932, 0.36054581, -0.00519708, 0.01427233, -0.17879856, 
	-0.00465193, 0.04290225, 0.32419175, -0.24033232, 0.26890564, 0.26180950, 0.05377866, -0.08681257, 
	0.02996306, 0.27860135, 0.00399956, -0.04404955, 0.13450791, -0.19023143, -0.29005992, 0.00276304, 
	-0.09865618, 0.27920964, 0.00374597, -0.14308572, 0.04356199, 0.20653997, 0.02077850, -0.41946343, 
	0.22804745, 0.26174322, -0.01155104, 0.07997586, -0.08674026, 0.24308176, 0.66148794, 0.14756939, 
	0.14031169, -0.26207116, -0.06672492, 0.02061618, 0.01787161, 0.13123828, -0.05774485, 0.04148185, 
	-0.08872964, 0.22414769, 0.02989204, -0.19969238, 0.18904717, -0.09285340, -0.12059356, -0.02958865, 
	0.07957202, 0.12454721, -0.14237580, 0.02646793, -0.20320016, 0.14983337, -0.26222849, 0.11826511, 
	-0.30867541, 0.03424073, 0.09251384, -0.05945132, -0.08251433, -0.01064875, 0.06072431, -0.13572133, 
	-0.34359637, -0.04086719, 0.15522264, 0.04049854, 0.00265175, 0.21407384, 0.03043003, -0.01072348, 
	0.15021473, -0.17524086, 0.08916619, 0.22085811, -0.06829660, 0.19494301, 0.13065735, -0.23606890, 
	-0.04114716, -0.24583416, 0.05217098, -0.26720834, -0.04654343, 0.12070901, 0.16358863, 0.29186943, 
	-0.00072650, -0.08495817, -0.20457871, 0.01118848, 0.02132325, -0.14976506, 0.17419045, 0.08376342, 
	0.13703103, 0.19125734, 0.08502074, 0.04529576, -0.04655474, 0.07941893, 0.25782162, 0.09188494, 
	-0.17148469, 0.21791297, 0.06426832, 0.07739221, -0.10196795, -0.35836357, -0.15884504, -0.16264182, 
	0.01365952, 0.11148291, 0.01582528, 0.17800654, -0.13654229, -0.06258597, 0.24760976, 0.06079045, 
	0.03182875, -0.11106713, 0.10044731, -0.07207176, -0.11865433, -0.02382258, -0.15124713, 0.19379921, 
	
};

const static dl_matrix3d_t lstmweight_ih_l0 = {
	.w = 20,
	.h = 80,
	.c = 1,
	.n = 1,
	.stride = 20,
	.item = ( fptp_t *)(&lstmweight_ih_l0_item_array[0])
};

const static fptp_t lstmweight_hh_l0_item_array[] = {
	0.16898720, -0.12146628, -0.03217196, 0.00344199, 0.13255598, -0.04593017, -0.32019681, -0.03802351, 
	0.04345611, 0.15049736, -0.38187212, -0.24353722, -0.01995950, -0.20293933, 0.29974270, -0.29297248, 
	0.08522241, -0.02799071, -1.15409732, -0.17918415, 0.24213623, -0.84318870, -0.08806546, -0.03051910, 
	-0.47278091, 0.70184594, -0.10095166, 0.15976338, 0.54373723, 0.76974207, -0.07758600, -0.33264965, 
	0.44578376, -0.62323862, -0.22154696, -0.32456318, 0.49087048, -0.31722417, 0.10006484, 0.04778741, 
	0.06381783, 0.32168511, 0.59469444, 0.50929242, 0.09581652, -0.27939203, -1.59518826, 0.63819718, 
	-1.32269812, 0.76575476, -0.54025608, -0.64107913, 0.58554226, -0.38855121, -0.08493770, -1.31112194, 
	0.81034797, 0.29278997, -1.29063690, -0.21541806, -0.12183131, 1.87350070, -0.87636626, -0.99186397, 
	-0.19855793, -0.65082401, 0.01421549, 0.30954954, -0.13326122, 0.96987754, 0.10298777, 0.26075494, 
	0.93853211, -0.49283010, 0.49559006, 0.39781299, -0.37307659, -0.14572413, 0.92961019, -0.31692606, 
	0.47775188, -0.58268040, -0.02123481, 0.41393709, 0.31225359, 0.05947633, 0.31099740, 0.30929667, 
	-0.15235639, -0.07012583, -0.25812802, -0.87062657, 0.51788259, -0.28250816, 0.35205382, -0.14899831, 
	0.42840508, -0.36107400, -0.80060619, -1.21091878, 0.92971194, -1.97712898, 1.35587621, 0.91869086, 
	0.74878442, 0.29563797, -1.64623606, 1.45953226, -1.10091233, -1.21298313, -0.00370037, 0.14606738, 
	2.25854826, 1.51478410, 1.35089242, -1.72032082, 1.16639590, 2.26780796, 0.64079911, 1.21228182, 
	0.56260890, -0.17624643, -0.47948250, -0.06052198, -1.01099336, 0.12855980, -0.74386340, 0.21059547, 
	0.37045142, -0.40191093, -0.00864200, -0.25052342, -0.11313342, -1.11477816, 0.26089013, -0.76151502, 
	0.45115951, -0.33644027, 0.00348311, -0.53696841, 0.05385447, -0.22272296, -0.00870287, 0.40390110, 
	-0.06624267, 0.31474388, 0.05777705, 0.26026869, -0.04226821, -0.32305536, -0.05690077, -0.58224905, 
	-0.07834958, -0.25540823, 0.08142257, -0.31750977, -0.11818207, -0.02096071, -0.37671706, -0.48462626, 
	0.05012977, 0.45432973, -0.84656602, -0.99438894, -1.48788369, -0.29325584, -0.10315385, 0.50409698, 
	0.27383202, 1.14243126, 0.01279172, -1.48946619, 0.24987583, -0.28822351, 0.17649531, -0.39689609, 
	0.48128381, -0.97286934, -0.85884708, -1.02285826, 0.01237348, -0.65653718, 0.10624132, 0.66821992, 
	-0.05313234, -0.25334519, 0.37932208, 0.12448040, -0.01600064, -0.25102511, -0.36942923, 1.15409362, 
	0.48233488, 0.03567627, 0.02391576, -0.21975246, 0.91746831, 0.24969667, 0.73393863, 0.06506422, 
	0.95678329, -0.16589706, 0.45364827, 0.97026348, 1.51276064, 1.15347457, -0.45832244, 0.11682269, 
	-0.62488604, -1.27095628, -0.40254653, -0.13708858, 0.39702046, -0.33690625, -0.54316002, 0.50348234, 
	-0.13054489, -0.08531085, 0.92907923, -0.80961746, 0.38395214, -0.02921863, -0.44646904, 0.15299240, 
	-0.14353427, -0.05020771, -0.15016846, 0.28903979, -0.40884212, -0.07087707, -0.54250753, -0.12371188, 
	-0.90101981, 0.12897366, -0.29664001, 0.07511497, 0.40715513, -0.70412403, -0.00840913, -1.12647963, 
	0.27061814, -0.36748743, -0.26376271, 0.56821257, 0.74224919, -0.00375457, -0.01971189, -0.15728891, 
	-0.33539116, 0.48823634, -0.25284490, -0.65156984, 0.50244737, 0.24558555, -0.46825409, -0.18269560, 
	0.31652778, -0.17347443, 0.88103110, 0.65016049, 0.68872505, -0.12546581, 0.44818595, -0.11046385, 
	-0.55797589, -0.04752992, 0.25930628, 0.22200085, 0.31056717, -0.51196009, 0.00124423, -0.38030219, 
	0.50782239, -0.83228326, 0.92111647, -0.19039495, 1.17774427, -0.29285088, -1.41503441, 0.48028517, 
	-0.23692067, 0.24193890, 0.41550633, 0.11790395, 0.08680683, -0.06229261, 0.16828841, 0.10988978, 
	-0.02012439, 0.34408975, -0.46209580, 0.15209536, 0.01744756, -0.29904544, 0.11353439, -0.34356239, 
	-0.34843504, -0.69192523, -0.24914342, 0.58975530, 0.19614448, -0.00007575, -0.45873895, -0.07866245, 
	-0.61560357, -0.22362764, -0.36035797, -0.01421388, -0.11252610, -0.62531883, 0.24060203, 0.14948177, 
	0.21264105, 0.11740796, -0.05382815, -0.42364526, 0.42614326, -0.45393556, -0.92315155, -0.16125184, 
	0.06559791, -0.15740046, 0.33492196, -0.12416212, -0.06534489, -0.07989580, -0.27388060, 0.13034508, 
	-0.26321697, -0.03497423, -0.09041377, 0.08268885, 0.28730080, -0.14274922, 0.31154650, 0.05500610, 
	0.11101072, -0.11536597, -0.14245337, 1.07304180, 0.08319975, -0.91190660, 1.52963901, 0.48463127, 
	0.43375456, -0.26715493, -0.23428629, 0.05836922, -0.95457208, 1.46619105, -1.08659935, 0.00807002, 
	0.92368013, -0.12598246, 0.23272142, -0.57912135, 0.66913307, -0.58796990, 2.06577682, -1.27590322, 
	-1.09241259, 0.38556334, 0.55154794, 0.90375131, -0.88273877, -0.52463865, -0.64358181, -0.10586046, 
	0.59697407, 0.47066516, -0.38493690, -0.59206736, -0.53622174, -0.39001802, -0.09418125, 0.06642858, 
	-0.05181167, -0.60265332, -0.47618192, -0.81348461, 0.64484268, -0.10209902, -0.14612383, 0.27133459, 
	-0.35280302, 0.00892063, 0.59509522, 0.05374413, 0.12870352, 0.01514402, -0.41650960, -1.15995371, 
	0.21226121, -0.88080722, 0.68154418, -0.12696806, 0.04390535, -1.04006159, -0.36780050, -0.65392172, 
	0.63273048, -0.48560402, 0.33579257, 0.80768353, 0.39346150, -0.25581321, -0.41108036, 0.29957756, 
	-0.42487365, 0.22431706, -0.69621730, -1.42368150, 0.77640766, -0.42066517, 0.33021486, -0.45017880, 
	0.64769220, -0.71406788, -1.88972461, -2.38705778, 1.27900374, -0.55501837, 0.79698026, 0.41331458, 
	0.40783018, -0.48146573, -1.10100067, 1.29644561, -1.59827876, 0.01815286, -0.99554354, -1.22250450, 
	0.96352392, -0.79094142, 0.77909946, -1.20785415, 0.97713459, -1.22172832, -1.13685668, -1.46318531, 
	0.39129183, -0.24520934, 0.09111461, -0.14793593, 0.46810886, -0.63646239, -0.80252612, -0.35118702, 
	-0.36258110, -0.04670666, -0.54107404, -0.97146249, 0.06150109, -0.49464983, 0.75589830, -0.21280755, 
	0.04686366, -0.65808052, -0.86762607, -0.96741599, 0.61632770, -0.20253050, 0.75472683, -0.18869290, 
	0.16562425, 1.41059232, -0.97575176, 0.87856084, -1.56885767, -0.24337958, -0.93788803, -0.74476689, 
	-0.92077112, -0.66678166, -0.10670647, -1.40441418, -0.54314721, -0.67198348, -0.44751477, -0.60901165, 
	0.25351572, 0.04085827, 0.16793856, 0.61519200, -0.15077250, 0.36386862, -0.07016577, 0.17095998, 
	-0.17748138, -0.13775438, -0.59462851, -0.82894909, -0.33077902, 0.11302085, 0.25643295, -0.17079833, 
	-0.61745822, -0.54389805, -1.26386797, -1.13398671, 0.04231490, -1.59664023, -0.38616070, 0.59294468, 
	0.97252756, -0.48625526, -0.43855444, 1.23256958, -0.30504429, -0.02291526, -0.30303025, 0.00581775, 
	1.15903616, -0.99591482, 0.55972779, -1.22525501, 0.81680495, 0.04255908, 0.68320668, -0.22822727, 
	0.31408229, -0.28942940, 0.16858390, 0.12075942, 0.23799922, -0.58250648, -0.30072954, 0.22330426, 
	0.10339925, -0.57704616, -0.53523242, -0.59519100, 0.42323694, -0.36675087, 0.34503374, -0.45019245, 
	0.51150626, -0.88606864, 0.43952885, -1.74459827, 0.30376241, -0.17082851, 0.21179435, 0.27212355, 
	0.31578505, 0.22737689, -0.08902032, 0.00451084, 0.01969618, -0.14173830, -0.30922639, -0.53430837, 
	0.20221874, -0.39888871, 0.32682747, -0.66476339, 0.38289097, -0.07706697, 0.37392896, -0.72557497, 
	0.27470878, -0.26054737, 0.69208783, -0.28499243, -0.08739826, -0.01290878, -0.59996510, 0.48418799, 
	-0.17037411, 0.16173653, -0.78463185, -1.18646443, -0.02167623, -0.40518364, 0.26296803, -0.42488289, 
	0.81931162, -0.70710874, -1.69039941, -1.16954434, 0.54847783, -0.35210636, -0.22107920, -0.04445774, 
	0.52560145, -1.02526569, -0.28314406, 0.53442055, -0.53663611, 0.25478399, -1.93544519, -2.04446650, 
	0.55376536, 0.29547226, -0.61826605, -0.51433462, 0.50385952, -2.09757447, -1.05742633, -2.74259329, 
	0.80118704, 0.32075161, 0.55803984, -0.15259913, 0.37656903, 0.04058466, -0.52124792, 0.71392971, 
	-0.15701245, 0.33324188, -0.72626221, -0.77016413, 0.45555487, -0.81268328, 0.88817692, -0.56622362, 
	0.28341463, -1.09406328, -0.46193504, -0.87510586, 0.41535076, -0.24035586, 0.13065030, 0.36297670, 
	0.54988021, -0.51673102, -0.64891261, 0.42425844, -0.57510793, 0.68949515, -0.58642709, -0.57220250, 
	0.74289864, -0.47941864, 0.05964547, -0.48231518, 0.53710055, -0.25495103, -1.00200033, -1.01866877, 
	0.33473721, -0.29511401, 0.22464988, -0.32594159, 0.32604009, -0.15255342, -0.30784023, 0.25403246, 
	-0.22005777, -0.21633504, -0.55152214, -0.64504373, 0.31260303, -0.38784188, 0.15514788, -0.58854496, 
	0.77367872, -0.72939837, -1.04323471, -1.01098895, 0.80328679, -2.32650018, 0.33265388, 1.39324212, 
	0.28070304, -0.10815598, -1.18554509, 2.09732509, -2.22643304, -0.92048699, -1.68498266, -0.75401407, 
	0.68860072, -0.35275656, 0.52469391, -1.66944683, 0.63196927, -1.42962575, -1.60667694, -2.14724922, 
	0.33714715, -0.19836386, -0.06220940, 0.40479147, 0.79906332, -0.12739089, -0.44475991, 0.62497044, 
	-0.24879932, -0.03165516, -0.60629535, -0.98145062, 0.21736708, -0.11883790, 0.32918757, -0.56836689, 
	-0.08750615, -0.90507782, -0.01266755, -0.82064849, 0.51051277, -0.28525132, 0.03281686, 0.56720406, 
	0.29337317, 0.10800441, -0.26121721, 0.44470635, -0.21999815, -0.78806615, -0.46541342, -0.55286491, 
	0.39631012, -0.25098547, 0.18761337, -0.31011203, 0.66707200, -0.72949100, -0.76472801, -0.39531586, 
	0.32106593, -0.27124506, 0.41078988, 0.23283593, -0.01618482, -0.51311129, -0.35421383, 0.19289237, 
	-0.03563930, 0.41595632, -0.32196599, -0.59604496, 0.62328488, -0.56125718, 0.66525400, -0.34927651, 
	0.69917053, -1.29610300, -0.39809534, -0.83531719, 0.66345024, -0.50630701, 1.14302266, 0.98182875, 
	1.34943140, 0.55771023, -0.66615719, 0.51643848, -1.03319466, -0.51756281, -1.18023992, -0.90628773, 
	0.88299775, 0.48035815, 0.20258713, -0.20390885, 0.12625280, -0.12638156, -1.07648206, -1.35271811, 
	-0.43752220, -0.08945124, 0.03587065, 0.69355434, 1.10365009, -1.42634046, -0.10310663, 2.34137011, 
	-1.14077413, -0.06367464, -3.21135902, -2.44734287, 0.68438041, 0.37522835, -1.57718611, -1.34934115, 
	0.54890370, -1.43016040, -1.40999115, -2.94385386, 1.42097342, -0.45505312, 0.19379473, 1.02027702, 
	0.61845976, 0.12451784, -0.07727443, 0.78700137, -0.82166457, -0.22810419, -0.78928632, -1.44650686, 
	1.25462556, -1.23495507, 0.44899759, -0.99242938, 1.12252820, -0.58939755, -0.71421742, -1.26652694, 
	1.25238764, -0.77815020, 0.66402006, 0.71035439, 1.35550642, -0.97469634, -1.00980628, 1.28631663, 
	-1.18249345, 0.09944604, -0.72318983, -0.81324500, 0.51368797, -0.70124936, 1.19248724, -0.62268388, 
	1.06648576, -0.65948141, 0.63658005, -0.92835844, -0.77562213, 0.65756541, -0.01765255, -0.62229413, 
	-0.81552362, 0.05035008, 0.85244858, -0.53861839, 0.70600444, 0.49915746, 0.42623398, 0.00314562, 
	-0.29443866, 0.14129999, -0.04301075, 1.49327230, -0.17209026, 0.30489868, -0.77184087, 0.48856282, 
	0.79406518, -0.07473920, 1.12259161, 1.09405375, 0.19711417, 1.23833752, 0.04426118, -0.00348893, 
	-0.78415883, -0.30622464, -0.31613064, -0.30193022, -0.08080679, -0.44828346, 0.44942436, 0.07621446, 
	0.26096240, 0.10734019, 0.02659323, -0.10768141, 0.95582229, -1.57470322, 1.63617206, 1.64098728, 
	1.19874001, 0.45145789, -1.48360312, 1.34947431, -2.12032580, 0.42515910, -0.54195416, -0.05054531, 
	0.44878495, 0.14105518, 0.88005918, -1.13385296, 0.10452759, 0.16805468, 0.16920947, 0.39810398, 
	0.23139320, -0.23085767, 1.52923536, 0.71891242, -0.37732932, 1.46514273, 0.00265446, 0.13036428, 
	-1.93451965, -0.29766822, -0.70901179, -0.29890183, -0.23026928, 0.49240690, 0.69689333, -0.30305135, 
	-0.88658917, 0.29386911, 0.79340267, -0.01293082, -0.39797008, -0.00266997, -0.13295729, -0.25593606, 
	-0.20601219, 0.31200370, 0.53083962, -0.36681929, 0.05165073, -1.08329189, 0.25161949, 0.35895282, 
	-0.35362658, 0.35747495, -0.14202158, 0.38309738, -0.65229082, 0.40535393, -0.30438939, 0.95237678, 
	-0.35406220, 0.28489491, -0.66884279, -0.07679847, -1.05546105, -0.25521970, 0.05816230, -0.02321417, 
	0.13034466, -0.08161946, -0.12908910, -0.05430508, 0.09987634, -0.31374401, -0.18336053, 0.60358959, 
	0.32149649, 0.03974969, 0.24785073, -0.34274188, 0.27153605, -0.20798698, 0.11888079, 0.03211089, 
	0.10418860, 0.19223295, -0.33393702, -0.24304223, 0.12357067, -0.08843251, -0.12842995, 0.03962984, 
	0.00276827, -0.28185254, 0.05348700, -0.42739531, 0.18496019, -0.25004634, -0.03180366, -0.43121660, 
	-0.57250261, 0.43445379, -1.37376511, -0.29431957, -0.71085149, -0.08897375, 0.79095906, -0.54843563, 
	0.17818224, 0.04327305, 0.06380906, -0.49461964, 0.09638445, 0.13507006, -0.14288624, 1.37722719, 
	0.02524909, 0.01443661, -0.79511720, -0.20968813, -0.47704896, 0.14594661, 0.15534246, 0.48406550, 
	0.98746741, -0.38916722, 0.06542865, -0.27901992, -0.42576575, -0.66533524, -0.78690153, -1.38448846, 
	-0.50004476, 0.23844939, -0.05914126, -0.05333095, -0.48423269, -0.26059523, 0.19418985, -0.49733278, 
	-0.73175716, 0.46589357, -0.14551401, -0.17621206, -0.53367186, 0.08601858, 0.43651614, -0.52302808, 
	0.39338538, -0.16410375, -0.07556304, 0.61871725, -0.21383618, 0.18669447, -0.35638356, 0.43194339, 
	-0.39943671, 0.70815635, 0.95552993, 1.06221247, -0.91661423, 0.00281642, -0.23705453, 0.10091224, 
	-0.36837840, 0.59531158, 0.42092976, -0.31632319, 0.55625141, -0.04605305, 0.30257413, 0.50842637, 
	-0.85826975, 0.66732359, -0.74146974, 1.33222866, -0.76295882, 0.13409792, 1.18449032, 0.81888807, 
	0.49883848, -0.14762092, 0.63995177, -0.26965266, -0.51481915, -0.27561864, -0.08622997, 0.36141190, 
	-0.26342443, -0.35410804, 0.12527992, -0.64595610, 0.17039277, -0.36215052, 0.82508165, -0.15008098, 
	0.81395972, -1.42317331, -0.28128719, -1.06716883, -1.71320581, 0.08129895, -0.82093590, 0.01088432, 
	0.48523504, 0.14235193, 0.58279538, -0.80974698, 0.80597490, 0.82628709, -0.06605732, 0.65330487, 
	-0.41807759, 1.91640675, -0.19818830, 0.28835177, -1.56261420, 0.56766790, -0.07641684, 0.83918744, 
	0.73097670, -0.49146500, 0.20197389, 0.20782663, 0.18568289, 0.02257737, -0.33589143, 0.15517415, 
	-0.20190287, -0.35189658, -0.34722510, -0.56276107, 0.19160390, -0.34417933, 0.57555217, -1.04474723, 
	1.90650892, 0.03934018, -0.09178967, -0.32267591, -0.58070081, 0.32279339, -0.68440866, -0.26330981, 
	-0.33067545, 0.28456622, 0.64385599, -0.16602905, 0.40569803, 0.06748597, 0.45853946, 0.72927624, 
	-0.23812653, 0.72563320, -0.30118224, 0.95447290, -0.16240771, 0.21738446, -0.33827025, 0.55541414, 
	0.33972800, -0.30150616, 0.11658107, 0.41943708, 0.21695386, 0.16460736, -0.36649197, 0.64434856, 
	0.20179747, -0.99346268, -0.06741699, -0.28655648, 0.93498379, -0.69512290, 0.26559141, -0.28925857, 
	0.14088202, -0.37948719, -0.83536953, -0.97609186, -0.72288471, 0.26040438, -0.31604448, -0.25543234, 
	-0.01748922, -0.02670541, 0.57028019, -0.43133187, 0.20215076, -0.07771599, 0.64454639, 0.29199496, 
	-0.18328372, 0.44210157, 0.06834260, 0.43238488, -0.51892447, 0.38541299, 0.02528366, 0.24896540, 
	-1.62931442, 0.90719330, 1.00237489, -0.24213222, -1.31736231, 0.95097494, 0.72419530, -0.27413875, 
	-0.34416568, -0.52837169, 1.25481212, 0.77130908, -0.72436613, 0.42942038, -1.51589501, 1.34789467, 
	-1.90656114, 0.45566067, 2.55783725, 0.61143279, -0.79625958, 0.62559414, -0.56896484, -0.69901401, 
	-0.38462645, 0.35439685, 0.88463539, -0.60851556, 0.93799841, 0.02581410, 0.43715122, 0.74481744, 
	-0.92978245, 0.75184250, -0.41577518, 1.45666313, -0.25113273, 1.09197128, 0.40171406, 0.95326692, 
	1.03259957, -0.18830793, 2.54148626, 0.34230375, 0.57428688, 0.50817174, -0.28940913, 0.69448590, 
	-0.78211302, 0.60617608, -0.81679249, -0.59756398, 0.73952353, -1.17831612, 0.69527191, -0.90336621, 
	0.46945676, 0.17606950, 0.32370222, -1.46293294, 0.45565680, -0.68301702, -0.18705794, 0.39533105, 
	0.33157480, -0.64037639, -0.75645864, 0.48753679, -0.41536248, 0.27182233, -0.80173969, -1.11473119, 
	0.61583114, -0.32049182, 0.00425070, -0.96586460, 0.64198530, -1.51656866, -1.60258710, -2.17162633, 
	0.43523210, -0.02927827, 0.61270916, 0.11266585, 0.74131858, -0.68118286, -0.41881591, 0.16169129, 
	0.08566698, 0.88066018, -0.27132440, -0.65520865, 0.36433589, -0.49667290, 0.26582709, -0.34370893, 
	-0.23343553, -0.43389297, -0.91011590, -0.57487988, 0.10263325, -0.06162659, 0.26517013, 0.51049930, 
	0.51625496, 0.03050560, -0.20502435, 0.46381098, -0.28619102, 0.55134511, -0.26338935, -0.94262952, 
	0.14251819, -0.31142646, 0.26744616, -0.35398442, 0.14213613, -0.90334827, -1.15445328, -1.70244026, 
	0.63715094, -0.05633533, 0.28857723, 0.29999661, 0.24333529, 0.13597292, -0.45432448, 0.64509064, 
	-0.18496978, 0.16245516, -0.55408871, -0.58336157, 0.13503462, 0.00676109, 0.36087963, -0.65109050, 
	0.10986770, -0.72531044, -1.62308085, -1.66520011, 0.10923636, -1.03161895, 0.34522873, -0.42135161, 
	0.21285969, 0.00538790, -0.17998680, 0.16789633, 0.09382951, -1.00807595, -0.28128505, -0.30268639, 
	0.81235290, -0.09477879, -0.25691184, -0.64462119, 0.18164535, 0.11371967, -0.04305408, -0.41963270, 
	0.25284132, -0.23434298, 0.14356707, 0.28212529, 0.00071795, 0.09698079, -0.30532345, 0.32387292, 
	0.08870008, -0.15748551, -0.15929353, -0.39192930, 0.15735489, -0.14156409, 0.30813617, -0.28413558, 
	0.02306049, -0.34265435, 0.33622327, -1.02202642, 0.46260378, -0.32071301, -0.04179883, 0.02225177, 
	0.17301360, 0.02385666, -0.43248636, 0.48992261, -0.33706287, -0.01516553, -0.57252711, -0.65649420, 
	0.36597905, -0.23028183, 0.04503730, -0.55576777, 0.47374678, -0.45287555, -0.19196346, -0.89098817, 
	0.39440849, -0.14578412, 0.38872182, 0.05202337, 0.07726467, -0.29821599, -0.14564016, 0.31878957, 
	-0.27561036, 0.12339921, -0.46875471, -0.87498760, 0.59872705, -0.27010566, 0.15350640, -0.36821285, 
	0.43436593, -1.07496476, -1.93962741, -1.61384094, -0.29693401, 0.38274929, -0.59615546, -0.32437924, 
	-0.28196523, -0.50534493, 0.88012522, -0.10149516, 0.68249309, 0.09153058, -0.44815168, -0.31885555, 
	-0.05070997, 0.44967237, -0.17902447, 0.33188936, 0.38339525, -1.42248344, -1.15234149, -1.97968233, 
	0.22258233, -0.21530007, 0.46418670, 0.17537148, 0.06209824, -0.08703200, -0.18927905, 0.26127699, 
	-0.13817024, 0.05364211, -0.58704638, -0.50264663, 0.12515835, -0.21140009, 0.25896946, -0.26056740, 
	0.10557140, -0.62514162, -0.20400599, -1.04713190, 0.41661352, -0.28716385, 0.41988754, 0.55938679, 
	0.51276338, 0.35825935, -0.16966064, 0.44739750, -0.86969763, 0.96066272, -0.29691985, -0.57719380, 
	0.33324450, -0.30197769, 0.00537967, 0.02006395, 0.21389838, -0.38473552, 0.58633220, -1.61586535, 
	0.30117342, -0.10918558, -0.01148312, 0.17333049, -0.08045521, -0.13222192, -0.22284999, 0.27978715, 
	-0.31850559, 0.02924453, -0.28110719, -0.49301136, 0.55943769, -0.07895437, 0.30410758, -0.39027458, 
	0.26423499, -0.73339927, -0.58709013, -2.25422335, 0.33664951, -0.78229618, 0.01492573, 0.17193836, 
	0.01467053, -0.25038072, -0.38162434, 0.27702931, -0.22634806, -0.26569057, -0.51906121, -0.26378229, 
	0.26024702, -0.23358707, 0.57323593, -0.53820026, 0.29188055, -0.48801902, -0.60592782, -0.79129100, 
	0.43760476, -0.47244194, 0.11776853, 0.13004218, 0.28167009, -0.62042123, -0.42589974, 0.41527641, 
	-0.57314128, -0.05048154, -0.49947476, -0.57244736, 0.27625075, -0.46243909, 0.57710570, -0.79893696, 
	0.02093167, -0.66669220, 0.53785956, -0.49324325, 0.48707256, -0.42006552, 0.06337991, -0.05607415, 
	-0.02636416, -0.32821593, -0.47006613, 0.32728425, -0.38301608, -0.35663247, -0.40960753, -0.16831528, 
	0.38273120, -0.21355607, 0.59218979, -0.34590766, 0.55085886, -0.79337430, -1.14586461, -1.12143040, 
	0.76699436, 0.03109969, 0.25823906, -0.31435540, -0.81397468, -0.85500216, -0.15488164, 0.38702410, 
	0.53909713, 0.57147455, -0.34643462, -0.27925393, 0.47588587, -0.78833956, 0.56607997, -0.22234452, 
	0.66832423, -0.45980418, -0.96470070, -0.51278424, 0.52572429, -0.26412496, -0.05918246, -0.04187858, 
	0.31460640, 0.10251166, -0.37464878, 0.27506486, -0.41153967, 0.08764738, -0.44781813, -0.55859357, 
	0.16156682, -0.24849653, 0.31106296, -0.17422947, 0.14570852, -0.29518571, -0.97065908, -0.29730168, 
	-0.49650231, 0.79427212, 0.69612479, -0.32241255, 0.26064527, 0.11236455, 0.49181378, 0.39149824, 
	0.04493078, -0.44744459, -0.89332712, -1.26991796, 0.69720209, 0.13757168, -0.51665705, -0.96536326, 
	0.92516083, -0.48690918, -0.72023278, -2.25207567, 1.39594376, -0.85731310, 1.65065193, 0.72705078, 
	0.38443694, 2.44541550, 0.23945396, 0.42007378, -1.23338485, 0.48962530, -0.84715575, -1.19616675, 
	0.45806190, -1.86265862, -0.89613360, -1.09724307, 0.13433582, -0.48105657, 0.43381375, -1.72556078, 
	
};

const static dl_matrix3d_t lstmweight_hh_l0 = {
	.w = 20,
	.h = 80,
	.c = 1,
	.n = 1,
	.stride = 20,
	.item = ( fptp_t *)(&lstmweight_hh_l0_item_array[0])
};

const static fptp_t lstmbias_ih_l0_item_array[] = {
	-0.02107247, 0.06641287, 0.32608855, 0.09835739, 0.20573609, -0.35388047, 0.34493414, 0.21101591, 
	0.53645688, 0.16739050, 0.36153695, 0.45788532, -0.11762644, 0.34020409, -0.16039068, 0.15185960, 
	-0.03938793, 0.28891429, 0.45028338, 0.66400063, 1.10347807, 1.09604084, 0.68569958, 0.78352839, 
	0.53707850, 0.49495208, 0.80726415, 0.24532460, 0.37197968, 0.96169549, 1.00254560, 0.66551405, 
	0.40590388, 1.47016048, 0.44112456, 0.25283742, 0.50822908, 0.69002992, 2.89731789, 1.62226284, 
	0.98053938, -0.07516528, 0.07947000, 0.20956947, 0.09071257, -0.24467923, -0.29235527, 0.10447206, 
	-0.29861772, 0.01061262, -0.40998647, -0.30415589, 0.21071573, -0.42826200, 0.21071453, -0.11227189, 
	0.39525664, -0.13404709, -0.70614684, -0.88743716, 1.02829039, 0.66182476, 0.38307455, 0.55488324, 
	0.46819225, 0.28583303, 0.24103083, 0.59557241, 0.19605181, 0.26565221, 0.23517227, 0.40710917, 
	0.28119713, 0.44037056, 0.34331551, 0.47932923, 0.39788359, 0.16024499, 0.89073098, 1.82801104, 
	
};

const static dl_matrix3d_t lstmbias_ih_l0 = {
	.w = 1,
	.h = 80,
	.c = 1,
	.n = 1,
	.stride = 1,
	.item = ( fptp_t *)(&lstmbias_ih_l0_item_array[0])
};

const static fptp_t lstmbias_hh_l0_item_array[] = {
	0.28244776, 0.02999013, 0.34875458, 0.28742805, 0.30135483, -0.27670011, 0.33279228, 0.39141038, 
	0.34567168, 0.00494931, 0.45249495, 0.31206575, 0.02266335, 0.17773446, 0.11979433, 0.23701134, 
	0.17748025, 0.41751403, 0.37522113, 0.59429789, 1.11178303, 1.44966614, 0.38374698, 0.72916180, 
	0.52248430, 0.54621321, 0.81312722, -0.02914673, 0.14047423, 0.68187296, 1.05715573, 0.65335804, 
	0.59117317, 1.38117957, 0.43606764, 0.54887903, 0.24743871, 0.80622995, 2.77540493, 1.61754775, 
	1.05305076, -0.22668430, 0.43308023, 0.18719739, 0.26453760, -0.15773888, -0.18725020, -0.09093884, 
	-0.05392590, 0.33011752, -0.47476992, -0.31940165, 0.11735897, -0.64566219, 0.14665355, -0.47849530, 
	0.45170322, -0.11514896, -0.74582225, -0.74830675, 0.73614526, 0.82480556, 0.50630283, 0.56101978, 
	0.86390346, 0.34567600, 0.25017288, 0.34664834, 0.40724105, 0.16729765, 0.61808163, 0.51325983, 
	0.48391247, 0.23332046, 0.27984720, 0.21246970, 0.50572360, 0.21701439, 0.59034222, 1.72309530, 
	
};

const static dl_matrix3d_t lstmbias_hh_l0 = {
	.w = 1,
	.h = 80,
	.c = 1,
	.n = 1,
	.stride = 1,
	.item = ( fptp_t *)(&lstmbias_hh_l0_item_array[0])
};

const static fptp_t layerFinalweight_item_array[] = {
	0.41945165, -0.50676823, 0.30599907, 0.50566065, 0.42704552, -0.22353061, -0.54695797, 0.48393410, 
	-0.54758120, 0.13919878, -0.44351137, -0.65019196, 0.59772998, -0.44798023, 0.31911460, -0.45863104, 
	0.46407911, -0.59673798, -0.35062605, -0.83902484, -1.08080089, -0.22588006, -0.33194679, 0.54345089, 
	0.61036628, -0.78517306, 0.39686075, -0.15298088, -0.23494969, 1.06149280, -0.21253034, 0.41421428, 
	-0.08425415, 0.99923861, -1.13969040, 0.21422955, -1.24840248, 0.50954521, 1.65733635, 0.97976226, 
	0.11372827, 0.37723744, 0.13833894, 0.11271461, 0.76809084, 2.03504348, 0.34771669, 0.00815327, 
	0.05830866, -0.71199197, 0.54607630, -0.02090824, -0.32894811, 1.01765633, 0.12185869, 0.50165761, 
	-0.43268561, 1.76768005, -0.92253846, 0.58862352, -0.71827871, 0.10326304, -0.77067381, 0.01648462, 
	0.92015576, 0.57561737, 0.30508775, -0.06211066, -0.09392334, -1.39263904, 0.67724264, 1.16256678, 
	-0.07522909, 1.48349428, 0.15675239, 0.48804399, -0.07712994, -0.91734546, -1.18904853, 0.72148085, 
	-0.62873304, 1.80933058, -0.10439835, -0.59961957, -0.54302526, 1.58458781, 0.62620014, -0.62600219, 
	0.93954742, 1.48821604, -1.06397498, -0.36988014, -0.53488821, 0.25457427, 0.06921353, 0.76459277, 
	-0.27985507, 0.16091700, -0.51516855, 0.80368143, -0.43647194, 0.26355097, -0.94315314, -1.17218375, 
	-1.01966619, -1.49567449, 0.44497058, -0.55445337, 1.24997497, -1.40504861, 0.31292996, 0.72290522, 
	-0.12768932, -0.24311905, 0.50088435, 0.72821349, 0.11695284, 0.53990394, -0.40978357, 1.49695945, 
	-0.70593452, 0.37484783, -0.29684514, -0.33256218, -0.05221681, 0.97237396, 0.68777406, -0.75885171, 
	0.10648628, -1.38478017, 0.72001415, 0.53758311, -0.31177673, -0.05055911, -0.69265777, 0.25821766, 
	-0.74414605, -0.06284713, 2.24340773, -0.02899593, -0.57693160, -0.04537870, -0.48927703, -1.39080691, 
	-0.61990374, -1.36062610, 0.35522020, -0.50558698, 0.37911341, 1.81965888, 1.20376527, 0.07381242, 
	-0.21348439, -0.42442411, -0.22692177, 0.68659604, -0.83292520, 0.24372116, -0.97553438, 1.18253469, 
	-0.80306041, -0.27038208, -0.62967950, 0.45450959, -1.49108636, 1.71188354, 0.68619323, -0.34629425, 
	0.63235468, -0.91651571, 0.47101244, 0.90922034, -0.55582154, -0.45882145, -0.81004548, 0.31179836, 
	-0.71678746, 0.20404015, -1.13809466, 0.75166768, 0.07453374, 1.40985775, -0.14585114, -0.86468595, 
	-1.02729094, -0.66270822, -0.18734926, -0.37954178, -0.28717417, 1.19137597, 0.91957194, 0.29159939, 
	-1.42893970, 0.79741734, 0.26669776, -0.41455337, 0.64104754, 0.95675248, 1.30043185, 0.68428200, 
	
};

const static dl_matrix3d_t layerFinalweight = {
	.w = 20,
	.h = 10,
	.c = 1,
	.n = 1,
	.stride = 20,
	.item = ( fptp_t *)(&layerFinalweight_item_array[0])
};

const static fptp_t layerFinalbias_item_array[] = {
	0.51352799, -0.72915035, -0.34152099, -0.53264004, -0.42198884, -0.49545050, -0.05088315, -0.60571343, 
	-0.28568453, -0.22500055, 
};

const static dl_matrix3d_t layerFinalbias = {
	.w = 1,
	.h = 10,
	.c = 1,
	.n = 1,
	.stride = 1,
	.item = ( fptp_t *)(&layerFinalbias_item_array[0])
};

